//Numpy array shape (120,)
//Min -0.079266294837
//Max 0.081733293831
//Number of zeros 0

bias_default_t b5[120] = {0.039675883949, 0.047414675355, -0.031112968922, 0.004870147444, 0.012527243234, 0.014310999773, 0.013606126420, -0.010654700920, -0.006378280465, 0.030494974926, -0.021389497444, -0.006791594438, -0.004903488327, -0.009693176486, -0.000801904185, 0.056749109179, 0.007086376194, 0.005952423904, 0.018398677930, 0.012842475437, 0.006151590496, -0.021435260773, 0.011887852103, 0.007385193370, -0.014455468394, 0.036256261170, 0.025524726138, -0.004292924888, 0.028110796586, -0.010723481886, -0.011720723473, -0.005894732662, 0.035589549690, -0.015315731056, -0.024434080347, 0.031847618520, -0.011871568859, -0.031746041030, -0.079266294837, -0.036366876215, 0.009773124941, -0.033121760935, 0.017605395988, 0.001996837324, -0.013033658266, -0.035522438586, 0.000150386943, -0.014253868721, -0.004027070478, 0.017896959558, 0.015300537460, -0.027950471267, -0.028436947614, 0.014966204762, 0.059657003731, -0.059325706214, -0.031564500183, -0.022113179788, -0.027355778962, -0.028248533607, 0.026831803843, 0.001774800825, 0.008102251217, -0.029552709311, -0.019350159913, -0.012236636132, -0.021983670071, 0.007654092275, 0.027464279905, 0.004667683970, 0.081733293831, 0.042503248900, -0.007881767116, -0.028477057815, 0.065044887364, -0.021476658061, 0.004067112692, -0.008710767142, -0.009215495549, -0.009196995758, -0.036572128534, 0.000836184947, 0.006920416839, -0.045609600842, -0.011299545877, -0.022592708468, 0.038450844586, -0.040808301419, 0.002801277675, 0.040155984461, -0.004923629574, 0.002174060093, -0.000011097349, 0.046220581979, 0.000668383786, 0.007120844442, 0.001532270457, -0.002347494941, -0.001802830724, -0.051685601473, 0.016726061702, -0.030072432011, 0.058989658952, -0.029157351702, 0.013907114044, -0.012826438062, 0.071609564126, 0.057116344571, -0.012214791030, 0.004092651419, -0.013728966936, 0.022518446669, -0.000248747179, 0.027226334438, -0.015682749450, 0.002545378637, 0.029434086755, 0.018800765276, 0.002803800395, 0.011859890074};
