//Numpy array shape (84,)
//Min -0.054779332131
//Max 0.070629991591
//Number of zeros 0

bias_default_t b6[84] = {-0.032966867089, -0.006983916275, -0.038047999144, -0.009882482700, 0.060959815979, -0.007536238991, 0.020086284727, -0.041775535792, -0.009785956703, -0.005947063211, 0.035524152219, -0.041092224419, -0.019280964509, 0.031784139574, -0.048983544111, -0.015788450837, -0.023783938959, -0.012035987340, -0.017229881138, -0.007876897231, 0.069782279432, 0.047852888703, -0.003501100000, -0.016193069518, -0.010035633110, 0.070629991591, 0.021696722135, 0.032718691975, -0.037517290562, 0.008626065217, 0.004888438620, -0.040267899632, 0.012565228157, 0.024001777172, -0.023923447356, 0.050600674003, 0.027741624042, 0.029601853341, 0.038732375950, -0.027232430875, 0.008991451934, -0.027070021257, -0.054779332131, -0.029436258599, 0.017098240554, 0.046566776931, 0.040031053126, -0.028923820704, 0.040764026344, 0.001271030167, 0.030982332304, -0.004330385476, -0.011399333365, 0.024214068428, 0.053599197417, -0.005508277100, -0.000602343120, 0.014781150967, 0.003338275244, -0.006147520151, 0.030861420557, 0.002868968062, 0.022815028206, 0.062813736498, -0.015112570487, -0.012712499127, -0.032406125218, 0.046431940049, 0.000838646258, -0.018054954708, -0.017339974642, 0.035298682749, 0.026389500126, -0.012466176413, 0.038199126720, 0.037746813148, -0.005005435087, -0.004659494385, -0.019553482533, 0.026205413043, 0.043333437294, -0.018712880090, -0.019705660641, -0.007884482853};
