//Numpy array shape (5, 5, 1, 6)
//Min -0.556057095528
//Max 0.515402376652
//Number of zeros 0

static weight_default_t w1[150] = {-0.337356805801, -0.166020527482, -0.188039079309, 0.221865758300, 0.118748374283, 0.205742001534, -0.341677039862, 0.113768704236, -0.255915433168, 0.379037320614, 0.399055749178, -0.032215941697, -0.161198616028, 0.085498139262, -0.293242841959, -0.072428748012, 0.034931562841, 0.194200292230, -0.428016811609, 0.173208594322, 0.209636434913, -0.013107879087, -0.220337077975, 0.130188524723, -0.258916825056, -0.141600295901, 0.047698359936, 0.145651534200, -0.067987322807, 0.212970897555, -0.272383660078, 0.144383355975, 0.164759427309, 0.297457188368, 0.359256207943, 0.179455235600, -0.178463071585, 0.010230756365, 0.083344623446, 0.299191415310, 0.231550797820, 0.121012106538, 0.003026356455, 0.295901000500, 0.168225944042, 0.123389333487, -0.043575864285, 0.133341312408, 0.290596395731, -0.323337644339, 0.309673756361, -0.041217245162, -0.150600522757, 0.268381357193, 0.274468153715, -0.556057095528, 0.210920631886, 0.145993307233, -0.370939105749, 0.198138505220, 0.346928298473, 0.114450491965, 0.190081506968, -0.105560749769, 0.189418435097, -0.299595803022, 0.398651927710, 0.076693527400, 0.349568158388, -0.062701240182, 0.318182200193, -0.344217628241, 0.250854939222, 0.268899887800, -0.007958161645, -0.053904056549, 0.002088906709, -0.210342153907, 0.349439471960, -0.133583903313, 0.403515696526, 0.023825678974, -0.188490077853, 0.370289236307, 0.443564862013, -0.285099953413, 0.054614417255, -0.366709500551, -0.058639660478, 0.284780204296, 0.515402376652, 0.203695401549, -0.238887205720, -0.104580439627, 0.063162237406, -0.398537576199, 0.422673583031, 0.176001831889, 0.064747899771, -0.101257503033, 0.329994797707, -0.133417576551, 0.407677322626, 0.198134168983, 0.088186025620, 0.081647217274, -0.106153331697, 0.113117016852, 0.014117936604, 0.431491523981, 0.198787570000, -0.116621375084, -0.143898248672, 0.143751874566, -0.120333328843, 0.215597599745, 0.325393885374, -0.194255679846, -0.112421609461, 0.332679033279, 0.311206549406, 0.011099584401, 0.035101063550, -0.026785384864, 0.104625143111, -0.140990629792, 0.167671322823, -0.021893363446, 0.195220470428, -0.230315566063, 0.156861975789, -0.062336876988, 0.104853853583, 0.153059750795, 0.102880015969, 0.023699967191, 0.103424213827, -0.195286318660, -0.121365040541, 0.346287786961, 0.268168479204, 0.210108593106, -0.067693904042, 0.137459874153, -0.278216630220, 0.244398459792, 0.380732327700, 0.121165528893, -0.032080478966, -0.022464865819};
