//Numpy array shape (5, 5, 6, 16)
//Min -0.358489841223
//Max 0.384125351906
//Number of zeros 0

static weight_default_t w3[2400] = {-0.066119723022, 0.039552159607, -0.096570953727, -0.039688181132, -0.149482637644, -0.021043291315, 0.034425053746, -0.077677324414, 0.160474583507, 0.063857667148, -0.102990783751, -0.045025177300, -0.227283462882, 0.041903123260, 0.030572101474, -0.174670234323, 0.072888344526, 0.075213715434, -0.161768049002, 0.145293593407, -0.019222205505, 0.081047192216, 0.039491120726, -0.051215954125, -0.053988646716, -0.081649757922, -0.113382846117, -0.141938075423, -0.158417955041, 0.154832914472, 0.089897438884, 0.062686845660, -0.005264621694, 0.040393643081, 0.059159986675, 0.073107577860, 0.049641877413, 0.137000277638, -0.000461736228, -0.171093076468, 0.000367129105, -0.049593538046, -0.049446579069, 0.059809163213, 0.065009035170, 0.111364424229, -0.006392991636, 0.062475994229, -0.107730492949, 0.060653153807, -0.133182153106, 0.087149053812, 0.062512680888, -0.096095107496, -0.108156859875, -0.010126082227, 0.022313851863, -0.064639121294, -0.169337674975, -0.059106685221, -0.248499721289, 0.047419521958, -0.100562043488, -0.019756723195, -0.078322581947, 0.040491390973, -0.071067407727, -0.109841324389, -0.011205809191, -0.029625240713, -0.082535907626, -0.009604801424, 0.078988820314, -0.052012760192, 0.031543679535, -0.129357248545, -0.324723035097, 0.060275487602, 0.209935903549, -0.222490668297, 0.040471863002, -0.007927269675, 0.148148134351, -0.035327095538, 0.026935203001, -0.045132439584, -0.203760638833, -0.020162936300, 0.093218244612, -0.088424049318, 0.078044690192, -0.104534767568, -0.017655970529, 0.090273313224, -0.017773287371, 0.044071674347, 0.276673138142, 0.050733841956, -0.043720446527, -0.000496511580, -0.080708101392, 0.010885166936, 0.069200761616, 0.070041015744, 0.055374700576, 0.053876049817, -0.105735383928, 0.040276542306, 0.012551722117, 0.015813665465, -0.068902216852, 0.083146579564, -0.028950773180, -0.001569670159, -0.099834308028, 0.089318379760, -0.004203763325, 0.062411993742, -0.116560436785, -0.009082856588, -0.118205837905, -0.096118710935, 0.071958117187, -0.032453216612, 0.082744270563, 0.031019132584, -0.031720302999, -0.108886107802, 0.088290706277, -0.043131466955, -0.011158610694, 0.038060944527, 0.143201127648, -0.007483977824, -0.091966085136, -0.134761601686, -0.075885660946, -0.005447083618, -0.082003988326, -0.112198971212, 0.194053962827, -0.048207663000, -0.062322080135, 0.163681939244, 0.014911713079, 0.025956379250, -0.007422651164, -0.095130227506, 0.210664182901, -0.021275442094, -0.169761881232, 0.011313157156, -0.127074643970, 0.018183436245, 0.076706700027, -0.123066708446, 0.033820882440, -0.048818301409, -0.202554911375, -0.079830251634, -0.013633787632, 0.039567716420, -0.064197435975, 0.072501450777, 0.020810693502, 0.060321528465, -0.208085939288, -0.024060485885, -0.043843880296, -0.036845065653, 0.037320312113, -0.020292110741, 0.018806653097, -0.065412163734, -0.018938839436, -0.042356837541, 0.070368647575, -0.021197291091, 0.113509699702, -0.075929336250, 0.062756046653, -0.011091478169, -0.041887424886, -0.087085247040, 0.000407000101, -0.049658972770, 0.028642933816, 0.060111165047, 0.112633027136, -0.034543912858, -0.055332895368, 0.165201053023, 0.384125351906, -0.074804298580, -0.044033762068, 0.042445290834, -0.007576457690, -0.100223265588, -0.073635227978, -0.036442171782, -0.084596782923, -0.073674455285, -0.107699654996, -0.022511078045, 0.002436611801, 0.017531225458, -0.079482041299, 0.145226001740, 0.061023965478, -0.157785713673, 0.134108304977, 0.002729085041, 0.048337932676, 0.011761014350, 0.076750233769, -0.088674552739, -0.142450675368, -0.008439302444, 0.015846664086, 0.007820497267, 0.107383944094, 0.042952343822, 0.120242364705, -0.033499605954, 0.103675596416, -0.068318292499, 0.074620708823, -0.112395778298, -0.034986477345, -0.096438989043, -0.091365188360, 0.092493385077, -0.057008866221, 0.102206774056, 0.028451524675, -0.087526217103, 0.076401099563, 0.059197433293, 0.149792164564, 0.030839586630, -0.109672591090, -0.030038464814, 0.219488322735, 0.010571579449, 0.061781186610, 0.018286690116, -0.080338738859, -0.145529627800, 0.007074230351, -0.020645769313, -0.026221824810, -0.059381175786, 0.106057979167, -0.041624292731, 0.057664953172, -0.014560135081, -0.097574420273, 0.018424427137, 0.104739487171, -0.051394786686, -0.029123364016, 0.113682314754, 0.027617244050, -0.080893792212, 0.013313621283, -0.070218212903, 0.048224981874, -0.026727434248, 0.243014365435, -0.009592102841, 0.020320534706, 0.051141928881, 0.273880809546, -0.112470589578, 0.033609345555, -0.167413741350, 0.061211027205, -0.081550262868, -0.059839591384, -0.103378206491, -0.079712182283, -0.057701360434, 0.081036172807, -0.025139829144, 0.024761386216, -0.030296521261, 0.056383002549, -0.009137185290, 0.256145089865, -0.166891261935, 0.104863226414, 0.005534123164, 0.050133094192, -0.093438223004, -0.037829216570, 0.094795376062, -0.193722173572, 0.007582676597, 0.010635323822, -0.076944768429, 0.001767151523, -0.038934234530, 0.025741731748, 0.048696801066, 0.117788650095, -0.032301254570, 0.083305239677, -0.131362885237, 0.030463343486, -0.036573950201, 0.061196114868, 0.057723648846, -0.105373136699, -0.061987925321, -0.123151712120, 0.032056484371, 0.091650642455, 0.010518720374, 0.016222128645, -0.048882588744, 0.032320000231, -0.043522782624, 0.038200628012, -0.027085121721, -0.002959612058, 0.049994189292, 0.070983700454, 0.021592801437, -0.098881937563, 0.013843808323, -0.070247001946, 0.062805041671, -0.106746286154, 0.079724378884, 0.126392439008, 0.026251759380, 0.058872580528, 0.039228387177, 0.079199440777, 0.029672814533, -0.043281231076, 0.108135819435, 0.011644287966, 0.059871967882, -0.038991566747, -0.077314466238, 0.025943048298, 0.111879803240, 0.119320102036, -0.052894692868, -0.117738068104, -0.071448706090, 0.225488483906, -0.072755172849, 0.036301456392, -0.016968868673, -0.077064096928, -0.020534275100, 0.114347189665, 0.002370442497, -0.001481148298, -0.094220779836, 0.015966726467, -0.078275196254, 0.150092840195, -0.080123260617, 0.030551681295, 0.128047779202, 0.158252611756, 0.017454005778, 0.162207081914, 0.102088049054, -0.032494172454, -0.042953632772, 0.026521824300, 0.185941368341, 0.071295060217, -0.040032573044, -0.071097120643, -0.038888394833, -0.039514753968, 0.086539536715, 0.112187087536, -0.079269111156, 0.010778724216, -0.253066480160, -0.009124277160, -0.171518400311, 0.014604441822, -0.015598842874, 0.001753052464, 0.154467731714, -0.104148529470, -0.062018256634, -0.063772350550, -0.225173532963, -0.048719432205, 0.095618762076, 0.117064639926, -0.076825663447, 0.029985297471, -0.038752309978, 0.079816639423, 0.041364483535, 0.091748334467, 0.108935005963, 0.001686755219, 0.100319884717, 0.071853242815, 0.058929532766, -0.032717891037, 0.079238764942, -0.043925166130, -0.007107754238, 0.104447595775, 0.067499451339, 0.055021483451, 0.033202275634, 0.073040403426, -0.128017365932, -0.061905298382, 0.087602920830, 0.121737621725, 0.007476803381, 0.039246264845, -0.083997189999, -0.098051592708, 0.033400829881, -0.021171845496, 0.136981979012, -0.053781967610, -0.012837530114, 0.218794852495, 0.076079025865, 0.110113307834, 0.097331948578, -0.122670836747, -0.024800896645, -0.003942079842, 0.131784215569, -0.080694288015, -0.023248126730, 0.024524427950, 0.115335568786, -0.064113475382, 0.047692470253, -0.072473704815, -0.036761570722, 0.091938599944, -0.069440938532, 0.042087960988, 0.015524859540, -0.140613317490, -0.108176551759, -0.032849118114, 0.141744911671, 0.059705357999, -0.002195119392, 0.159091532230, -0.096632577479, -0.184277266264, -0.128340706229, 0.026556450874, -0.029855972156, -0.006357647479, 0.155856460333, 0.138556763530, 0.031359042972, -0.139854088426, -0.054770983756, -0.040066577494, 0.132982373238, -0.083356164396, 0.024349575862, -0.127329841256, -0.129094704986, -0.090363763273, 0.021878881380, -0.006779620424, 0.036060582846, 0.194023489952, -0.019655276090, 0.034652136266, 0.085441157222, 0.009251346812, 0.013751722872, 0.041623096913, 0.085350491107, -0.030831404030, 0.112901903689, -0.095893181860, -0.010693957098, -0.155578613281, -0.227130100131, -0.033874548972, -0.181985214353, 0.039171643555, -0.019190002233, -0.167983934283, 0.087018385530, -0.003659932408, 0.105638548732, 0.204906478524, -0.049027208239, -0.024282190949, 0.055440839380, 0.025095257908, 0.147118955851, -0.170918211341, -0.071822516620, 0.005507871974, -0.092960350215, 0.099683903158, 0.079966999590, -0.025929074734, -0.004656537436, 0.063189312816, 0.048522088677, 0.057124786079, -0.044394828379, 0.077507100999, -0.064721792936, -0.167727679014, -0.021522665396, 0.071690969169, -0.077980123460, -0.009131113999, 0.108953177929, -0.237681791186, 0.015755904838, -0.130527809262, -0.001438888139, 0.014290917665, -0.174605876207, 0.151323258877, -0.077651217580, 0.157682180405, -0.090960949659, 0.003722686786, 0.028350697830, -0.280236721039, -0.068669758737, 0.062975652516, -0.152258858085, 0.021512396634, 0.116353049874, -0.080788239837, -0.033119849861, 0.092167913914, 0.059722561389, -0.080532498658, -0.055393557996, -0.021712848917, 0.050953492522, 0.019814416766, -0.061926897615, -0.149565607309, -0.006941181142, 0.127395942807, -0.185901388526, -0.061099488288, 0.019913822412, 0.011376446113, 0.042488772422, -0.011608174071, -0.009628695436, -0.080738335848, -0.041413526982, 0.065950855613, -0.114761367440, -0.003124741372, 0.046296887100, 0.053940348327, 0.119314968586, 0.082946978509, 0.033110260963, 0.198246002197, 0.124721564353, 0.012619534507, -0.043947115541, 0.148310318589, 0.096839442849, 0.060426358134, 0.092524103820, -0.086210377514, -0.042031388730, -0.189253762364, -0.074289456010, -0.082593411207, -0.081598840654, 0.064634516835, -0.014568937011, 0.065049782395, -0.028823977336, -0.216196179390, 0.328971177340, 0.071920990944, 0.126735791564, 0.065695270896, -0.035566706210, -0.030232753605, 0.018646888435, -0.100001461804, 0.106043942273, 0.008928324096, -0.146053522825, 0.096998661757, 0.036179408431, -0.052327319980, 0.010399703868, -0.153024345636, 0.169475272298, 0.039626397192, 0.115226335824, -0.066508181393, 0.014042475261, -0.070432700217, 0.048847932369, -0.217645838857, 0.122315853834, 0.088789969683, -0.152170762420, 0.165047109127, 0.096131965518, -0.013427176513, 0.011759706773, -0.013218743727, 0.024679606780, -0.089759111404, -0.077937282622, 0.073241636157, -0.104708455503, -0.077471829951, 0.083208605647, -0.003032886423, 0.154342025518, 0.029255514964, 0.002140065888, -0.062224980444, -0.143513470888, -0.080229066312, -0.070545963943, -0.126278787851, -0.103382468224, -0.138822257519, 0.069803796709, 0.084093630314, -0.061736192554, 0.104087181389, -0.032439190894, -0.095667906106, -0.009296533652, 0.076382137835, 0.006459385622, 0.068940177560, 0.008762164041, 0.033469244838, 0.007434214465, 0.158375009894, 0.100657865405, -0.035647660494, -0.044616937637, -0.055080257356, -0.201295375824, -0.167954713106, 0.053431786597, 0.006849579047, -0.126074314117, 0.126632764935, 0.075381003320, 0.068397954106, 0.059331998229, 0.043318372220, -0.047452580184, -0.103479966521, -0.006320331711, 0.029222013429, 0.073865406215, -0.111267991364, 0.027628118172, -0.245633110404, 0.057680748403, -0.156708985567, 0.035893507302, 0.022038059309, -0.006266145501, 0.267196536064, 0.132903113961, 0.118112444878, -0.014282608405, 0.001281893230, 0.313406199217, 0.124348342419, 0.048309452832, -0.047712653875, -0.046419650316, -0.048461008817, -0.088003620505, -0.033290375024, 0.172959595919, 0.206926032901, -0.098710417747, 0.160771414638, 0.054467756301, -0.078209072351, -0.251851111650, 0.026755584404, -0.009791945107, 0.057683940977, 0.032496403903, -0.148518711329, -0.119457356632, -0.070383854210, -0.047089174390, -0.171453237534, 0.049875177443, -0.086774498224, 0.056591607630, 0.044910676777, -0.105035535991, 0.095195949078, -0.085302747786, 0.007467789575, 0.002529144986, 0.154071301222, 0.035606335849, -0.070404417813, -0.004217045382, 0.037073548883, -0.080451689661, 0.163057073951, 0.105060510337, 0.088051654398, -0.123034931719, 0.048871822655, -0.053735118359, 0.095366910100, -0.047225400805, -0.036376986653, 0.029118925333, -0.052695062011, 0.110295817256, -0.077010281384, 0.025976831093, -0.005202348810, -0.113998204470, -0.125114962459, 0.022031404078, 0.302760988474, -0.049320798367, 0.128655821085, 0.271397352219, -0.099300876260, -0.042095787823, 0.153128817677, -0.093143835664, 0.000812357408, 0.026709811762, -0.020034572110, -0.124086350203, -0.013776415028, 0.045716479421, -0.054384596646, -0.082592874765, -0.163646310568, -0.088960193098, 0.073923602700, -0.037585746497, -0.265386223793, -0.340288281441, -0.095268070698, 0.148016899824, -0.033208519220, 0.171700879931, -0.142829194665, -0.039504460990, -0.066327549517, 0.038279894739, -0.272806316614, 0.046124029905, -0.060906868428, 0.107643276453, 0.214738503098, -0.081724807620, -0.025215702131, -0.160608008504, -0.034145038575, -0.048688896000, 0.137138754129, 0.096010960639, -0.081584595144, -0.050683207810, -0.013704332523, -0.017065806314, -0.035390514880, 0.121624387801, 0.103070467710, -0.119274057448, -0.057173293084, -0.056443903595, -0.107466772199, -0.110040657222, -0.012545819394, -0.199249088764, 0.149641767144, 0.082984901965, 0.021682564169, -0.045638203621, -0.026033381000, 0.024977963418, -0.124195650220, 0.003083160380, -0.077103868127, 0.103222668171, -0.017666311935, -0.101225130260, 0.247616037726, -0.145656540990, 0.050288245082, -0.059474833310, 0.083479493856, -0.032118164003, 0.047886274755, -0.001443086308, -0.164198592305, 0.038189407438, 0.079120613635, 0.070550926030, 0.117496021092, 0.086009114981, -0.026807034388, -0.040237236768, 0.000050160801, -0.097895555198, 0.095782145858, 0.064174674451, -0.023083182052, 0.000929147587, 0.039699949324, -0.077687077224, -0.083604983985, 0.002824296243, -0.040206175297, 0.058953374624, 0.176251068711, 0.021878097206, 0.148045063019, -0.019343916327, 0.046172913164, -0.023484956473, 0.052175670862, -0.210432037711, 0.155252993107, 0.018488364294, 0.014690105803, 0.080495208502, -0.007539640181, 0.093427412212, 0.011144624092, 0.008718955331, -0.064091868699, 0.130629494786, -0.070808179677, -0.223804444075, -0.217961743474, -0.149456903338, 0.056331358850, -0.029356354848, 0.076986558735, 0.232249394059, -0.157770618796, -0.149973034859, 0.165246352553, 0.068185009062, -0.089567214251, 0.171602040529, -0.054485742003, 0.026558279991, 0.099446564913, -0.217190906405, -0.018121134490, 0.019744141027, 0.067364342511, -0.184858411551, 0.037531465292, 0.071035057306, -0.047093413770, 0.002475918736, 0.020482990891, 0.058427635580, 0.038186699152, 0.097982876003, 0.092153601348, 0.134162664413, -0.023291496560, -0.161077439785, -0.063777245581, 0.216607064009, -0.082063674927, -0.095326200128, -0.023243904114, 0.122707672417, 0.032553944737, -0.045787010342, 0.119374662638, -0.035625863820, -0.009553157724, 0.074539810419, -0.021290397272, 0.019450016320, -0.061260964721, 0.001237125718, -0.001754468074, -0.159992188215, 0.076744087040, -0.113991372287, -0.043412938714, -0.161642700434, 0.039617702365, -0.001122620655, 0.061717681587, -0.006904334761, 0.130707085133, -0.002010761295, 0.036489743739, 0.079686872661, -0.046086985618, -0.006603709422, -0.000699338270, -0.103105351329, 0.055347938091, -0.154557794333, 0.130037963390, -0.109772942960, -0.018531301990, -0.070746079087, 0.155331388116, -0.054333835840, -0.035192694515, -0.064711235464, -0.143983438611, -0.084187202156, 0.091825194657, 0.022708214819, 0.133125171065, 0.061734735966, 0.013491239399, -0.120963484049, -0.074643470347, 0.072274997830, 0.057590458542, -0.089107289910, -0.029694354162, -0.021595533937, -0.063742808998, -0.133544117212, 0.002548777265, 0.112688057125, -0.158537685871, 0.129706144333, -0.026675358415, 0.129364803433, 0.125657096505, -0.097959734499, 0.099600262940, -0.069308869541, -0.011163937859, 0.023997325450, 0.102833703160, 0.108679249883, -0.033561121672, -0.017266971990, -0.116464577615, -0.079506926239, 0.010829094797, -0.113853633404, 0.060518432409, 0.088069185615, -0.024831710383, -0.054009381682, -0.032841015607, 0.018129043281, 0.157758861780, -0.022895822302, 0.051623106003, -0.075676694512, 0.099244698882, 0.176252320409, -0.170173108578, 0.004843419418, -0.070611201227, -0.154810160398, 0.055390276015, 0.049415830523, -0.057575166225, -0.100819982588, -0.027677584440, -0.048485197127, 0.225731909275, 0.099715620279, -0.057181991637, -0.063958197832, -0.128446102142, 0.109117269516, 0.102367572486, -0.190614178777, 0.046752508730, 0.046750247478, 0.065432891250, 0.005899140611, 0.093628674746, -0.050489362329, -0.021360091865, 0.034018523991, -0.090048506856, -0.090777911246, 0.050405059010, 0.048078902066, 0.087176926434, 0.014401418157, -0.159186184406, -0.125919610262, 0.135819897056, -0.194388642907, -0.012995697558, -0.034110508859, 0.080174811184, -0.119229421020, -0.075212948024, -0.019437396899, -0.131105110049, 0.078240662813, 0.000831192418, -0.075812309980, 0.007458708249, 0.037765789777, -0.033242922276, -0.233828887343, -0.005857182667, -0.177108973265, 0.056363590062, 0.160862013698, -0.168283179402, 0.035879798234, -0.135466083884, -0.042783193290, 0.121918953955, -0.133462890983, 0.035979963839, 0.010846482590, -0.068098589778, 0.074807666242, 0.104055769742, 0.006625360809, 0.027178602293, 0.264035910368, -0.263340651989, 0.000869411859, 0.046004131436, 0.076329469681, 0.118025615811, 0.049522604793, 0.001188466558, -0.108860455453, -0.097962856293, -0.028412582353, -0.072473905981, 0.206224098802, -0.129733368754, -0.152444213629, 0.163042053580, 0.145401895046, 0.146354541183, 0.091499008238, -0.086461447179, 0.091265983880, -0.103076569736, 0.003758010687, 0.361463844776, 0.044900070876, -0.034035205841, 0.065631486475, -0.053928043693, 0.234948307276, 0.078350663185, -0.049749996513, -0.144844338298, 0.040513738990, 0.045888558030, 0.099303275347, -0.212767675519, 0.095460452139, -0.097992084920, -0.084503307939, 0.129339933395, -0.072474874556, -0.084877490997, 0.019935334101, -0.045872434974, 0.025026362389, 0.193174242973, -0.258286058903, -0.068551532924, 0.187801808119, 0.046051446348, -0.033141702414, -0.149899661541, 0.041472941637, 0.018564222381, 0.121474854648, 0.127363532782, 0.128170132637, -0.065423108637, 0.059090215713, -0.004910183139, -0.164219409227, -0.024147052318, 0.071825750172, 0.078097172081, 0.031596913934, 0.108903288841, -0.022323334590, -0.118132516742, -0.071019575000, 0.005542200524, -0.009074955247, 0.069704219699, -0.032319456339, 0.237521052361, 0.029965652153, -0.219738155603, 0.037911903113, -0.049294911325, -0.237010210752, 0.012825186364, 0.234699800611, -0.029722277075, -0.152799457312, -0.171822011471, 0.157916963100, -0.161500304937, 0.016739208251, 0.021950813010, -0.010705612600, -0.120401710272, -0.024032913148, -0.128801167011, -0.014611454681, 0.043793704361, -0.012949147262, 0.120999731123, 0.046718571335, -0.244841158390, -0.117558166385, -0.237052395940, -0.086599230766, -0.067662201822, 0.057550307363, 0.113901078701, -0.133845373988, -0.107075870037, -0.061234407127, 0.073907241225, 0.190246969461, -0.027329064906, -0.200094863772, 0.161143943667, 0.035057783127, 0.063968561590, -0.025248056278, -0.213134810328, 0.271238595247, -0.009917754680, 0.042822092772, 0.093097768724, 0.056405249983, -0.099347800016, 0.021814750507, 0.134238481522, -0.030172616243, 0.156127497554, -0.156997248530, -0.066554315388, 0.087409108877, -0.204226374626, -0.126014113426, -0.209144219756, 0.170394763350, -0.005607953761, 0.046799127012, 0.144256845117, -0.050649762154, 0.085678622127, -0.047208223492, -0.077490128577, 0.110496468842, -0.028602842242, -0.208502009511, -0.080979578197, -0.135017558932, 0.135155946016, -0.101581148803, -0.045534186065, 0.218512639403, 0.050813350827, 0.145530700684, 0.004177828785, 0.041718944907, 0.018323827535, 0.014995704405, -0.010032225400, -0.094165816903, -0.033319532871, 0.012358941138, 0.098536401987, 0.061001583934, 0.023771082982, -0.040359310806, -0.166910633445, 0.020295191556, -0.113746583462, 0.028208747506, -0.032052937895, 0.009852093644, -0.084709629416, 0.031993523240, -0.141512766480, -0.074420474470, 0.240678340197, -0.159589156508, 0.119120895863, 0.308374971151, -0.136802494526, -0.209334328771, 0.071032129228, 0.229794085026, 0.034517478198, 0.061829950660, -0.172812253237, -0.125914707780, 0.076015055180, -0.036049030721, -0.023906407878, -0.056193809956, -0.132563069463, 0.048315301538, -0.042770843953, -0.215254679322, -0.116298921406, -0.147497683764, -0.157493904233, 0.149008139968, -0.117603339255, 0.051473245025, -0.014871016145, -0.077980801463, -0.094440408051, 0.013119153678, 0.263433992863, 0.359258621931, -0.036871552467, -0.311550915241, -0.092518463731, -0.335173249245, -0.122293040156, -0.211682900786, -0.254910707474, 0.212013423443, 0.091599516571, 0.018741441891, -0.075199276209, -0.148046270013, -0.117516815662, -0.096391580999, -0.025370869786, 0.073763102293, 0.046252407134, -0.107853263617, -0.003316823393, -0.097356960177, 0.004474834539, -0.025405015796, -0.156121969223, 0.024754000828, 0.015734581277, 0.133088797331, 0.043551787734, -0.041878346354, 0.032646898180, -0.042419411242, 0.102767400444, 0.157229438424, -0.141009032726, -0.058273032308, -0.192969605327, -0.229785472155, -0.020583920181, -0.097485013306, -0.102869920433, -0.005618202966, 0.050205722451, -0.045810129493, -0.134151399136, -0.017065037042, -0.012034116313, 0.071111969650, -0.084652960300, -0.143689796329, 0.116260908544, 0.034961663187, 0.144619241357, -0.039419505745, -0.046453598887, -0.169680327177, -0.128643289208, 0.267388314009, 0.021073853597, -0.092140771449, -0.005343735684, 0.003765946254, 0.021654671058, -0.087228178978, -0.204524099827, -0.183730408549, 0.041044607759, -0.074610814452, 0.111576855183, 0.047479063272, 0.063596650958, 0.096606858075, -0.046457577497, -0.047190841287, 0.212375819683, 0.137333780527, -0.084268435836, -0.086997322738, 0.216134905815, -0.063911683857, -0.031374394894, -0.125505581498, 0.092253163457, 0.072185382247, -0.098671525717, -0.065198764205, 0.050739888102, -0.108408465981, -0.231376245618, 0.096766397357, 0.036354638636, 0.191952854395, -0.039826367050, -0.075085185468, 0.189113244414, 0.093697659671, 0.271194815636, 0.139881253242, 0.057101339102, -0.308346271515, -0.356887519360, -0.002425280400, -0.087259441614, 0.156700521708, -0.076751671731, 0.036922559142, 0.126023724675, -0.090713143349, -0.139257624745, -0.084859855473, 0.071845144033, -0.099863559008, 0.039028897882, -0.049159642309, 0.026811262593, -0.188569918275, -0.033840224147, -0.062814690173, -0.028344135731, 0.239268481731, -0.155647054315, -0.125349670649, -0.098322771490, 0.137047559023, 0.035296771675, -0.216855868697, -0.018886184320, 0.099519059062, 0.160697996616, 0.124350503087, -0.048265665770, 0.037531860173, -0.170414045453, -0.041894417256, -0.152096956968, -0.081123836339, 0.012909847312, -0.105047337711, -0.000787575729, 0.023532731459, -0.066643998027, 0.033757701516, -0.103103965521, 0.052601397038, -0.058088082820, 0.108531549573, -0.025521621108, -0.016231752932, 0.146653935313, -0.204361885786, -0.104336179793, 0.036346927285, -0.129717886448, 0.044290434569, 0.062081810087, 0.056674178690, -0.088077865541, 0.043103948236, 0.185057595372, 0.019563809037, -0.086401499808, -0.076859362423, 0.001193633885, -0.211427077651, -0.026151247323, -0.246953636408, -0.029760697857, 0.177950322628, -0.015478666872, -0.112657845020, -0.010546996258, 0.088591240346, -0.110327139497, -0.110976286232, -0.041710365564, 0.060134552419, -0.117173910141, -0.093825846910, 0.128663793206, -0.021974604577, -0.045196525753, 0.026345849037, -0.162577196956, 0.062026124448, 0.066806353629, -0.013572659343, -0.006505296100, -0.113272510469, -0.110703438520, -0.068949401379, 0.026123685762, -0.097069352865, 0.152692750096, -0.148176163435, -0.196143463254, 0.254461824894, 0.021784387529, -0.033505398780, 0.008182266727, 0.003249167232, 0.172115057707, -0.115514025092, 0.037686694413, 0.126089513302, -0.125321418047, 0.213241383433, -0.170227944851, -0.044868841767, 0.152565360069, -0.266255587339, 0.005115411710, -0.004965377506, -0.128878429532, 0.019007496536, -0.144285127521, -0.071018710732, -0.030127374455, -0.196223646402, 0.059448912740, -0.027706354856, 0.069582976401, 0.057165499777, 0.027357630432, -0.121124491096, 0.148737803102, -0.031302824616, -0.065689057112, 0.052674911916, -0.119493275881, 0.220715805888, 0.056329980493, -0.040446124971, 0.035531673580, -0.074174202979, -0.081821449101, 0.068952657282, -0.049413233995, 0.057416282594, -0.023638799787, -0.047896914184, -0.049593605101, 0.117253571749, 0.098030857742, -0.148240953684, -0.052263788879, -0.149353906512, 0.058981120586, 0.094910211861, 0.190591588616, -0.121705032885, -0.082502305508, 0.132694631815, -0.121642082930, 0.145406633615, 0.106828704476, 0.034465547651, -0.102946281433, -0.044692151248, 0.082842878997, -0.198168709874, -0.074253968894, -0.022612212226, -0.053658068180, 0.149719357491, 0.072224125266, -0.082883775234, -0.244014292955, -0.152914077044, 0.221650466323, 0.132679238915, 0.004193407949, 0.067375496030, 0.006853812374, -0.039220359176, 0.015763211995, -0.024511173368, 0.012112246826, 0.139404535294, -0.068536855280, -0.064411982894, 0.060316808522, -0.092265285552, -0.040446009487, -0.215060546994, -0.050188984722, 0.050330009311, -0.095484249294, 0.071006551385, 0.133958891034, 0.010151443072, -0.160335585475, 0.038755573332, 0.000132657588, -0.076405972242, -0.008852005005, 0.116462551057, -0.016373239458, -0.175006493926, -0.095052257180, -0.114145025611, 0.094936907291, 0.173525869846, -0.063366137445, -0.068754337728, 0.083454512060, -0.196759417653, 0.091839864850, 0.168220505118, 0.046340204775, 0.207012549043, -0.025719404221, 0.082125626504, 0.025994440541, -0.055716153234, -0.205441117287, -0.266276925802, 0.092110663652, -0.038233820349, -0.081030897796, -0.015570555814, 0.113836385310, -0.053102441132, 0.056115109473, 0.068558424711, -0.240950286388, -0.062670961022, -0.042191632092, -0.054539699107, 0.003960971255, -0.064455114305, -0.031194357201, 0.034829623997, 0.123081721365, 0.107712015510, -0.033403877169, -0.070743270218, -0.073407970369, 0.116998828948, -0.097496405244, -0.116634272039, -0.007876155898, 0.046386539936, 0.041136544198, 0.040545519441, 0.132692053914, -0.232845678926, -0.009472870268, -0.019921448082, -0.033205527812, -0.001303405268, 0.051131010056, 0.087324678898, -0.198265343904, 0.022311564535, -0.044796384871, 0.003306906205, -0.163760170341, 0.246287003160, -0.046987868845, 0.025929419324, -0.169182881713, 0.039046067744, -0.113733254373, 0.042297106236, 0.189778953791, 0.004287237767, -0.096973419189, 0.033405039459, 0.072020381689, 0.130934879184, 0.076240189373, -0.118209317327, -0.154615640640, -0.022645469755, -0.066402360797, -0.110168762505, -0.038406860083, -0.037175543606, -0.107096686959, -0.312562853098, 0.175674840808, 0.103003069758, -0.197766482830, 0.018513333052, 0.309739768505, -0.173517897725, -0.026286736131, 0.159358695149, -0.358489841223, -0.122616395354, 0.033513702452, -0.077812694013, 0.052957449108, -0.014378883876, -0.086623005569, -0.160147011280, 0.204748824239, 0.166967362165, -0.096885845065, -0.115233220160, 0.060546856374, 0.080973096192, 0.004264142830, 0.174778297544, -0.140435114503, -0.019551588222, -0.074819080532, -0.108773693442, -0.182854965329, 0.044576417655, -0.042601462454, -0.068062707782, 0.113506652415, -0.074359193444, 0.045833673328, 0.022443640977, 0.139072731137, 0.021249441430, -0.009115422145, 0.045379124582, -0.266633242369, -0.218610703945, -0.076164714992, -0.105860508978, -0.102548085153, 0.037376459688, -0.024135069922, 0.022950965911, 0.178281173110, -0.023155519739, -0.147087410092, 0.062135957181, -0.022123662755, 0.203578099608, 0.051354229450, -0.194390699267, 0.118474163115, 0.080262660980, -0.025888388976, 0.054657634348, -0.087250769138, -0.027740800753, -0.284296602011, -0.049507409334, 0.062553822994, 0.060683280230, -0.105030760169, -0.039239097387, -0.047081306577, 0.007482126355, 0.139364048839, 0.053157124668, -0.139547154307, 0.163648739457, 0.050499819219, -0.170031219721, -0.060959614813, 0.162989497185, -0.021615600213, -0.064165636897, 0.123836047947, 0.041003230959, 0.173012435436, -0.030347334221, 0.088763423264, 0.141054362059, -0.004646057263, -0.163817957044, -0.102420128882, 0.041965834796, -0.024476822466, -0.030307628214, -0.137769073248, -0.107092618942, -0.090922296047, -0.303005099297, 0.231444299221, -0.011530529708, -0.037880845368, -0.028103761375, 0.031302481890, -0.138946220279, -0.045287575573, -0.030239263549, -0.047146864235, -0.022169981152, 0.062829136848, -0.162064895034, -0.083801910281, 0.079443372786, 0.000670336187, -0.080771416426, 0.121545456350, 0.030045855790, 0.061948567629, 0.045362386853, 0.137438073754, -0.070596590638, 0.100148633122, 0.006071490236, -0.082516163588, -0.093263067305, 0.010441346094, 0.156115576625, -0.270075112581, -0.019045257941, 0.094705827534, -0.195393890142, 0.135297626257, -0.013827984221, 0.168735474348, 0.027632825077, 0.057062383741, -0.136130198836, -0.072146058083, 0.018304679543, -0.162466540933, 0.043605994433, -0.104551509023, -0.073546148837, -0.210791081190, 0.124292202294, -0.125150948763, 0.095118418336, -0.087654143572, -0.197164297104, -0.116146214306, -0.071525774896, 0.095641516149, 0.210430309176, -0.051798783243, -0.285120725632, -0.065314479172, -0.226992338896, 0.014755158685, -0.029021924362, -0.017271524295, 0.158454895020, 0.056357197464, -0.080210722983, -0.026724347845, -0.128655865788, 0.062631256878, 0.098249033093, -0.103771217167, -0.025955785066, 0.013252292760, -0.165109828115, -0.258358657360, -0.076757207513, -0.094791837037, 0.099500410259, -0.119028776884, 0.012837713584, 0.052536074072, 0.001729952870, 0.018000250682, -0.102906875312, 0.101114928722, -0.043805245310, 0.038579955697, -0.012725139037, -0.129258483648, -0.211159378290, -0.120968110859, -0.161412686110, 0.020855467767, -0.077813364565, -0.190740466118, 0.063202649355, -0.045086812228, -0.204954013228, 0.061181612313, 0.080093964934, 0.052817132324, 0.034621696919, -0.097719132900, 0.037596497685, 0.033112425357, 0.058017499745, 0.058559775352, 0.049621272832, 0.090999834239, 0.133843392134, -0.215126082301, 0.070996299386, 0.077246963978, -0.184436917305, -0.002661254024, -0.035023730248, 0.251056909561, 0.042108751833, 0.121122851968, 0.000572759949, 0.113928288221, -0.037317566574, -0.041821107268, -0.024066183716, -0.061489362270, 0.228586316109, -0.057169012725, -0.001662909170, 0.085609249771, -0.182262599468, 0.018187882379, -0.160476326942, -0.038567315787, -0.114432074130, 0.003836900229, -0.107747972012, 0.031720854342, 0.022915706038, 0.055098097771, 0.093009591103, -0.028429524973, -0.168903142214, -0.186075493693, 0.050064027309, 0.055331099778, 0.047724988312, -0.048965245485, -0.035933386534, 0.002868070966, -0.038388058543, 0.186007559299, -0.001055513276, -0.002254039515, -0.170180857182, -0.099743410945, -0.162333995104, 0.030926909298, -0.000211680657, 0.011699774303, 0.070666871965, 0.108464837074, -0.150167629123, -0.024018932134, -0.020678449422, 0.262224793434, -0.054478574544, 0.103342637420, -0.098498985171, -0.047305610031, -0.057322509587, -0.205643281341, -0.020235722885, 0.058734245598, 0.214875563979, 0.009412275627, -0.098337695003, 0.115283988416, 0.019842153415, -0.039492994547, -0.232027649879, -0.059067189693, -0.015462657437, -0.027255071327, 0.109785325825, -0.049403529614, 0.033966992050, 0.099042043090, -0.006580599584, -0.113581731915, -0.043618503958, 0.074952870607, -0.050290163606, -0.047172918916, 0.042285110801, -0.111458115280, 0.019948499277, -0.005966321565, -0.018800217658, -0.005775644910, -0.152078822255, -0.174230113626, 0.203198641539, -0.086934983730, -0.032708492130, -0.222326055169, -0.154231771827, 0.169237434864, -0.053397256881, -0.143275961280, 0.075683437288, -0.214122846723, 0.098238900304, -0.035359039903, -0.091127745807, 0.018425568938, -0.067932799459, -0.021749431267, -0.015205364674, -0.154048696160, 0.165855899453, -0.078326821327, -0.024898227304, 0.103185102344, -0.036288026720, -0.181926310062, 0.037331715226, -0.106554917991, -0.024578746408, -0.143128693104, -0.120346389711, 0.008954533376, -0.047366335988, 0.078043013811, 0.023612445220, -0.132063284516, -0.004722034559, 0.059425204992, 0.121002465487, 0.123473882675, -0.005165666342, 0.002321088454, -0.039879046381, -0.096514075994, 0.017233334482, 0.012417957187, -0.042573150247, 0.036676555872, -0.198144122958, -0.092559844255, -0.004875838291, -0.047258414328, 0.019419008866, 0.022262528539, -0.008063415065, -0.009411889128, -0.084570676088, 0.080019824207, 0.087788268924, -0.192755177617, -0.099673271179, -0.020757116377, -0.050969742239, -0.035654459149, -0.026514278725, -0.007400193252, 0.068805880845, -0.130031466484, 0.119099944830, -0.052538793534, -0.044502701610, 0.243782252073, -0.146087616682, -0.152783721685, -0.012110886164, -0.141316577792, 0.073005408049, -0.160383984447, 0.068511418998, 0.172324091196, -0.069014228880, -0.102983415127, 0.122935466468, -0.234078839421, -0.002569012810, -0.128614097834, 0.026537530124, 0.077350743115, -0.054795987904, 0.057964302599, 0.030446052551, -0.064731650054, 0.165597245097, -0.025286326185, 0.015700545162, 0.193166241050, 0.002006201539, -0.147927448153, 0.178120240569, -0.154831886292, -0.172586306930, -0.050255794078, 0.020170450211, 0.147892713547, 0.012799801305, -0.145446226001, -0.036705791950, -0.236818879843, 0.072637550533, -0.054597824812, 0.061084657907, 0.097134307027, -0.095783196390, -0.026416288689, 0.053893789649, -0.115322388709, 0.077958621085, -0.102189764380, -0.007528384682, 0.106478773057, -0.071097843349, -0.076348222792, 0.094215124846, -0.180513694882, 0.018087707460, -0.046241972595, -0.030032614246, 0.076233781874, -0.146515339613, 0.032283354551, 0.074502795935, -0.207534223795, -0.070652559400, -0.093813881278, 0.036186113954, 0.034618154168, -0.021448215470, -0.069083385170, -0.126611769199, 0.049871150404, 0.032429311424, -0.113725535572, -0.098109595478, 0.003555466421, -0.003566959407, -0.051758456975, -0.003655883484, 0.006177661940, 0.095438420773, -0.035688042641, 0.042529918253, 0.216423049569, -0.133192822337, -0.215014100075, 0.000712079345, -0.231970146298, 0.032575894147, 0.016138149425, -0.021016916260, -0.005782932974, 0.009653260931, -0.104294300079, 0.034490600228, -0.124716237187, 0.186456620693, 0.075017854571, -0.083101242781, 0.132104754448, -0.091008573771, 0.037583593279, -0.170165136456, 0.061398804188, -0.010580454953, 0.067769460380, -0.114825040102, 0.003184220521, -0.144458562136, 0.161280602217, 0.031158136204, -0.273253142834, -0.099514298141, 0.010641205125, 0.043452590704, 0.070485711098, 0.023624306545, 0.096069037914, 0.036291476339, -0.182366296649, 0.089951902628, -0.068690270185, -0.033675041050, 0.021638398990, 0.037322584540, -0.041208811104, -0.001676696003, 0.176911413670, -0.081757239997, -0.018326491117, -0.086689479649, 0.028370074928, -0.157533064485, 0.079396821558, -0.065712302923, -0.178707301617, -0.056612700224, -0.142811357975, 0.035043038428, 0.064391702414, 0.051652979106, 0.019637670368, -0.017416879535, -0.082422256470, -0.104233413935, 0.041285842657, -0.027853930369, 0.016032995656, -0.032833337784, -0.038312826306, -0.112825863063, -0.177663132548, 0.087943717837, 0.091609947383, -0.080512277782, 0.063799604774, -0.153847575188, -0.072404280305, -0.046927776188, -0.060217473656, -0.041203886271, -0.101347528398, -0.185892671347, -0.133543789387, -0.070843078196, -0.116179600358, -0.162553459406, 0.092860497534, 0.135626628995, -0.041250400245, -0.025290179998, 0.148244112730, -0.117242030799, -0.012672062032, 0.008424709551, -0.242521315813, -0.111002609134, 0.090079620481, 0.083584092557, 0.053784213960, -0.217774152756, -0.083140000701, -0.118709638715, -0.028065064922, 0.069318555295, -0.138226106763, 0.066232405603, 0.080747336149, -0.192459270358, 0.012073249556, -0.040479477495, -0.347807109356, -0.142113730311, -0.022831905633, -0.116970591247, -0.120215453207, 0.023394562304, -0.090733163059, -0.177473798394, 0.135897219181, -0.002312766854, 0.134129628539, 0.023914936930, 0.009254983626, -0.113516323268, 0.032902512699, 0.069638729095, -0.053319569677, 0.053752768785, 0.043968666345, -0.026687022299, 0.008397343569, 0.118194505572, -0.013449551538, 0.050849843770, -0.119952291250, 0.009946261533, 0.001223779516, 0.071218833327, -0.095162816346, 0.012661042623, -0.077810399234, 0.013645561412, 0.143866226077, 0.097412772477, -0.067097149789, -0.153165087104, -0.033010359854, 0.000576014281, -0.020982913673, 0.084167964756, -0.051547650248, -0.056931823492, 0.203618898988, 0.077872239053, 0.021131645888, 0.027108041570, -0.114335432649, 0.014172825962, -0.082312494516, -0.061504632235, 0.097748756409, -0.019265837967, -0.022450065240, -0.059981413186, 0.107161357999, -0.025875201449, -0.103536695242, 0.104590393603, 0.094718523324, -0.111342780292, -0.090519167483, -0.125912070274, -0.012492212467, -0.017682487145, 0.169839590788, 0.101072460413, -0.099294513464, -0.224519759417, -0.242316752672, -0.022524872795, 0.080016739666, -0.139742434025, 0.086662940681, 0.093883529305, 0.061445806175, 0.013562914915, 0.140616372228, -0.048595901579, 0.007023424376, -0.045164823532, -0.304180413485, -0.094703324139, 0.046789973974, -0.034804787487, 0.081605441868, -0.033745445311, -0.039161380380, -0.088396079838, -0.166346505284, -0.042221695185, 0.120508193970, -0.040636576712, 0.069474212825, -0.082192815840, -0.092065423727, 0.056931454688, -0.227118417621, -0.010155890137, 0.056397035718, 0.053321931511, -0.219044327736, 0.128056317568, -0.019950728863, -0.148746892810, 0.117748051882, 0.056080013514, -0.037133254111, 0.030183095485, 0.044464327395, 0.045344445854, -0.028875818476, -0.065999962389, -0.020794447511, 0.018436484039, -0.084396198392, 0.021108914167, -0.052429024130, -0.060701008886, 0.169019356370, -0.013777349144, -0.004220802337, 0.051057845354, -0.139784306288, -0.030859436840, -0.105414234102, 0.146588340402, 0.032377772033, 0.120893903077, 0.194396957755, 0.096956990659, 0.043773077428, -0.021477052942, 0.033704832196, -0.043761014938, 0.075676366687, 0.012108040042, -0.102746009827, -0.062319915742, 0.161043450236, -0.072252668440, -0.021442746744, -0.023833991960, 0.070412181318, 0.004289344419, 0.045830570161, -0.035652913153, 0.027084475383, 0.180249363184, 0.061407968402, 0.048841468990, 0.089074984193, -0.017581952736, 0.022337062284, -0.022897206247, -0.042937837541, -0.021955169737, -0.089880682528, -0.019499748945, -0.125638067722, 0.174085870385, 0.177300676703, 0.039619091898, -0.096815951169, -0.111097589135, -0.154119819403, -0.010776799172, 0.103577002883, -0.280411303043, 0.021469753236, 0.031608816236, 0.080318070948, -0.069651722908, -0.108558453619, -0.154718324542, -0.093211337924, -0.113251924515, -0.016988953575, 0.004101134371, 0.041845701635, -0.023264279589, -0.104821547866, 0.125565648079, -0.030427394435, -0.067231915891, -0.075649522245, 0.060020785779, 0.248823463917, 0.095194891095, -0.059524539858, -0.099473066628, 0.037255283445, 0.008797792718, 0.086055822670, -0.007192888763, -0.021481847391, 0.111327223480, 0.005981179420, -0.045975543559, 0.119648642838, -0.252068758011, 0.090425498784, -0.149216383696, 0.082358881831, -0.102582938969, 0.057667743415, -0.122755207121, -0.001504265703, -0.077872999012, -0.010602835566, 0.026432156563};
