//Numpy array shape (256, 120)
//Min -0.380707919598
//Max 0.419717907906
//Number of zeros 0

weight_default_t w5[30720] = {0.012553668581, -0.098917931318, 0.029401736334, 0.009762632661, -0.038394443691, 0.130332812667, -0.197120055556, 0.030184159055, -0.159192040563, -0.078991018236, 0.054310102016, -0.099243298173, -0.054888062179, -0.115281417966, -0.048406209797, 0.046631347388, -0.085180319846, -0.154037863016, 0.015306815505, -0.100214116275, -0.100068606436, -0.118622623384, 0.031764417887, 0.078065834939, -0.188236683607, -0.058524534106, 0.076405242085, -0.097106128931, -0.052131175995, 0.029426114634, 0.057546544820, -0.005273774732, 0.139912605286, -0.005935059395, -0.017038753256, 0.098688013852, 0.050475805998, -0.150182396173, 0.060355857015, -0.023676479235, -0.098347313702, 0.179696470499, 0.112504146993, -0.058390039951, -0.089072659612, 0.065087430179, 0.048568684608, 0.122571244836, -0.178094595671, 0.198481142521, -0.033610597253, 0.220355272293, 0.024348886684, -0.075160935521, -0.071734786034, -0.014530486427, 0.173988208175, -0.111212700605, 0.070625901222, 0.074007101357, -0.001296959119, 0.011696654372, 0.119475729764, 0.009046797641, -0.080036655068, 0.008300995454, 0.044467158616, -0.027815053239, 0.001371388207, -0.006044644397, 0.038896739483, -0.113438330591, 0.046561487019, 0.012830914930, 0.014244847000, 0.041617859155, -0.099016897380, -0.087047547102, -0.037629578263, 0.092012725770, -0.111584000289, 0.139142617583, -0.061830960214, -0.036144334823, -0.119613617659, -0.070152051747, -0.092751942575, -0.282201737165, -0.238863900304, 0.015148172155, 0.089013308287, 0.006010604091, -0.177841052413, 0.006718432065, -0.018921410665, 0.099432252347, 0.065429568291, 0.009528437629, -0.138455942273, -0.059269882739, -0.038003943861, -0.027561254799, -0.178147584200, -0.082789652050, 0.101313158870, 0.134437829256, 0.043728239834, 0.195931300521, -0.033392012119, 0.053155358881, -0.114923223853, -0.014418774284, -0.023748878390, -0.006238284055, -0.182006537914, 0.115871079266, 0.078892432153, 0.234226092696, -0.161081507802, -0.017621025443, 0.113606393337, 0.110428802669, 0.057007241994, -0.009615345858, 0.167015537620, 0.078820005059, -0.011600404978, 0.031290192157, 0.026565728709, 0.030952284113, 0.162966027856, 0.142526283860, -0.023024501279, 0.080409578979, 0.008961955085, -0.003845329862, 0.054828323424, 0.076750747859, 0.260489612818, -0.002024931367, -0.095860302448, 0.104390546679, -0.118284091353, -0.048895593733, 0.155636548996, 0.039411019534, 0.016054460779, -0.122299179435, 0.031093049794, 0.016405316070, -0.004886905197, 0.147997915745, 0.004594156519, -0.080554783344, -0.123456366360, 0.054111778736, -0.022665876895, 0.059077825397, -0.110377363861, 0.074634648860, 0.020205203444, -0.102072343230, -0.076613262296, -0.032414164394, 0.029902741313, -0.042598869652, 0.133716061711, -0.078852392733, -0.046943794936, -0.014043763280, 0.121383115649, -0.147625535727, -0.006047657691, -0.001463680179, 0.008055383340, -0.048905473202, 0.027942057699, -0.059742718935, -0.112753599882, 0.016308706254, -0.014038132504, 0.074190109968, -0.116818867624, 0.082775145769, 0.227645397186, 0.062948785722, 0.066867969930, 0.143351033330, 0.082900203764, -0.116047531366, -0.053000655025, 0.086060814559, 0.089141659439, -0.086348943412, 0.030363876373, -0.008268637583, -0.021654188633, 0.001404430019, 0.098074346781, -0.033028922975, -0.023543223739, -0.108158200979, 0.071542993188, 0.170144006610, 0.006707822904, 0.234035775065, 0.113313660026, 0.080359265208, -0.007476370316, 0.010444110259, 0.048456862569, -0.048195060343, 0.164370730519, 0.095528632402, -0.065569207072, -0.014456854202, -0.088535062969, 0.068773105741, 0.012938517146, -0.047409791499, 0.194150939584, -0.144905850291, 0.008681775071, -0.117971040308, -0.067146368325, -0.044752817601, 0.066768504679, -0.097920700908, -0.019921232015, 0.038474392146, -0.066266119480, 0.030133403838, -0.025491727516, -0.086898304522, 0.075880125165, 0.086991719902, -0.020592404529, -0.078572504222, -0.020066823810, 0.127055987716, -0.095601029694, -0.009217732586, 0.041439101100, 0.054417528212, -0.110001608729, 0.132795616984, 0.052150983363, 0.127441778779, -0.069126911461, 0.009960326366, 0.110651634634, 0.037381459028, 0.043526917696, 0.001731346012, -0.099434934556, 0.026133920997, 0.089486241341, -0.095586262643, -0.003374286694, -0.152762234211, 0.123648546636, -0.012633020058, 0.102108485997, -0.082843363285, 0.019187591970, -0.020477335900, 0.053223691881, -0.099658824503, 0.096654616296, 0.040716562420, 0.005578920711, 0.080430664122, 0.104176893830, -0.053872790188, 0.032623279840, -0.045741125941, -0.064337819815, -0.071627363563, -0.051994223148, 0.114724539220, -0.094874344766, 0.046921905130, 0.143006622791, 0.063598766923, -0.052407760173, 0.003370115301, 0.042206641287, 0.083364725113, 0.045762665570, -0.007629720494, -0.106495127082, 0.173388838768, 0.023303391412, -0.126351788640, -0.004163330421, -0.095187269151, 0.021588036790, 0.072946697474, 0.060634955764, 0.017250856385, -0.015768786892, -0.046954602003, 0.109012141824, 0.018038708717, -0.044554725289, -0.041033368558, -0.042301248759, 0.003364243777, 0.113437868655, 0.146365314722, 0.046386580914, 0.074242182076, 0.122549802065, 0.062710598111, 0.116992168128, -0.094255298376, -0.019081983715, -0.070611283183, 0.074833951890, 0.125755935907, 0.071310304105, -0.052454330027, -0.126585334539, 0.041749034077, -0.053123392165, 0.004557355307, -0.009206920862, -0.152115002275, -0.070871196687, 0.058673042804, 0.124492071569, -0.055025216192, -0.092823073268, 0.021588563919, -0.038540575653, 0.051525868475, 0.013106093742, 0.025285288692, -0.048122849315, -0.048079941422, 0.121902540326, -0.024212615564, -0.111024513841, 0.114292085171, -0.121492899954, -0.058951593935, -0.038017272949, 0.124162442982, 0.024448210374, -0.060856830329, 0.104843370616, 0.088798180223, 0.076541714370, -0.050042569637, 0.078608721495, 0.089580133557, 0.050138067454, 0.050424277782, 0.098879516125, 0.068979687989, -0.024071387947, -0.038535963744, -0.035259690136, -0.168645411730, 0.107508137822, 0.014656304382, 0.081125587225, -0.040929548442, -0.158837020397, 0.125832676888, 0.127116933465, 0.002926633693, 0.029367551208, 0.021740192547, 0.102344192564, -0.051441103220, -0.081963822246, -0.005625072867, 0.010006163269, 0.011771539226, 0.028147632256, -0.128217309713, -0.059485707432, -0.039274439216, 0.148941814899, -0.170618131757, 0.077953867614, -0.169198274612, -0.064310498536, 0.021659528837, -0.038974195719, -0.042777244002, 0.051757492125, 0.106282845140, 0.061570771039, -0.089866161346, 0.215719997883, 0.035558231175, 0.123892873526, 0.002252687234, -0.135880798101, -0.010269539431, 0.151127636433, -0.123126961291, 0.092036165297, -0.006196759641, 0.040578626096, -0.069955870509, 0.024284433573, 0.012614724226, -0.187515407801, -0.081680193543, -0.073228284717, 0.027628203854, -0.105048432946, 0.120869919658, -0.170334011316, -0.091289944947, -0.067771844566, -0.078683301806, -0.148996695876, -0.050760522485, -0.131082326174, 0.067943640053, 0.084138266742, -0.033657535911, 0.009424719959, 0.055182568729, -0.162405729294, -0.091801464558, -0.029175104573, 0.062069557607, -0.071234621108, -0.026009004563, -0.002741956385, 0.234149217606, 0.010007339530, 0.148414656520, 0.011723004282, 0.063802234828, 0.104383498430, -0.026336655021, 0.173125311732, 0.090411901474, 0.170615777373, -0.014772124588, -0.043059024960, -0.055343970656, 0.056423392147, 0.099122464657, 0.204448580742, 0.091494552791, -0.013356084935, -0.060489278287, 0.065567441285, 0.130454331636, 0.009284797125, -0.039704490453, -0.020123180002, -0.042384229600, 0.133343130350, -0.105524376035, 0.043195489794, -0.082071758807, -0.132973879576, -0.127510458231, 0.015765517950, -0.069898255169, -0.067931085825, -0.046385999769, -0.045557152480, -0.121254839003, -0.133915036917, -0.050270330161, -0.168436363339, -0.099845059216, -0.013812973164, -0.040525823832, -0.131511971354, -0.082784406841, 0.126425653696, 0.025930641219, -0.091730996966, -0.058221790940, 0.148416832089, 0.055713266134, 0.113308623433, -0.082862429321, -0.078077420592, -0.045259274542, -0.056464441121, 0.062477450818, 0.019186468795, 0.063264049590, -0.032754898071, -0.127313211560, -0.028233511373, 0.129035279155, -0.133165746927, 0.143144696951, -0.096753671765, -0.011237213388, -0.079129949212, 0.046716473997, -0.079471193254, -0.105663008988, 0.030260568485, 0.046061430126, -0.081300951540, -0.127561062574, 0.076583340764, -0.035598073155, -0.033673841506, -0.011004481465, -0.125703573227, -0.005260630045, -0.037789333612, -0.002878136002, -0.004707995802, 0.019514093176, 0.027383564040, 0.100954167545, 0.200043186545, -0.034863837063, -0.075127772987, -0.122685633600, 0.058992758393, -0.068772949278, 0.020848054439, 0.011842887849, 0.000620885636, -0.097210668027, 0.004825751297, 0.162188440561, 0.119905829430, 0.042047742754, -0.085464127362, -0.167226165533, 0.051923200488, 0.133059799671, 0.106029339135, 0.036003384739, -0.010026951320, -0.045121893287, -0.061984382570, 0.139843821526, -0.163712799549, 0.105431459844, 0.127166002989, -0.091468945146, -0.025643682107, -0.011321914382, -0.072348393500, -0.001450713957, 0.020042037591, -0.070095703006, -0.090169921517, -0.019698873162, 0.089751243591, -0.155317157507, -0.040433429182, 0.091380596161, 0.093996204436, -0.049057368189, -0.042621534318, 0.031440157443, 0.038559131324, 0.140051260591, 0.051926407963, 0.053765658289, 0.171166688204, -0.025549380109, -0.188505992293, -0.107931137085, 0.019294224679, -0.022982770577, 0.008013426326, -0.106781363487, -0.114677652717, -0.079870834947, -0.027086086571, -0.017295746133, 0.109245829284, 0.051455553621, 0.000412767869, -0.000980163808, 0.159361720085, -0.076421231031, 0.013510386460, 0.081403478980, 0.030655730516, 0.011919260025, -0.102398812771, -0.062628313899, -0.039942786098, -0.002577425446, 0.070384189487, -0.040799751878, 0.067449539900, 0.084549628198, -0.081675760448, 0.029943414032, 0.070458397269, -0.013939961791, -0.028688644990, 0.026382477954, 0.005677607376, -0.044949278235, 0.060940247029, -0.045659273863, -0.119778081775, 0.031656213105, -0.124525651336, -0.062882244587, 0.041650053114, 0.123844273388, -0.001098276465, 0.103806324303, 0.006554308813, -0.103393681347, -0.047323543578, 0.057462453842, 0.094633169472, -0.048480138183, -0.211732506752, 0.032357394695, 0.000549873570, -0.123053006828, 0.061979293823, 0.067997016013, -0.095717713237, -0.117109723389, -0.015193459578, -0.118103288114, 0.133347615600, -0.025628698990, -0.003042378929, -0.048111889511, -0.042804248631, 0.043463651091, -0.127895861864, -0.069927282631, -0.041157037020, 0.006455520168, 0.098405107856, -0.048243675381, 0.034957375377, 0.099923402071, 0.129247441888, -0.022183716297, 0.025395927951, 0.043376587331, 0.017476016656, -0.099513508379, -0.044329177588, 0.019829712808, 0.088811993599, -0.155259639025, 0.178996473551, -0.038644075394, -0.006326777861, 0.096935242414, 0.120738931000, 0.026194380596, 0.121166676283, -0.117533154786, 0.010004423559, 0.154637679458, 0.075686678290, -0.082452580333, 0.037194836885, -0.061246749014, 0.045959088951, 0.015145417303, -0.060091275722, 0.094532452524, -0.019313575700, 0.094412572682, -0.098021291196, -0.014843001962, -0.121678784490, 0.089833870530, -0.100775137544, 0.115465156734, -0.060213178396, -0.003672636813, -0.031589452177, -0.010772100650, 0.049475520849, -0.012321283109, 0.083491064608, -0.056534919888, -0.041705518961, 0.047644685954, 0.129034325480, 0.037967275828, -0.077403165400, -0.079592071474, -0.054770715535, -0.037864986807, 0.139705002308, 0.098537564278, 0.001257244032, 0.098241455853, -0.151379376650, -0.000673760893, 0.096419401467, 0.040693417192, -0.130798324943, -0.016003467143, 0.014644787647, -0.010111258365, -0.037415225059, 0.090135298669, -0.023425251245, 0.057562027127, 0.003110311460, -0.101062923670, 0.153557986021, -0.063194043934, -0.201624423265, -0.041256304830, -0.129664510489, -0.180412486196, -0.031022129580, -0.064302064478, 0.031214881688, -0.089505001903, 0.055939465761, -0.123196996748, 0.038325026631, -0.176928251982, -0.028355438262, 0.000321032334, 0.021367412060, -0.259463876486, -0.042735096067, -0.089141033590, 0.037225618958, -0.154556915164, -0.048913612962, 0.082075595856, -0.022066451609, 0.060617022216, -0.071634948254, -0.016773426905, 0.150464192033, -0.136903554201, -0.093254312873, -0.059622451663, -0.065733470023, 0.037888035178, 0.030808800831, 0.011256539263, 0.150996878743, -0.014388194308, 0.015787947923, 0.078519068658, 0.126404955983, -0.106876857579, -0.063321545720, 0.076651863754, 0.121203094721, -0.075320124626, -0.161067560315, 0.002483387012, -0.103047385812, 0.054580591619, 0.047456517816, 0.072614930570, 0.062511220574, 0.160444304347, -0.032259784639, -0.035889305174, -0.106799744070, -0.048851482570, 0.086922310293, -0.134255662560, -0.057102240622, -0.174969971180, -0.148092418909, -0.003194601275, 0.060592837632, 0.089492574334, 0.075834155083, 0.012112999335, 0.019638774917, 0.047417238355, -0.060657966882, -0.027269272134, 0.158450692892, -0.216069892049, -0.101774185896, -0.074182711542, -0.065515704453, 0.301054090261, -0.103497751057, 0.106324315071, -0.012556324713, 0.051206320524, 0.205916851759, -0.009254319593, 0.024949446321, 0.037270992994, -0.060007017106, -0.081828571856, -0.151717960835, -0.042528554797, 0.010148115456, -0.099831983447, -0.075007021427, -0.126887157559, 0.130924865603, 0.022213043645, 0.102242253721, 0.151617735624, 0.068886101246, -0.089186817408, -0.083503670990, -0.121475391090, -0.037163212895, -0.061050683260, -0.083749145269, -0.081505909562, 0.017766462639, 0.011728519574, -0.062011759728, 0.018572878093, -0.034104246646, -0.101470649242, 0.077910050750, 0.075352512300, 0.116126313806, -0.166060820222, -0.129538565874, -0.085582979023, -0.010967989452, -0.192835032940, 0.044345427305, 0.102374196053, 0.131453275681, -0.097326584160, -0.086641907692, 0.125981897116, -0.001818975317, -0.053328488022, 0.142747521400, -0.094584323466, 0.079897731543, -0.008843516000, -0.032733611763, -0.080922566354, -0.121990479529, 0.047760102898, 0.031264655292, -0.005385647994, 0.048050466925, -0.047433357686, 0.130785658956, 0.066972367465, 0.007149092853, 0.030651964247, -0.010235775262, 0.016685957089, -0.024301309139, -0.052018661052, 0.020140416920, -0.045799460262, -0.009610075504, -0.101901218295, 0.118491321802, 0.225501984358, -0.132087811828, 0.038525268435, -0.018823916093, 0.140059843659, 0.170398443937, -0.002685387619, 0.082945644855, -0.103412017226, -0.067074969411, 0.040865980089, 0.044299770147, -0.027098840103, -0.009770693257, -0.109382130206, 0.057122305036, 0.050253096968, -0.104851618409, -0.010404577479, 0.035142965615, -0.013698168099, 0.003087989986, -0.131615087390, -0.086256019771, 0.130376219749, -0.084201417863, 0.000351574476, 0.110913693905, -0.006109455135, 0.044052828103, -0.140054985881, -0.061899311841, 0.122220285237, 0.145597711205, -0.059222824872, -0.079645074904, -0.001645349781, -0.011298327707, 0.041430182755, -0.095485351980, -0.081987112761, -0.018490295857, 0.122804194689, 0.123459525406, -0.116571992636, 0.053650114685, -0.057952251285, 0.051190119237, 0.016464117914, 0.052740365267, 0.052275616676, 0.089499630034, -0.042618762702, 0.196528732777, 0.081521935761, -0.061827220023, 0.047105956823, 0.055269449949, -0.113682553172, 0.103871501982, 0.052074532956, 0.152399063110, 0.143379405141, -0.033835213631, -0.010557468049, 0.023947119713, 0.105566039681, 0.083949930966, -0.007979030721, 0.161033436656, 0.079326644540, 0.053039357066, 0.100868754089, 0.162937030196, -0.085102021694, -0.168955758214, -0.046480976045, -0.123233959079, 0.073248252273, 0.047962203622, -0.094976611435, -0.006861210335, -0.037672437727, -0.148933261633, -0.021023221314, -0.077022917569, -0.204092249274, -0.082295112312, -0.135342955589, -0.007596810348, -0.033984079957, 0.097517132759, 0.012840126641, 0.094214864075, -0.116931304336, 0.136774078012, -0.147030100226, -0.023813484237, 0.191547095776, -0.047035288066, 0.067109115422, 0.005873235408, -0.037093121558, -0.099404282868, 0.255552589893, 0.029316406697, -0.050543248653, -0.037032265216, 0.047245595604, -0.041776634753, 0.001684358343, 0.029606938362, -0.023024467751, 0.081977769732, 0.116879612207, 0.139373734593, -0.084993928671, 0.000041819796, -0.049410600215, -0.072016596794, 0.076039955020, 0.110127829015, 0.050934255123, 0.010700243525, 0.073491811752, -0.180795788765, 0.007654004730, -0.036741293967, -0.112835757434, 0.083527311683, -0.053223360330, -0.127202764153, -0.130796253681, 0.094997994602, -0.154526755214, 0.211929470301, -0.195966541767, -0.079608127475, -0.037919055670, -0.070987917483, -0.097535409033, -0.004112753551, -0.056472726166, 0.060141015798, 0.020095277578, 0.040331479162, -0.046205144376, 0.031717196107, -0.026707334444, 0.097780451179, -0.084033198655, -0.059693988413, -0.168668642640, 0.018343152478, 0.081086233258, 0.151153430343, -0.196626186371, -0.128131613135, 0.051896091551, 0.018386470154, -0.067982397974, -0.026519034058, -0.170938283205, 0.128843382001, -0.197268947959, 0.091281719506, -0.175323188305, -0.116902776062, -0.107372865081, -0.129793077707, -0.025154888630, 0.078351356089, 0.100613839924, -0.146203726530, 0.164726808667, 0.048679381609, -0.026843875647, 0.021710241213, -0.133468642831, -0.088051140308, -0.009823332541, -0.116615198553, 0.150590151548, -0.019138120115, -0.066112168133, 0.083915866911, -0.136489942670, 0.052525855601, 0.097949028015, -0.052844870836, -0.082863248885, 0.115930922329, -0.115869522095, 0.006109268405, -0.163913324475, -0.051756333560, -0.086519487202, -0.007228294387, 0.105650089681, 0.028051415458, -0.068100601435, 0.041108492762, 0.146122470498, -0.082473643124, 0.085834868252, -0.011616731063, 0.048195708543, -0.088207192719, 0.111610934138, -0.033006601036, 0.043333102018, -0.088612094522, 0.027076562867, 0.092478968203, 0.050369054079, -0.081457309425, -0.070838741958, 0.036442194134, -0.028570130467, 0.068232752383, -0.058510381728, 0.017210293561, 0.008201587945, 0.049641791731, 0.041393630207, 0.020628439263, -0.114851050079, -0.093391120434, -0.030584644526, -0.011677956209, -0.011951886117, 0.122254647315, -0.060413267463, -0.069866538048, 0.012368763797, -0.096564196050, -0.015961404890, 0.077687375247, -0.088093280792, 0.008178750053, -0.100567370653, -0.048162907362, 0.097477920353, 0.059789177030, -0.115336693823, -0.026500094682, -0.013455802575, 0.101602405310, -0.111195117235, -0.049529336393, 0.017704669386, 0.084818132222, 0.099151998758, 0.088628314435, 0.086177393794, 0.094365648925, -0.065366558731, -0.031274024397, 0.004402431659, -0.016982033849, 0.075237840414, -0.046627793461, 0.122982926667, 0.049978647381, 0.115798488259, 0.010393540375, 0.098508059978, -0.013766808435, 0.101747073233, -0.064942628145, 0.095086731017, -0.016033133492, 0.056612476707, -0.006970727816, 0.009052883834, -0.079999431968, 0.021552143618, -0.049541898072, 0.071492917836, 0.005761609878, -0.108635984361, -0.048127040267, 0.003958113492, 0.116872452199, 0.035574547946, 0.070435315371, -0.112188659608, -0.103703431785, -0.099372342229, -0.078726485372, -0.027630180120, 0.038281310350, 0.032035771757, 0.065198011696, 0.098026916385, -0.075550079346, -0.046647377312, 0.044777415693, 0.055777892470, -0.056719828397, -0.061247035861, -0.121136859059, 0.062899425626, -0.067133508623, 0.104400403798, 0.087543681264, 0.105608679354, 0.006315043662, 0.091129876673, 0.064303480089, 0.124872744083, 0.119196839631, 0.052395042032, 0.092859245837, 0.094432860613, 0.038507461548, 0.121024966240, 0.088788248599, -0.002881380729, -0.125993758440, -0.099667355418, 0.058253869414, 0.078969396651, 0.030525499955, 0.104303695261, -0.057010140270, -0.014301760122, -0.059120226651, 0.080985374749, 0.004903171211, -0.036971304566, 0.048625458032, -0.030776759610, -0.055515941232, 0.039309434593, -0.037492416799, -0.149131521583, 0.166690662503, -0.026745369658, -0.088057398796, -0.029770050198, -0.057117342949, -0.083427965641, 0.008301154710, 0.049082752317, 0.083459064364, 0.135403603315, 0.149998784065, 0.034034136683, -0.026558760554, -0.142044559121, 0.126012727618, 0.093649476767, -0.073333203793, -0.013647723943, -0.093932785094, 0.151533618569, 0.007117505185, -0.065151363611, -0.068829402328, 0.084575124085, 0.006415751763, 0.027826400474, 0.054774384946, 0.129287824035, -0.096829965711, -0.025787983090, -0.022421631962, -0.155741900206, 0.129531279206, -0.036489006132, -0.177634507418, -0.095090009272, -0.103447526693, -0.114497438073, 0.018482381478, -0.188571885228, 0.136732578278, 0.106775023043, -0.031533524394, -0.090084336698, -0.019114146009, 0.088968381286, 0.046146269888, -0.020498696715, -0.095694832504, 0.174117922783, -0.175890713930, -0.030266849324, -0.005634714384, 0.014329572208, -0.030050143600, -0.133843466640, -0.138777017593, -0.116309523582, 0.066805563867, -0.043981023133, -0.044764269143, -0.208212077618, 0.164379775524, 0.069565832615, -0.060025703162, -0.021054415032, 0.173094853759, -0.006572581362, -0.025269772857, -0.039061184973, 0.052494283766, 0.100757658482, 0.035786867142, 0.067483693361, -0.035691034049, 0.020229721442, -0.077920533717, -0.091496542096, -0.067299284041, -0.121779099107, 0.051507826895, 0.139645427465, -0.067898742855, 0.037012904882, -0.002142563695, 0.095159195364, 0.010695349425, 0.066200681031, -0.112105935812, -0.003219317878, 0.005385524593, 0.082944646478, -0.065719366074, 0.077167421579, 0.006521603093, -0.175647661090, -0.032858595252, 0.041903328151, -0.068827509880, 0.027747342363, 0.043645694852, -0.090190090239, 0.070566803217, 0.048184026033, 0.239861443639, -0.036524705589, 0.078677214682, 0.152763679624, -0.007741842885, 0.114689305425, 0.033011686057, -0.093389019370, -0.146126359701, 0.019597025588, -0.080096483231, -0.088179171085, 0.101634383202, -0.084170594811, 0.050535462797, -0.145549148321, 0.081595294178, -0.064230389893, -0.118208266795, -0.190166875720, -0.111789107323, -0.074398361146, 0.069784216583, -0.102661907673, 0.067861571908, -0.095817640424, 0.065768204629, -0.016289802268, 0.069073013961, 0.006292613223, 0.189768686891, -0.054014347494, -0.273266136646, -0.195423007011, -0.100659497082, -0.146397590637, -0.099201373756, -0.050265155733, 0.015716593713, -0.107888437808, 0.056481022388, -0.085734009743, 0.154323145747, -0.095827557147, -0.084913536906, -0.092630997300, -0.082489334047, -0.060578875244, -0.064593419433, -0.058852300048, 0.044402305037, 0.006432133727, -0.029921690002, 0.042315952480, 0.058063093573, 0.035082843155, -0.047346454114, -0.025457158685, 0.041121300310, 0.165487393737, -0.063677601516, -0.058917477727, -0.030606452376, 0.178228810430, 0.085518583655, -0.078383758664, -0.073878452182, -0.036640327424, -0.025778679177, -0.150395557284, 0.134146273136, 0.086600989103, -0.003482472384, -0.140648081899, 0.098069950938, 0.026116829365, 0.044664911926, -0.008081095293, 0.061404947191, -0.035116106272, -0.070434927940, 0.226578056812, 0.063240766525, 0.087445147336, 0.034015551209, 0.131077006459, 0.034356720746, -0.011895107105, -0.112604282796, 0.071583747864, -0.018040003255, 0.043638665229, 0.019474035129, 0.057918567210, 0.030601037666, -0.201183617115, -0.139698818326, 0.013232746162, -0.021664893255, 0.137046754360, -0.061478868127, -0.102625794709, 0.016286047176, 0.213606223464, 0.070492394269, 0.061627294868, 0.037614949048, -0.043450385332, -0.106797158718, 0.043879423290, 0.026259688661, 0.124207019806, -0.197861328721, 0.033148873597, -0.010927239433, 0.139974102378, -0.045598942786, 0.204555526376, -0.062045093626, 0.116687022150, 0.024124115705, 0.026557732373, 0.026107922196, 0.182885333896, 0.116756305099, 0.012473885901, -0.018846292049, -0.001781285042, 0.066668838263, -0.066642880440, 0.046991761774, -0.140366718173, -0.006385045126, 0.103141114116, 0.118046566844, 0.083237864077, -0.093285635114, 0.029510026798, 0.063170231879, 0.096330396831, -0.024936171249, 0.110448546708, -0.180634349585, 0.160851374269, -0.186332866549, -0.025994595140, -0.042604304850, -0.071614742279, -0.062350794673, -0.084657222033, -0.143022388220, -0.008412504569, 0.000995593378, -0.096066415310, -0.073640733957, 0.015589289367, 0.107901312411, 0.116919621825, -0.030665285885, 0.131758898497, -0.011530102231, 0.107227288187, 0.145537063479, -0.087083958089, -0.036482166499, -0.081100374460, -0.077400751412, 0.039165213704, 0.012944659218, 0.044957108796, -0.085555844009, -0.075662627816, 0.090964481235, 0.040671490133, -0.035311695188, -0.048553731292, -0.162163406610, 0.099694460630, -0.087208859622, 0.044668365270, -0.101999618113, -0.064312972128, 0.137691080570, 0.087436601520, 0.056056503206, 0.008410383947, 0.051892798394, 0.037922438234, -0.147147089243, 0.027291201055, -0.141575351357, 0.038883909583, 0.001620862051, 0.080550372601, -0.065693162382, -0.163211658597, -0.086456194520, -0.140903174877, -0.021649954841, -0.130921840668, -0.006735745352, 0.101383782923, 0.117785930634, 0.013561302796, 0.046638742089, 0.129849359393, 0.115379072726, 0.079848296940, 0.121649958193, -0.030366968364, 0.166571035981, -0.039029058069, -0.070208504796, -0.038240797818, 0.146144151688, 0.013047873974, -0.074341475964, 0.123858205974, 0.041932869703, -0.056549739093, -0.082911178470, 0.073656074703, 0.073360718787, -0.156367316842, -0.058886658400, -0.031573928893, -0.018397053704, -0.070625431836, 0.115809902549, 0.014944162220, -0.014873887412, -0.071792282164, 0.082093499601, 0.024522323161, 0.022914767265, 0.022050986066, -0.126867026091, 0.028062583879, -0.024757448584, -0.095297068357, 0.057743359357, -0.020045382902, 0.063922874629, -0.041349478066, 0.036553699523, -0.085725143552, 0.050615645945, 0.038284774870, -0.010386775248, -0.104594811797, -0.023754281923, -0.161955446005, -0.019187817350, -0.048831257969, -0.030433613807, 0.180072560906, 0.009923268110, -0.135605812073, -0.101560585201, -0.113527245820, -0.098274610937, 0.058671314269, 0.066463321447, 0.020215656608, -0.114702366292, 0.020266905427, 0.108892805874, -0.138471558690, -0.076662726700, 0.090314067900, 0.079268366098, -0.091460324824, 0.042820375413, -0.055917311460, 0.018973786384, 0.080985970795, -0.155173420906, 0.091764688492, -0.037715449929, 0.099650643766, -0.114628560841, -0.158960238099, -0.116732977331, 0.135981410742, 0.056529212743, -0.084916904569, 0.132655367255, -0.042978532612, 0.041600681841, 0.064051739872, 0.020854275674, -0.046697843820, -0.170489430428, 0.093886815012, 0.097277790308, 0.112751320004, -0.131775751710, -0.122566111386, -0.075403787196, 0.145995825529, -0.099788598716, -0.060988489538, 0.099898450077, 0.140465408564, -0.044038824737, -0.068638049066, -0.068394176662, -0.013907287270, -0.158686012030, 0.010944065638, 0.000554525293, 0.101045869291, -0.016119405627, 0.010898721404, 0.013351040892, 0.198306843638, 0.011008039117, 0.181380122900, 0.030200690031, -0.000344179862, -0.082809694111, 0.151173874736, 0.149292394519, -0.133283346891, -0.083188213408, 0.102112174034, 0.057967923582, 0.046148128808, 0.053775262088, 0.121034450829, -0.087293542922, 0.153687834740, 0.001579974778, 0.097101949155, 0.039235353470, -0.062318257987, -0.018306156620, 0.000084394283, 0.168609455228, -0.093186758459, 0.012795817107, 0.109840452671, -0.015564147383, 0.137067943811, 0.041549041867, 0.022266834974, -0.119592681527, 0.122801691294, 0.168082430959, -0.013134271838, -0.095984458923, 0.079261042178, 0.023022897542, 0.057523183525, 0.055413834751, 0.001976940781, -0.164524897933, 0.078246176243, 0.153150975704, -0.030929623172, 0.020231544971, 0.122908964753, -0.002584824571, -0.150252819061, 0.074928745627, -0.157521694899, -0.034321643412, 0.113952286541, -0.163227498531, 0.012376384810, -0.050659157336, 0.032634895295, -0.010384835303, 0.068655803800, -0.056165695190, -0.032636445016, -0.087145581841, -0.100725859404, -0.029130555689, -0.061896789819, -0.061444159597, 0.061589259654, -0.001258197823, 0.030897201970, 0.086853638291, 0.001581030199, 0.037770431489, -0.078533999622, -0.021017258987, 0.116835929453, 0.026236303151, 0.121565259993, -0.086431235075, -0.115291908383, 0.072268545628, 0.066092446446, 0.130460396409, 0.012180761434, 0.131308034062, -0.008690598421, -0.098515972495, 0.153653502464, 0.043055064976, -0.098710820079, -0.034372866154, -0.007175399922, 0.205428183079, -0.092539981008, -0.094518251717, 0.122467458248, -0.047334413975, 0.031378101557, -0.192594856024, 0.185942411423, -0.126313850284, 0.089914925396, 0.063063718379, 0.088615536690, 0.091245517135, 0.118922658265, 0.189718186855, -0.057056747377, -0.062344320118, -0.092150725424, 0.242609202862, -0.093491055071, 0.018120942637, -0.033327255398, 0.083944991231, 0.261631309986, 0.165068492293, 0.092938371003, -0.029738875106, -0.082960724831, -0.060145527124, 0.104208081961, 0.103463903069, 0.087570682168, 0.071302168071, -0.081954590976, -0.058816913515, 0.152710631490, 0.058392945677, -0.031383097172, -0.033989716321, 0.074141263962, 0.124529451132, 0.135052382946, 0.050015982240, -0.015303191729, -0.188301056623, -0.192187592387, -0.157459318638, -0.077787950635, -0.061139103025, 0.078611515462, -0.122976593673, -0.018101146445, 0.262584149837, -0.032392550260, -0.148645251989, -0.055866975337, 0.077741213143, 0.071553640068, -0.108260452747, -0.100792177022, 0.087453089654, -0.048402432352, -0.196088403463, -0.039645880461, -0.091420754790, 0.058220416307, 0.112876623869, 0.094049662352, -0.003082706826, 0.048898991197, 0.089992552996, -0.122765675187, -0.094758190215, 0.133292183280, -0.103147104383, -0.091464661062, 0.008423837833, 0.093267127872, -0.098713323474, 0.065496467054, 0.035774119198, 0.106665305793, -0.009422622621, -0.026450349018, 0.106745868921, 0.028394987807, 0.013868497685, -0.017367519438, -0.031331613660, -0.095735549927, -0.025451004505, -0.036353286356, -0.033450540155, -0.018611254171, 0.044403556734, 0.036318354309, -0.077084153891, 0.131050795317, -0.111492961645, -0.025516986847, 0.002270239173, 0.124007157981, -0.028579073027, 0.093065246940, 0.098286636174, -0.020821779966, 0.127355009317, -0.007167831995, -0.005862216465, 0.018923694268, 0.109038420022, 0.043524898589, -0.030831083655, -0.072792716324, 0.040028788149, 0.262913018465, 0.037135675550, -0.152649775147, -0.142231598496, 0.053602699190, 0.068114995956, 0.050993669778, -0.145660668612, 0.089380703866, -0.110353618860, 0.007112476975, 0.084616832435, -0.061938531697, -0.005931499414, -0.060686640441, -0.119516573846, -0.042546391487, 0.004265928641, -0.159113794565, 0.118468910456, 0.044322293252, 0.083132132888, -0.116517424583, -0.038379050791, 0.104640513659, 0.037780638784, 0.101003505290, -0.054907314479, 0.077131927013, -0.108278565109, 0.080220296979, 0.169469207525, 0.062702842057, -0.037900947034, -0.174325302243, -0.010227281600, -0.237797141075, -0.096367523074, -0.108393609524, -0.029568461701, -0.010654666461, -0.102427333593, -0.054630402476, -0.157047316432, -0.011353806593, 0.039500534534, 0.056069053710, 0.044760067016, -0.053328458220, 0.109539709985, 0.074438765645, 0.016457421705, 0.072229444981, 0.099157512188, 0.141284391284, 0.116937130690, 0.023080915213, -0.047898568213, -0.076499760151, 0.032377794385, -0.078167706728, -0.107763826847, -0.124733909965, 0.077854171395, 0.087078094482, -0.062377233058, -0.050081655383, 0.200734272599, -0.068515919149, -0.100482180715, -0.060469873250, 0.122125454247, -0.033032819629, 0.055548723787, -0.147496178746, 0.014631558210, 0.087185420096, -0.067038752139, 0.063370458782, 0.142289727926, 0.028376478702, 0.027524935082, -0.106301292777, 0.001707355957, 0.054273497313, 0.012997763231, 0.104426346719, 0.079066924751, -0.066138692200, 0.109733700752, 0.135027021170, 0.125896394253, -0.009765255265, 0.123591646552, -0.178692832589, -0.030628696084, -0.017174853012, -0.062088757753, -0.040378022939, 0.096815787256, 0.077202565968, 0.141959041357, 0.143709033728, 0.073779240251, -0.207064703107, 0.113881729543, -0.083596281707, -0.108414493501, -0.058861255646, 0.129519626498, 0.087932534516, -0.030025493354, 0.055060390383, -0.047350347042, -0.075740352273, 0.082335650921, 0.084158368409, 0.108318530023, 0.053633011878, 0.160615891218, -0.174688979983, 0.120213136077, -0.043332677335, -0.096893526614, -0.224245280027, -0.160718128085, -0.081002727151, -0.013054947369, 0.018849803135, -0.122714191675, 0.044715650380, -0.095257043839, -0.134326294065, 0.143365964293, 0.023480240256, 0.062234804034, 0.056603290141, -0.114115178585, -0.056056953967, 0.089628443122, -0.166730418801, 0.053444996476, -0.078517220914, -0.051672719419, -0.079395309091, 0.001650972525, 0.012235013768, 0.015453315340, -0.031965684146, -0.080916188657, 0.005962370895, 0.025536177680, -0.076177388430, -0.074013739824, 0.027703944594, -0.108187139034, -0.035191465169, -0.043311096728, -0.034287136048, -0.085655175149, 0.102963045239, 0.213361248374, -0.141594409943, -0.102895744145, -0.127526074648, 0.071360863745, -0.051141254604, -0.045003976673, -0.098289847374, -0.075226143003, -0.026611546054, -0.081079579890, -0.052060745656, 0.003839056939, -0.278992056847, -0.072083137929, 0.118620276451, 0.086820855737, 0.050404481590, -0.051246710122, 0.029300011694, -0.066299080849, 0.043173283339, 0.189694032073, 0.138994768262, -0.093863725662, 0.011374577880, -0.034248962998, -0.094976469874, -0.008596045896, -0.071679472923, -0.034037973732, 0.111735694110, 0.108978390694, 0.094098649919, -0.054465070367, 0.222603574395, -0.003116921289, 0.032797031105, -0.011801704764, -0.024956889451, -0.166527360678, 0.128231957555, -0.040841627866, 0.037118621171, -0.000310949166, 0.016285497695, -0.077152505517, -0.191276907921, -0.025123964995, -0.095198735595, 0.006929484662, 0.123058862984, 0.013718815520, 0.150414183736, -0.019767137244, -0.039404351264, 0.074373275042, 0.198989152908, -0.051002729684, -0.021028745919, -0.046243716031, -0.120762467384, -0.181189253926, -0.121470987797, 0.050030529499, 0.135891243815, -0.065660007298, 0.027996443212, -0.142147973180, 0.040256887674, 0.112658940256, 0.066608853638, 0.089219823480, 0.103440426290, -0.022014759481, -0.120838165283, -0.032175548375, 0.001784538152, -0.191855251789, 0.032775536180, 0.065143376589, -0.079756759107, 0.177447587252, 0.031840361655, -0.012715283781, 0.215741127729, -0.023333596066, 0.063289612532, -0.140180274844, 0.037150610238, 0.011826938950, -0.107290670276, -0.205288693309, 0.047719039023, -0.058389894664, 0.039173845202, -0.025771459565, -0.057380780578, 0.038616653532, 0.086026124656, 0.004304414615, 0.001066131983, -0.036322727799, -0.000617728219, 0.061051618308, -0.042240999639, -0.089050069451, 0.039191644639, 0.007872790098, -0.033560156822, 0.000481786032, -0.023339053616, 0.127721846104, 0.002103924286, -0.063374087214, -0.057621493936, 0.058779533952, -0.116857632995, -0.046043828130, -0.060115098953, 0.091241270304, 0.096569009125, 0.068376563489, -0.129195779562, -0.068633541465, 0.011445501819, -0.077146261930, -0.078314170241, 0.072807885706, 0.034479629248, 0.150081768632, 0.060002051294, 0.104638077319, 0.076648972929, -0.007491596974, -0.018861282617, -0.073485150933, -0.085900306702, 0.093004226685, 0.055244274437, -0.182632595301, -0.277885735035, -0.023299347609, -0.017739294097, 0.058972209692, -0.043971292675, 0.182362079620, 0.095637917519, -0.045922320336, -0.065662935376, 0.066887691617, 0.089955769479, -0.173686668277, -0.054920166731, 0.058307364583, -0.092893205583, -0.014391203411, -0.148417785764, 0.021367499605, -0.060303390026, -0.090467005968, -0.122427150607, -0.060798909515, -0.024710612372, -0.148305535316, 0.047802783549, 0.007270918228, 0.112547807395, -0.060620162636, 0.018288968131, 0.127372145653, 0.079070240259, 0.023610459641, 0.044938717037, -0.034814726561, 0.000029048446, -0.083678565919, 0.084064811468, -0.082348279655, -0.107755407691, -0.092605002224, -0.021862667054, -0.076596811414, -0.105489529669, -0.010484029539, -0.111590050161, -0.051832620054, 0.064391352236, 0.057132631540, -0.045386638492, -0.046413507313, 0.054834667593, 0.063843272626, -0.127658113837, 0.055238012224, 0.091009065509, 0.088829964399, 0.125401586294, -0.006056771148, 0.035684559494, -0.038926854730, 0.052922639996, 0.153708279133, -0.106756493449, 0.136499360204, 0.035410642624, 0.119764797390, 0.138795420527, 0.023509426042, 0.052352245897, -0.066773496568, -0.050090141594, 0.113980293274, -0.042837001383, 0.077199652791, 0.015177614056, 0.085209913552, -0.051791992038, -0.005466459319, -0.115298837423, -0.149199694395, 0.100175723433, 0.109644420445, -0.152171745896, -0.099392369390, -0.145020291209, 0.041057638824, -0.147082582116, 0.012862727977, 0.158077582717, -0.024026129395, 0.041465669870, -0.005397847854, 0.037526570261, 0.099036559463, 0.028568837792, 0.071432515979, 0.000712188485, -0.002046021633, 0.069166481495, -0.060079146177, -0.055047973990, 0.079216137528, 0.106980875134, -0.059586383402, 0.142863556743, 0.069308429956, -0.107857875526, -0.154126584530, -0.060017880052, 0.093338198960, 0.098325200379, -0.019548788667, -0.147161930799, 0.021007070318, 0.043860871345, 0.013991882093, -0.027913313359, 0.138671860099, -0.097548045218, 0.065315634012, 0.029219806194, 0.164618104696, -0.096702165902, 0.128319397569, -0.001867748098, 0.165332913399, 0.092113420367, -0.094708837569, -0.075592741370, 0.122251063585, -0.028593648225, -0.011751442216, 0.125397026539, -0.001726538991, 0.050073586404, -0.070593215525, -0.096897773445, -0.004535084125, 0.052188355476, -0.123994745314, -0.106986343861, -0.085232764482, 0.037966169417, 0.031689241529, 0.085887663066, -0.006447603926, -0.011011503637, -0.065320529044, 0.079279333353, 0.153951674700, -0.108841657639, -0.093501992524, -0.096152156591, -0.037723336369, -0.059080109000, 0.068890795112, -0.078497670591, -0.018729863688, 0.053608927876, -0.025081925094, -0.132096379995, 0.070102028549, 0.064652875066, 0.119841828942, -0.030972197652, -0.093398869038, 0.100342929363, 0.058760847896, -0.112441375852, 0.074747480452, -0.094777725637, 0.058295715600, -0.220809534192, 0.017242079601, 0.001388301840, 0.110563173890, -0.049871094525, -0.010559506714, -0.216155335307, -0.037115398794, 0.047060493380, -0.025192167610, 0.021946061403, 0.171032950282, -0.109171941876, -0.012764755636, 0.110972970724, 0.214057743549, 0.010656568222, -0.114370696247, -0.098940551281, 0.002072617644, 0.148796573281, 0.030574388802, -0.184885725379, 0.076747305691, 0.181986093521, 0.081518106163, 0.081121459603, -0.108511373401, 0.007173963822, 0.044337607920, -0.127038612962, -0.045247998089, -0.065090790391, -0.103177458048, -0.013354110532, 0.011555342004, -0.003154293867, 0.040410336107, 0.058054685593, -0.120331726968, 0.188630014658, -0.129529953003, -0.033783622086, 0.071893475950, 0.039638563991, -0.118981137872, 0.014215503819, -0.031654763967, 0.071173585951, -0.042648173869, -0.066044077277, -0.049282778054, 0.154841482639, 0.107407622039, 0.114276535809, -0.049601491541, -0.118844531476, 0.099466703832, 0.128114029765, -0.114418424666, 0.073354147375, -0.014537043869, -0.102940961719, 0.189367905259, -0.059310961515, 0.114166274667, 0.092448011041, -0.063154272735, 0.144589915872, 0.034209724516, 0.065881475806, -0.178630873561, 0.156340405345, 0.145956158638, -0.043781794608, 0.003416755702, -0.058666735888, 0.012341337278, -0.058552268893, -0.030778519809, 0.022187458351, -0.096284508705, 0.061131861061, 0.102337241173, 0.143573179841, 0.032330382615, -0.051234543324, -0.089720465243, 0.022741850466, 0.003961008973, 0.026898028329, -0.001325884834, -0.153500869870, -0.046691857278, -0.109796851873, -0.087897494435, -0.017727673054, -0.150041446090, -0.169286966324, -0.146947860718, -0.087488465011, -0.081535927951, -0.200523108244, 0.057979259640, 0.059181865305, 0.029688676819, 0.035382688046, 0.109486050904, -0.112222634256, 0.016664616764, -0.051451470703, 0.082684040070, -0.130441546440, 0.053790330887, -0.102750971913, -0.049665778875, -0.147269964218, 0.085067361593, -0.206343799829, 0.109799616039, 0.064850151539, -0.008197682910, -0.066846415401, -0.089044734836, 0.009602627717, 0.061053600162, -0.122748062015, 0.060255017132, -0.092528469861, -0.072644896805, -0.039797477424, 0.149281218648, -0.018278222531, -0.054992556572, 0.040843464434, 0.091646380723, 0.114942133427, -0.060214363039, -0.044931769371, -0.016017045826, 0.131929710507, -0.040721099824, -0.099568061531, 0.060518980026, 0.117309689522, 0.075580283999, 0.144091203809, 0.029629217461, -0.068037793040, 0.164925083518, -0.030859928578, 0.032819349319, 0.035700172186, 0.010051160119, -0.057612039149, 0.052314974368, -0.063508689404, -0.110438063741, 0.123443171382, -0.117457427084, 0.010661436245, -0.116838008165, 0.139554828405, 0.061472777277, -0.018340021372, 0.115280255675, 0.084910482168, 0.035745281726, -0.098453290761, -0.027882218361, 0.116015784442, -0.000325661094, 0.097246326506, 0.044464401901, -0.044856455177, -0.005740686320, -0.073652908206, 0.025599405169, 0.009741497226, 0.026557914913, 0.095909081399, -0.076720930636, -0.010901642963, 0.127888783813, 0.052953246981, -0.102319844067, 0.049454461783, -0.058792278171, 0.149110227823, 0.065680615604, -0.062763899565, 0.098006382585, 0.031947202981, -0.080859810114, -0.073488458991, 0.082959234715, 0.111611455679, 0.000186101126, -0.021808067337, 0.199290409684, 0.103150799870, -0.089842498302, 0.159252613783, -0.128842756152, 0.017368827015, -0.092891432345, 0.086572125554, 0.055790483952, 0.133684054017, 0.080209404230, 0.009269512258, 0.172060415149, 0.077643476427, -0.007109621540, 0.092619940639, 0.037498433143, 0.039571598172, 0.148648470640, 0.101905010641, 0.085858479142, 0.075186468661, 0.069393515587, -0.103774182498, -0.059549201280, -0.168549865484, -0.117827653885, -0.016366429627, -0.035624124110, 0.072184160352, -0.064234212041, 0.192091643810, -0.071853369474, -0.159298315644, 0.078084208071, 0.010803530924, 0.130536973476, 0.001325931633, -0.018700972199, -0.004821042530, -0.056640893221, 0.035668283701, 0.021021913737, 0.055774468929, -0.071613647044, 0.086927533150, 0.042132984847, -0.008903512731, 0.125022321939, -0.112568266690, 0.057089287788, 0.107227936387, -0.150603324175, -0.061315871775, -0.062040604651, 0.112354129553, 0.093063831329, 0.046125419438, -0.128393724561, 0.052168782800, 0.178570285439, 0.104497872293, 0.051889631897, -0.020298380405, 0.092288956046, -0.017315817997, -0.080132581294, -0.077890843153, 0.057557303458, -0.077083654702, -0.069082066417, 0.145024672151, 0.140351742506, 0.114339984953, -0.148803219199, -0.143414527178, -0.014723251574, 0.012996364385, 0.210350275040, -0.056429669261, 0.056983046234, 0.044938426465, -0.057639606297, -0.065807834268, -0.087044931948, -0.014451994561, -0.068769685924, 0.069733239710, -0.026948319748, 0.087889946997, -0.168126195669, 0.009654182941, 0.047792904079, 0.013298550621, -0.108397170901, -0.099215149879, -0.022549023852, 0.067605242133, -0.015713952482, 0.109946690500, -0.192178115249, -0.017801193520, -0.071826629341, 0.126801013947, 0.045124545693, 0.032807320356, 0.044233236462, 0.141920074821, 0.100568614900, 0.087755754590, 0.027386406437, -0.041278392076, 0.039348144084, 0.033274009824, 0.131798565388, 0.033575128764, -0.198416262865, 0.033894259483, -0.097136408091, -0.055771190673, -0.074659340084, -0.016589155421, 0.027647016570, 0.048895388842, 0.109811440110, -0.014887063764, 0.103888176382, -0.101540319622, 0.013729128055, 0.026002047583, 0.066433869302, -0.058993920684, 0.016779297963, 0.018528724089, -0.033693131059, -0.051316693425, 0.128329336643, -0.079342551529, -0.029597193003, 0.028015449643, 0.118438534439, -0.028450842947, -0.157380446792, -0.188488736749, 0.046239711344, -0.010816394351, 0.042699251324, 0.035779535770, -0.124656252563, -0.183520510793, -0.009360393509, 0.132038608193, -0.079810611904, -0.076558716595, 0.100177243352, 0.007034526672, -0.118612267077, -0.008003408089, -0.033736929297, -0.034779362381, 0.017925413325, -0.185880243778, -0.021558223292, 0.108287259936, 0.106875151396, 0.144263148308, -0.003871062538, -0.239188045263, 0.147512122989, -0.099176801741, 0.018965121359, -0.001789345406, 0.086854837835, 0.079309567809, 0.060033764690, 0.005025085527, 0.213512718678, -0.045644942671, 0.016973240301, 0.114625319839, -0.017941974103, 0.008631882258, -0.059687085450, 0.015832435340, -0.009819585830, 0.009389327839, -0.090712018311, -0.146153122187, -0.192420169711, 0.100891344249, 0.008023851551, 0.023240420967, 0.065232314169, -0.140560820699, 0.005287575070, 0.096423715353, 0.174295231700, 0.139899522066, 0.063713051379, 0.034651260823, 0.033452805132, 0.149890139699, -0.008946261369, 0.070257276297, 0.223044365644, -0.057581812143, -0.025015465915, 0.105646990240, -0.112206950784, 0.006675611250, 0.071752466261, 0.187411487103, 0.000424695347, 0.055411979556, 0.209332823753, 0.125541999936, 0.082387492061, -0.148279860616, 0.078499428928, -0.074795655906, -0.068828284740, -0.046635899693, -0.011428593658, -0.140038460493, 0.001843427541, 0.021011747420, 0.052891153842, -0.074957996607, -0.119249254465, 0.146537736058, 0.084760382771, 0.079511247575, 0.040093660355, -0.039809778333, -0.098977275193, 0.110250547528, -0.029647773132, -0.027159994468, -0.108928464353, -0.032834142447, 0.061492040753, -0.002177320886, -0.094827547669, 0.122990854084, -0.028053423390, -0.081178322434, 0.113367401063, -0.069638103247, -0.093874007463, -0.054367233068, 0.111205294728, -0.096996113658, -0.028791159391, -0.035526342690, -0.019122896716, 0.081607490778, -0.035898908973, 0.174704477191, -0.021872220561, -0.011933339760, 0.196386545897, -0.119485333562, -0.049855865538, -0.129250317812, -0.030285909772, -0.101696632802, 0.039761863649, 0.018882591277, -0.077216446400, 0.066067837179, 0.144467592239, -0.040606401861, -0.089437611401, -0.066513814032, 0.023240333423, -0.041342664510, 0.175170645118, 0.112248927355, 0.055365316570, 0.053434256464, -0.101066246629, -0.038984280080, -0.043967913836, 0.027690688148, -0.104675233364, 0.148482576013, -0.066849686205, -0.075326003134, 0.099980235100, 0.041640482843, 0.131859987974, -0.100818701088, -0.135499805212, 0.030121186748, -0.031345795840, -0.057759709656, 0.061296746135, 0.126749783754, 0.109307318926, 0.123228222132, 0.027964087203, -0.068417586386, -0.003696969710, 0.050148971379, -0.114884391427, -0.026958040893, 0.040779765695, -0.106085978448, -0.049837972969, -0.114138700068, -0.027413662523, 0.061675522476, 0.085854351521, -0.073523782194, 0.093496851623, -0.040654961020, 0.011610340327, 0.022718250751, 0.203995332122, -0.094944328070, 0.023847196251, 0.110365286469, -0.009089966305, -0.135907873511, -0.029907524586, -0.058063823730, -0.089579015970, -0.066441297531, 0.015308462083, -0.052151244134, -0.029378078878, -0.093506835401, 0.042913723737, 0.168610394001, -0.012992412783, -0.137972995639, 0.125904306769, -0.143547222018, 0.035047549754, 0.075002223253, -0.014636456035, -0.187660112977, 0.036373313516, 0.045041173697, 0.052293233573, 0.135626450181, -0.079359315336, -0.061300951988, 0.036009948701, -0.008488464169, 0.036344468594, -0.087489932775, 0.024988189340, 0.020890317857, 0.100078649819, 0.113548032939, 0.098513387144, -0.100508607924, 0.092433601618, 0.037444502115, -0.094144977629, 0.024513462558, 0.046047210693, 0.129573717713, -0.074258677661, -0.044481839985, -0.104296945035, 0.063444897532, -0.064799629152, -0.058443833143, 0.019008772448, -0.002124036662, -0.055024508387, -0.138720884919, -0.012808191590, -0.157107889652, 0.152111589909, 0.044693760574, 0.111931085587, -0.052267149091, 0.110320791602, 0.112270161510, 0.144993573427, -0.025769781321, 0.029467761517, 0.177548751235, -0.032988503575, -0.120295554399, -0.101075209677, 0.103898249567, -0.115989223123, -0.079738922417, -0.000767721736, 0.063677616417, -0.124691762030, 0.097672589123, -0.106254011393, -0.133451044559, 0.003220188897, 0.102750211954, -0.120901890099, -0.107005529106, 0.040624123067, 0.054655101150, -0.065357863903, -0.249743536115, 0.010200543329, 0.058319829404, 0.065486386418, 0.009656903334, 0.089782536030, 0.040971551090, -0.044427126646, 0.148364007473, -0.080314800143, -0.088974982500, 0.066644594073, -0.067230485380, -0.061522807926, -0.100299775600, -0.215968698263, 0.032000802457, -0.019958751276, 0.060972426087, 0.122152127326, 0.036049850285, 0.143819123507, 0.022442463785, -0.014444624074, 0.079903006554, -0.027354132384, -0.012144381180, 0.135513320565, -0.045759771019, -0.031855825335, 0.180372864008, -0.095419600606, 0.012926364318, 0.124555081129, 0.044080231339, 0.079968541861, 0.015901181847, -0.074775122106, -0.034051686525, -0.012644063681, 0.123052485287, 0.044129636139, -0.016268506646, -0.097010426223, 0.003494334174, -0.045855019242, -0.083999171853, 0.064568981528, 0.051753912121, 0.164978340268, 0.055093247443, 0.050716526806, 0.119379363954, -0.029795501381, 0.000851630699, 0.068859688938, 0.142088577151, 0.052799347788, -0.088653936982, 0.121830724180, -0.072891771793, 0.128372758627, 0.046879723668, -0.030678255484, -0.136336803436, -0.038446661085, 0.110859736800, -0.006532508414, 0.086358033121, 0.125952109694, 0.044980917126, 0.094919212162, -0.104658067226, 0.025901434943, -0.064119398594, 0.085378997028, -0.074642159045, 0.100680530071, -0.052058130503, -0.085730478168, 0.030643999577, -0.015919156373, 0.066195100546, -0.051447063684, -0.019434221089, -0.050155807287, -0.058260057122, 0.035858418792, 0.002727526007, 0.074777901173, -0.079698853195, -0.007579795551, 0.081821881235, -0.061598312110, 0.076706230640, -0.093660175800, -0.020635236055, -0.090232342482, 0.103142812848, 0.025106111541, 0.093911081553, 0.102447941899, -0.022194154561, 0.115432873368, 0.108544863760, -0.059914983809, -0.039217755198, 0.118924610317, 0.029076825827, 0.090103931725, 0.000265118637, 0.105702146888, 0.091501787305, 0.083365827799, -0.033633723855, 0.065374426544, 0.073599927127, -0.078598327935, -0.028481468558, 0.046113044024, 0.067599579692, -0.035329427570, -0.108218923211, 0.027957698330, 0.078158140182, -0.023226935416, -0.098454855382, 0.107450515032, 0.069789469242, 0.048399806023, 0.079294480383, 0.025782115757, -0.072879560292, -0.094099491835, 0.037365421653, -0.024674482644, 0.041645072401, 0.049479257315, 0.124236859381, 0.056237936020, -0.121329829097, -0.060639411211, -0.116208150983, -0.094988793135, -0.031649049371, -0.008837051690, 0.108533598483, 0.094728656113, -0.121653534472, 0.085653774440, 0.035412583500, -0.100411750376, -0.113533206284, -0.066470198333, 0.042107842863, 0.031545359641, -0.122213870287, 0.061736918986, -0.108926557004, -0.057194348425, 0.087113581598, -0.095838814974, 0.106935918331, 0.012564470060, 0.125066846609, 0.093298368156, 0.074024640024, 0.102976873517, -0.030119456351, 0.099254548550, 0.002398818498, 0.051104169339, 0.095924533904, -0.113566547632, 0.109554164112, 0.035286605358, 0.108650639653, -0.105033643544, 0.104286618531, 0.047496356070, -0.083772033453, 0.039119374007, 0.115646854043, -0.033182330430, -0.091314516962, 0.005753431469, -0.077508457005, -0.079901106656, 0.018137281761, -0.006472787820, 0.002914022887, 0.101787410676, -0.082895718515, -0.115024976432, -0.068219281733, 0.098341450095, 0.000714757072, -0.049652189016, -0.045129522681, -0.062703609467, 0.065500579774, -0.047317944467, 0.067585751414, -0.056480765343, 0.113482870162, -0.023303253576, 0.120998755097, -0.031547471881, 0.082699134946, 0.004513462540, 0.100496344268, -0.029733179137, 0.086473703384, -0.010716202669, 0.034965809435, 0.040745843202, 0.025368751958, 0.018204336986, 0.060486566275, -0.032543770969, -0.005249911919, 0.004609264899, -0.062872566283, -0.007601006888, 0.023791447282, 0.133338958025, -0.008145697415, 0.021229801700, 0.077354647219, 0.039805646986, 0.044791817665, 0.095628872514, -0.061796180904, -0.099057383835, 0.084775991738, -0.009950396605, 0.086001418531, -0.018479496241, 0.026226364076, -0.119053147733, -0.077583104372, -0.112532690167, -0.080825813115, -0.059493154287, -0.044117797166, 0.040807466954, 0.052774023265, -0.118014223874, 0.045653592795, 0.135054796934, -0.028159758076, -0.097858190536, -0.082223333418, 0.073399946094, 0.157552912831, 0.089216299355, -0.044903326780, -0.075108543038, 0.050128713250, 0.093642637134, -0.072919413447, 0.039683341980, 0.074737928808, -0.038448709995, 0.012665043585, 0.111965678632, -0.119965746999, 0.097277991474, -0.041200265288, -0.073839962482, 0.008393572643, 0.049170415848, -0.027367452160, 0.066211335361, -0.181405365467, -0.033282171935, 0.062445659190, -0.011676415801, 0.021432776004, -0.003636449343, -0.002154598013, 0.028893703595, -0.125928908587, 0.140428751707, 0.120308302343, -0.042300228029, 0.044527985156, -0.026500582695, -0.027065157890, -0.078794978559, 0.096084378660, -0.019390653819, -0.016811290756, -0.052726671100, -0.008740180172, 0.087419465184, 0.070332624018, 0.137775629759, 0.055953685194, -0.045901656151, -0.002527764533, 0.032455317676, 0.148162558675, 0.104857623577, -0.034173987806, 0.027575073764, -0.106895320117, 0.014347544871, -0.016767011955, -0.094356022775, 0.067492954433, 0.142702862620, -0.066421940923, -0.076527923346, -0.067010775208, -0.159527912736, -0.124691486359, 0.061513587832, 0.001858674455, -0.036600243300, 0.060086019337, -0.008914294653, -0.007696391549, 0.068012453616, 0.037684272975, -0.094678163528, 0.050031885505, 0.109507933259, -0.000443558558, 0.037514913827, 0.096480414271, -0.096035815775, 0.086468920112, -0.027637828141, 0.068525865674, -0.067798204720, -0.006362852640, -0.042806476355, -0.071710549295, -0.046341203153, -0.294430613518, 0.004035559949, -0.099909469485, 0.142642766237, -0.001408822951, 0.018521184102, -0.064008861780, -0.028967246413, -0.201310634613, 0.092845834792, 0.012881324627, 0.075458727777, -0.071982949972, -0.294905155897, 0.045936323702, 0.028171792626, -0.011105231009, -0.027655830607, -0.070532448590, 0.080603234470, 0.074233964086, -0.024700665846, -0.105421893299, 0.005227688700, -0.084248781204, -0.036375876516, -0.130231022835, -0.091865569353, 0.036761775613, 0.071990191936, -0.080891191959, -0.032089706510, 0.087562695146, -0.044061589986, 0.089644826949, 0.071885198355, 0.026182182133, 0.055148478597, 0.000909874274, 0.122274227440, 0.151935607195, -0.058135714382, -0.058532305062, -0.028526857495, -0.099626921117, 0.187231138349, -0.002568409545, -0.000802274211, 0.086271442473, -0.105641126633, -0.045986182988, 0.134940341115, 0.064235329628, -0.188536152244, -0.164092943072, 0.100211665034, 0.132051736116, -0.105883106589, -0.072661191225, -0.008404836059, -0.033154424280, 0.036056771874, 0.079490050673, -0.019774958491, 0.195208698511, 0.058867756277, 0.066977605224, -0.080902002752, 0.021396018565, -0.253667205572, -0.019789380953, -0.292820811272, -0.020791625604, -0.049420863390, -0.060428872705, -0.078794196248, -0.120224244893, -0.178494513035, 0.166301295161, -0.012878082693, -0.019667191431, 0.115651786327, -0.010906659998, 0.022776784375, 0.042426995933, 0.080815955997, 0.040303226560, -0.155234187841, -0.088387578726, -0.074816629291, -0.054838411510, 0.012540422380, -0.065131522715, -0.008393500932, 0.044286169112, 0.091910332441, 0.192694470286, -0.008398300037, -0.075816869736, 0.083836093545, -0.088147237897, 0.079311691225, -0.096651680768, -0.107287384570, -0.001116066705, 0.059296134859, 0.131244495511, 0.185543730855, -0.083464398980, -0.007460197434, 0.057674881071, 0.123403444886, 0.123048983514, 0.178630486131, -0.054338403046, 0.191863328218, 0.063984021544, 0.067947216332, 0.112301215529, -0.053914956748, 0.019855162129, -0.082478068769, -0.109568849206, 0.010973055847, 0.060042962432, -0.103459574282, 0.011615675874, 0.084029898047, 0.067230641842, -0.045949358493, 0.083271689713, 0.129282921553, -0.094479911029, 0.167296186090, 0.016805076972, -0.028238382190, -0.191240891814, -0.079262271523, -0.102100983262, -0.128763556480, 0.130882993340, 0.029909422621, 0.057867385447, 0.017891405150, -0.090059138834, 0.118341214955, 0.032594170421, 0.096566379070, 0.085436701775, -0.156280010939, -0.032726414502, -0.001502724830, 0.035000637174, 0.073750391603, -0.218933075666, -0.034032896161, 0.011199346744, -0.036623358727, -0.040291391313, -0.033436018974, -0.164921358228, -0.031026368961, 0.069423384964, 0.105730332434, 0.152282670140, -0.068740010262, 0.016938593239, 0.082010678947, -0.050231281668, -0.127983614802, -0.008762782440, -0.031442381442, 0.022349623963, 0.239811807871, 0.048168666661, 0.012048538774, -0.070112034678, 0.006462793797, 0.048099271953, 0.118107795715, 0.174114853144, 0.117850728333, -0.119300141931, -0.055455245078, 0.004605136812, -0.041583776474, -0.082021892071, 0.073236010969, 0.087904125452, 0.130897313356, 0.046754512936, 0.020878667012, 0.074782297015, 0.150317654014, 0.053610268980, 0.058239135891, -0.074350483716, 0.005650698207, -0.034359633923, 0.033811233938, -0.181663051248, -0.043252576143, 0.123252362013, -0.079008251429, -0.131816744804, -0.081878095865, -0.082505188882, -0.037616271526, 0.187341779470, 0.062723241746, 0.022191055119, 0.158082738519, -0.073855251074, 0.172776877880, 0.076233699918, 0.100759215653, 0.010160634294, 0.101233161986, 0.164946973324, -0.018294034526, 0.092777907848, -0.111942537129, -0.008955969475, -0.151952385902, -0.138591274619, 0.008542471565, -0.112002432346, 0.073745675385, -0.109014876187, -0.073509134352, 0.052389513701, -0.100796602666, -0.051419671625, 0.020646233112, 0.052111692727, -0.022076129913, 0.127564966679, -0.065286926925, -0.110460102558, 0.056745640934, -0.156176641583, 0.029042031616, -0.079888790846, 0.085463643074, -0.039643425494, -0.146719276905, -0.000181479583, -0.083649091423, -0.057968623936, -0.049774046987, 0.103540159762, -0.041945103556, 0.156555563211, -0.027581170201, -0.101722903550, -0.097099393606, -0.080247789621, 0.024526100606, 0.014585148543, -0.076046347618, 0.037992984056, -0.069716408849, -0.095486268401, -0.121503904462, 0.019711134955, 0.045627117157, -0.035355530679, 0.129034116864, -0.017933506519, 0.035384144634, -0.024222973734, -0.031423725188, -0.058785844594, 0.002553577069, 0.081370994449, 0.065921761096, 0.094304293394, -0.034438174218, -0.028457900509, -0.102292269468, 0.114712484181, 0.025684753433, -0.081185422838, -0.020193101838, -0.008001634851, 0.067707665265, -0.046439658850, -0.039052799344, -0.111747801304, -0.042428482324, -0.108587391675, 0.124398514628, 0.106329366565, -0.016565578058, 0.039760086685, -0.049585502595, 0.172792181373, 0.040821556002, 0.115313269198, -0.017881587148, -0.115248791873, -0.056197732687, 0.059966418892, 0.037602845579, 0.013337686658, -0.114683084190, 0.065248288214, 0.073924504220, 0.002862886759, 0.026159526780, -0.093922801316, -0.179930076003, -0.000993476133, 0.148251861334, -0.051576018333, -0.017832886428, -0.055439490825, -0.113756194711, -0.186156660318, -0.041832562536, 0.189418464899, -0.043144654483, 0.059102676809, 0.143363073468, -0.000656873861, 0.216266274452, 0.010178285651, 0.087246179581, -0.035978212953, 0.026391865686, -0.011893998832, 0.017479693517, 0.026322552934, -0.112629294395, 0.162524670362, -0.063535220921, 0.244338616729, 0.084917016327, -0.023897692561, 0.075188219547, 0.021407837048, 0.015916479751, -0.188223242760, -0.036493614316, 0.077472455800, -0.168304592371, 0.073247589171, -0.012772368267, 0.103832677007, -0.165080279112, 0.004823374562, 0.064142987132, -0.113527871668, -0.006066564005, -0.126262187958, -0.133722051978, -0.022270960733, -0.031596716493, 0.209338530898, 0.036211695522, 0.062394443899, -0.086401656270, -0.005292764865, -0.062235511839, -0.058345332742, 0.033729035407, -0.077373586595, -0.046875245869, -0.096034072340, -0.063815675676, 0.087061531842, -0.051126945764, -0.051042348146, -0.042328637093, -0.095632500947, -0.082329757512, 0.168424054980, 0.052103836089, -0.105504505336, 0.076416820288, -0.018830526620, 0.114591881633, -0.094569124281, 0.113689161837, -0.023456081748, -0.068641506135, -0.137623637915, 0.033773761243, 0.153906956315, 0.012298212387, 0.013523700647, 0.068366095424, 0.040666542947, -0.090301789343, 0.137485474348, -0.036821834743, 0.080552294850, 0.015853218734, 0.022547116503, 0.091003760695, 0.086689747870, 0.196612700820, -0.029492206872, -0.092579744756, 0.015482888557, 0.239484608173, -0.045531887561, 0.030866974965, -0.018856352195, -0.066223599017, 0.155620649457, -0.059025198221, -0.020463988185, -0.044193729758, 0.158507451415, -0.129828855395, -0.016478735954, 0.123329401016, -0.071543902159, 0.084467306733, -0.178865611553, 0.084174387157, -0.029146220535, 0.064654529095, 0.068234279752, -0.047786775976, 0.127924203873, 0.100807860494, -0.059750296175, -0.193809270859, 0.056815259159, -0.219229504466, 0.020518889651, -0.040685623884, 0.038018662483, -0.158307790756, -0.087207622826, -0.073614768684, 0.188109114766, 0.038305807859, -0.002531138714, -0.016193011776, -0.087117671967, 0.215021789074, -0.028409538791, 0.051001969725, -0.122898049653, -0.032812748104, 0.038336236030, -0.066245049238, 0.193081572652, -0.234148353338, 0.172266006470, 0.000185357596, 0.011096200906, -0.133485630155, -0.051025819033, 0.107223607600, -0.041333526373, -0.057355005294, 0.080226443708, -0.104991622269, 0.067484520376, 0.052536763251, 0.100786268711, -0.005655792542, -0.126485452056, 0.088287651539, -0.109436549246, -0.058624207973, -0.116996079683, 0.031749416143, -0.019791636616, 0.106370262802, -0.042487386614, 0.000951246126, -0.030670328066, -0.091072008014, 0.028643775731, -0.011597893201, 0.140846148133, 0.001811958966, 0.011795333587, 0.010499685071, 0.033575553447, -0.025968704373, 0.043725378811, -0.053369618952, -0.037919122726, 0.070497877896, -0.115521624684, 0.078936636448, -0.088043116033, -0.018021250144, 0.146232172847, -0.031964641064, -0.092176295817, -0.010461411439, -0.065401859581, 0.005220551509, 0.120361573994, -0.030807007104, 0.082805491984, -0.096389770508, -0.075039133430, 0.001440134132, -0.129067927599, -0.004815929569, 0.071176283062, 0.008581914008, 0.125617995858, -0.149052947760, 0.068336226046, 0.131876036525, 0.052492890507, -0.101362779737, 0.131189808249, 0.091192804277, 0.060288660228, 0.071419045329, -0.147054105997, 0.102504029870, -0.072970986366, 0.093954823911, 0.082546934485, 0.046178404242, -0.019648747519, 0.021409992129, 0.070969171822, 0.067720785737, 0.117358557880, 0.042818866670, 0.163737252355, 0.209102660418, -0.010457853787, 0.096089854836, -0.129059761763, 0.077714964747, 0.001377506764, -0.125354632735, -0.117663003504, 0.045558832586, -0.131069764495, 0.006834208034, -0.095893122256, -0.099534928799, -0.181081950665, -0.006325383671, -0.069151304662, 0.201204121113, -0.035700846463, 0.123525038362, -0.012485867366, 0.063644975424, -0.021174980327, 0.034001614898, 0.082909218967, -0.104157201946, 0.054312221706, 0.045465912670, 0.000077361576, -0.160155817866, -0.146096497774, -0.112631663680, -0.047787051648, 0.024897016585, -0.068407304585, -0.013292904012, 0.005201334134, 0.087033137679, -0.110141977668, -0.116467103362, -0.069989435375, 0.253591984510, -0.093997962773, -0.105761863291, -0.114039406180, -0.040747683495, -0.033864457160, -0.091980852187, 0.089003942907, 0.062807030976, -0.062287982553, 0.030534977093, -0.076750606298, -0.021358009428, -0.057316236198, -0.121890142560, 0.003093825188, -0.008034590632, -0.006733195391, -0.026134580374, 0.098368100822, -0.008478970267, -0.074150122702, 0.068416327238, -0.002753386972, 0.083236657083, 0.024125322700, 0.065940156579, 0.002582274843, 0.028445759788, 0.031643386930, -0.030005322769, 0.126633718610, -0.025031762198, -0.164863228798, -0.064950473607, -0.046729240566, 0.060937207192, -0.125419467688, -0.036483474076, -0.070349395275, -0.065348058939, 0.092879764736, -0.157320588827, 0.080957166851, 0.043897882104, 0.061390370131, -0.116527065635, 0.005078145768, 0.058834869415, -0.033785130829, 0.156065016985, -0.011835258454, -0.028172552586, -0.184133991599, -0.153676643968, 0.151182308793, -0.107333898544, -0.026610655710, -0.003583703656, -0.000475036766, -0.185422778130, -0.076198212802, 0.084456861019, 0.076820291579, 0.047891668975, 0.008362868801, 0.031365640461, -0.152364894748, -0.043700445443, -0.005301964935, 0.033440254629, -0.133373141289, 0.066241219640, 0.015978585929, -0.116789132357, -0.043461330235, 0.052606537938, -0.019565038383, 0.008555847220, -0.103044822812, -0.037093948573, -0.020895460621, 0.022806406021, 0.073870085180, 0.051611881703, -0.012096648104, 0.167675808072, -0.003930144943, 0.046593584120, 0.044815119356, -0.044379808009, 0.041538674384, 0.082735329866, -0.059211667627, 0.097394749522, -0.037579335272, -0.137420743704, -0.127939745784, -0.194594085217, 0.170118853450, -0.012923485599, 0.204533293843, 0.049876492471, -0.160444006324, -0.053287167102, 0.018436158076, 0.076868467033, 0.005857951473, 0.098540775478, -0.087429493666, 0.141239449382, -0.117049127817, 0.011757041328, -0.015588447452, 0.183967307210, 0.017288211733, -0.027132401243, -0.060835529119, 0.025005828589, -0.097781367600, 0.004121707752, 0.023392247036, -0.005008352455, -0.010230146348, 0.100275345147, -0.023982560262, 0.077251300216, -0.105730339885, -0.077417269349, -0.046460736543, -0.082087114453, -0.079925641418, 0.006722723134, -0.013353747316, 0.099073387682, 0.055462252349, 0.000486896897, -0.118847079575, -0.052885543555, 0.050814408809, 0.079124681652, -0.050525318831, -0.114029213786, -0.001939595910, 0.094967924058, -0.017250137404, 0.016502333805, 0.209198847413, 0.042492073029, 0.097569294274, -0.096681833267, -0.159267574549, -0.152828261256, -0.044435262680, 0.091369874775, 0.034218888730, 0.049008827657, 0.104155272245, 0.027122737840, -0.124071940780, 0.065293446183, -0.058305636048, 0.053845666349, -0.128318920732, 0.047628935426, 0.070925936103, 0.086391925812, 0.053029764444, -0.079385444522, -0.043202802539, -0.005994773470, -0.135935887694, 0.170537114143, 0.094107531011, 0.111767768860, 0.222635716200, -0.003895031055, -0.013868452981, 0.057511970401, -0.023990692571, -0.051823824644, 0.028978699818, -0.145794957876, -0.029021449387, -0.057898651809, -0.208591088653, 0.053028795868, -0.075811229646, -0.117483437061, 0.144994854927, 0.063910849392, 0.098762489855, 0.051500447094, 0.101397387683, -0.141309320927, 0.057768899947, -0.158829107881, 0.031486604363, -0.180067688227, -0.019530333579, -0.016493337229, -0.043217062950, -0.108979493380, 0.077260233462, -0.030378893018, -0.027776397765, 0.029066072777, -0.048510156572, -0.092028833926, -0.078577406704, 0.020374113694, 0.035669382662, 0.147231161594, -0.023056870326, 0.115840300918, -0.069287076592, 0.125608026981, 0.149498447776, 0.160359933972, 0.008400496095, -0.005677024368, 0.017799030989, -0.044102843851, 0.102935165167, 0.103165335953, 0.170130595565, -0.024760222062, -0.074802182615, 0.059475142509, 0.033141952008, 0.038974370807, -0.032880999148, -0.140210568905, 0.078136578202, 0.015666997060, 0.085956759751, -0.017319757491, -0.108627773821, -0.046400256455, -0.076361261308, -0.083005331457, 0.049174230546, 0.026458250359, -0.077771037817, -0.028554199263, 0.038617305458, 0.117801859975, 0.076454952359, 0.146059975028, -0.124502114952, 0.053012520075, -0.012700662017, 0.023194752634, -0.226025849581, 0.060088641942, 0.070421800017, -0.152077421546, -0.050260055810, 0.088466845453, 0.026111029088, -0.054295372218, -0.019116539508, 0.000455676811, 0.007775044069, -0.062306057662, -0.087814606726, -0.023847293109, -0.096222974360, -0.075360760093, -0.061437003314, 0.073860131204, -0.043401129544, -0.025683704764, -0.061390284449, 0.080883853137, 0.012262123637, 0.045048359782, -0.093363538384, -0.054129876196, -0.061856105924, 0.052727360278, 0.119308359921, -0.106215596199, -0.042020335793, 0.138551831245, 0.119292050600, -0.110840983689, 0.062864512205, -0.053897388279, -0.146484464407, -0.085073359311, 0.028925402090, 0.151762545109, -0.130706995726, 0.071166492999, -0.102757841349, 0.093386404216, -0.064331844449, -0.133087292314, -0.080080136657, -0.077894702554, -0.068556681275, -0.052961230278, 0.017248896882, -0.086782388389, -0.104860723019, 0.071061201394, 0.173035576940, 0.002390658017, 0.051745478064, -0.097600616515, 0.051321387291, 0.085978083313, 0.027224203572, -0.030366163701, 0.002217076253, -0.035533480346, -0.120445072651, 0.138776317239, -0.084574192762, 0.052925106138, -0.138447880745, 0.019495163113, 0.087388433516, 0.029174607247, -0.162510812283, -0.164469465613, 0.049058526754, 0.035690005869, -0.063928090036, 0.128629818559, -0.034184813499, 0.061047449708, 0.016756668687, 0.063783146441, -0.071734391153, -0.243887633085, -0.019592022523, -0.087490715086, 0.141904249787, -0.014116955921, 0.104482732713, -0.120250441134, 0.063444286585, 0.068700179458, -0.026560528204, 0.031099351123, -0.122977048159, 0.103440396488, -0.136342957616, -0.052554592490, -0.101454511285, 0.038703188300, 0.017466444522, 0.029989928007, 0.013385267928, 0.091205827892, -0.054173402488, -0.003508635564, -0.066247284412, 0.096891969442, 0.238463252783, -0.169186756015, 0.122571565211, 0.015292475000, -0.029035260901, 0.050167169422, 0.170102119446, 0.001653583487, -0.093629762530, 0.089146055281, 0.004130452871, -0.128641918302, 0.062376800925, 0.111662954092, 0.033017184585, -0.139847680926, 0.096922203898, 0.035071965307, 0.098740629852, 0.059518992901, -0.056376643479, -0.036656025797, -0.030047168955, 0.026753155515, -0.122494369745, -0.038779605180, -0.093338266015, 0.013589655049, 0.000072147304, -0.166298434138, -0.029297636822, 0.024383282289, 0.110879100859, -0.062624908984, -0.091683164239, -0.069772705436, -0.050466794521, 0.035408549011, -0.029178021476, 0.058786906302, -0.036043774337, 0.038487765938, 0.096374645829, 0.069562152028, 0.087147004902, 0.001174929435, 0.160468757153, 0.013646035455, -0.181373417377, -0.018331693485, -0.113947965205, -0.024099640548, -0.025752114132, -0.015452272259, 0.012742775492, 0.077470004559, 0.196628376842, 0.109781377017, -0.011095984839, -0.010364937596, 0.115929491818, 0.145228669047, -0.021474463865, 0.061683006585, -0.001477831625, -0.051738739014, 0.018336113542, 0.109110817313, -0.095122396946, 0.041121695191, 0.029077645391, 0.028099473566, 0.147439867258, 0.072784960270, -0.030004754663, 0.098442427814, 0.079285480082, 0.233034938574, 0.094657763839, -0.001689620083, 0.043107267469, 0.070755645633, 0.038798578084, -0.230297461152, -0.140401542187, -0.092987664044, -0.001202211133, -0.144607171416, 0.174653574824, 0.031833998859, 0.006163822021, -0.074196726084, -0.034070312977, -0.113027080894, -0.103916965425, -0.035990092903, -0.021460900083, -0.157580241561, -0.096692867577, 0.129407376051, 0.007977942936, -0.161962077022, -0.103738084435, -0.069837085903, -0.094092354178, 0.069267556071, 0.061895530671, -0.128227770329, -0.086563982069, 0.003384897718, 0.155045598745, 0.203226387501, 0.095281437039, -0.043902225792, 0.048487152904, 0.080936379731, -0.129570171237, 0.073422074318, 0.030499558896, -0.000318928971, 0.066672086716, 0.151069715619, 0.171049848199, -0.174628287554, -0.122916504741, 0.060065247118, 0.092747718096, -0.029045192525, -0.075055077672, 0.001620496623, 0.179874464869, -0.090716876090, 0.051720913500, 0.059445593506, -0.016847245395, -0.119123563170, -0.015618359670, -0.013992756605, 0.121216520667, 0.016558924690, 0.005916023627, -0.143957331777, 0.050145480782, -0.023463094607, -0.076564975083, -0.042904593050, -0.194775491953, 0.090692833066, 0.099911078811, -0.114279188216, -0.109469018877, 0.110813640058, 0.098149210215, 0.045328211039, -0.122710056603, 0.032712280750, 0.040934860706, -0.031419172883, 0.085194118321, -0.058222796768, -0.007572672330, -0.110944293439, 0.094537988305, 0.031326841563, -0.075338713825, 0.032192155719, -0.091288238764, 0.043333370239, -0.131633073092, 0.132558718324, 0.139075011015, 0.077096074820, -0.085855565965, -0.070807836950, -0.122146345675, 0.069215632975, 0.011341809295, 0.148298710585, -0.055541474372, -0.084892228246, 0.078148022294, 0.025037044659, -0.006651218981, 0.150180667639, 0.159230723977, 0.083968244493, 0.058963093907, 0.069202840328, -0.155856966972, -0.125768139958, 0.085718370974, 0.173706457019, 0.100016981363, 0.017111768946, 0.053308870643, -0.020969823003, 0.077626012266, 0.108611345291, 0.085133790970, -0.012855526060, -0.005293982569, 0.046522684395, -0.065265521407, -0.095354095101, -0.087381660938, 0.002625267021, -0.108173400164, -0.132657632232, 0.038689807057, -0.009715708904, 0.178690895438, 0.043905336410, -0.101021528244, 0.053114838898, -0.196843937039, -0.217835605145, -0.103598132730, -0.095797762275, 0.114259675145, 0.048499315977, -0.113873355091, -0.147313579917, -0.148956522346, -0.131233513355, 0.062175847590, -0.031559828669, 0.006619571708, -0.034612517804, -0.017118716612, 0.150427952409, 0.019522812217, 0.172236770391, -0.088033266366, 0.039055477828, -0.030161688104, -0.140131667256, 0.085477568209, -0.110112547874, 0.103730477393, -0.063391983509, 0.065530203283, -0.041078545153, 0.079041354358, 0.085405565798, -0.102008081973, 0.063118457794, -0.045438412577, -0.009536634199, 0.002780796262, 0.099106192589, 0.036435585469, -0.121080316603, 0.120553165674, 0.020714247599, 0.108205333352, -0.048279091716, 0.176312297583, 0.026659587398, -0.006076500751, 0.187399178743, 0.101276367903, 0.028847062960, 0.074558623135, -0.060956820846, 0.029868116602, -0.137248799205, -0.039752122015, 0.039809320122, 0.005570502486, 0.143906429410, 0.023599183187, -0.069869332016, 0.095076568425, -0.003314983798, -0.002076807665, 0.104497931898, 0.098279133439, 0.091126784682, 0.007190492935, -0.098893590271, 0.104020029306, -0.100633136928, 0.006692470517, 0.134269595146, -0.071843437850, 0.065274059772, 0.060536570847, -0.029720585793, 0.032192617655, 0.071006417274, -0.040782228112, 0.079308860004, 0.064073503017, -0.111611753702, -0.059185385704, -0.031052727252, 0.038220643997, -0.054332591593, 0.181764602661, 0.026575878263, -0.065594173968, -0.002633230062, -0.054216437042, 0.064255170524, 0.007019600831, 0.142181798816, -0.012148846872, -0.093163497746, -0.073568142951, 0.076893694699, 0.020274989307, -0.147003114223, -0.083535835147, 0.074623934925, 0.144529208541, -0.132679253817, -0.102847158909, -0.130832061172, -0.123787283897, 0.187396526337, 0.014461233281, -0.187010273337, 0.034423928708, -0.048182725906, 0.139949873090, -0.047636810690, 0.040144804865, -0.084225006402, -0.141674637794, -0.038967430592, -0.021113183349, -0.133129760623, 0.096200555563, 0.068316236138, 0.031644344330, -0.027937613428, 0.059621356428, -0.061081219465, 0.082469373941, 0.149447888136, 0.167622864246, 0.029991280288, -0.011074233800, -0.051831312478, -0.021576998755, -0.069937400520, 0.124713934958, 0.015505926684, -0.065853901207, 0.065537944436, 0.082821793854, -0.092636086047, 0.115458704531, 0.048533808440, 0.008666431531, 0.121618486941, -0.063122175634, -0.027764631435, -0.062966540456, -0.050125245005, 0.072233729064, -0.112650007010, -0.018387001008, 0.033623091877, 0.042577862740, -0.036776576191, 0.032587587833, -0.035629589111, 0.049203813076, 0.054339561611, 0.069649688900, -0.016108788550, -0.118219062686, 0.090827547014, -0.046488929540, -0.154414445162, -0.009253432043, -0.004831855651, 0.037395063788, -0.052232138813, -0.018399437889, -0.015710424632, 0.044991064817, 0.128900527954, -0.108965635300, -0.203329384327, -0.162510126829, -0.117879167199, 0.075607538223, -0.108089245856, 0.028023164719, -0.017661798745, 0.090172745287, -0.081634610891, -0.110350593925, -0.077523060143, -0.114693365991, 0.021119145676, 0.081825263798, -0.003321555909, 0.001642127405, -0.134995520115, -0.149486958981, -0.115928642452, 0.093418978155, -0.015240939334, 0.196179896593, 0.083738081157, -0.226570799947, -0.094876505435, -0.022716075182, 0.021839046851, -0.207598417997, -0.077006779611, 0.057894539088, -0.032180845737, 0.014546040446, 0.038654278964, 0.011867512949, 0.085923716426, -0.042281813920, 0.085343442857, -0.041064243764, -0.000994118745, 0.100813381374, -0.054591357708, 0.074864223599, 0.089275322855, -0.138473719358, 0.086915358901, 0.052583150566, -0.014021603391, -0.069713294506, 0.051032710820, 0.047940369695, -0.211042970419, 0.018671166152, 0.061729006469, 0.046584345400, 0.169414639473, -0.101169668138, 0.158466324210, -0.040999919176, 0.065197832882, -0.083434961736, 0.142801672220, -0.069111965597, 0.033882260323, -0.105716183782, 0.135096281767, -0.100008890033, -0.087634384632, -0.037948772311, -0.045035682619, 0.194507151842, -0.063857257366, 0.058272823691, -0.114201083779, 0.109120093286, 0.102686844766, 0.018700771034, 0.011665585451, -0.037129718810, -0.044899955392, -0.076316855848, 0.187776222825, -0.161099925637, -0.047336880118, 0.054068859667, -0.107908725739, 0.126297429204, 0.126624196768, 0.084951117635, 0.092608891428, -0.085815735161, -0.039537277073, -0.003968205303, -0.035775464028, -0.029525663704, -0.030503135175, -0.040612895042, 0.025614669546, -0.062254954129, -0.140227183700, 0.021171085536, 0.077224560082, -0.061203185469, 0.101887241006, 0.081825889647, 0.109798051417, -0.098214343190, 0.016546597704, -0.009162830189, 0.183495983481, -0.111043348908, -0.159707039595, -0.022047955543, 0.023143241182, 0.081289261580, -0.008118316531, 0.000037616184, 0.206704974174, -0.200921669602, 0.120327368379, 0.133615091443, 0.082487784326, -0.049490533769, 0.051324307919, 0.030700640753, 0.061933618039, -0.046718165278, 0.123121745884, -0.076840333641, -0.101331584156, -0.046028587967, -0.054680887610, -0.104120917618, 0.160933837295, -0.007701755501, -0.076661370695, 0.167633622885, 0.125402823091, -0.073170639575, 0.060998234898, 0.102534100413, 0.101987101138, -0.051258184016, 0.076295368373, -0.108035989106, -0.100330933928, 0.051856432110, 0.066845498979, -0.207100361586, 0.071127064526, 0.132763952017, 0.058918073773, -0.001650109538, -0.070830427110, 0.030519673601, -0.036848213524, -0.028269978240, 0.124943397939, 0.185600101948, 0.121786758304, 0.237429738045, -0.125795811415, -0.047383010387, 0.063504524529, 0.083307154477, 0.020194511861, 0.050928868353, -0.073112569749, -0.168079391122, -0.047610018402, -0.013988156803, -0.162218853831, 0.045759499073, 0.061904538423, -0.061082914472, 0.045615691692, 0.059888418764, -0.005861269310, 0.124282814562, 0.178947702050, -0.010194341652, 0.097488038242, -0.026446644217, 0.005008721724, -0.111191719770, 0.054232764989, -0.134086832404, -0.119506709278, 0.067331925035, -0.054973438382, 0.051543872803, 0.032185338438, -0.133657932281, -0.177614152431, 0.100060760975, -0.047709077597, 0.002420098754, 0.108411870897, -0.108411468565, 0.175654903054, 0.026570741087, -0.093168869615, -0.094465665519, -0.070197217166, -0.090377695858, -0.092696957290, -0.002409566892, 0.056900892407, -0.081085324287, 0.093678079545, 0.118445977569, 0.132433220744, -0.058078624308, 0.095165371895, -0.111031673849, -0.062724016607, 0.092091441154, 0.033047910780, -0.108771368861, 0.089389778674, 0.167105764151, 0.097130641341, 0.079532951117, 0.083079621196, 0.115568123758, 0.063042350113, -0.011494831182, 0.031980875880, 0.062565095723, 0.096469618380, -0.182797506452, 0.121992878616, -0.041961453855, 0.013276874088, 0.033880136907, -0.102328449488, -0.053903594613, -0.028955904767, 0.081414654851, 0.055578447878, 0.110491693020, 0.069629535079, 0.091167680919, 0.048464559019, 0.054821401834, -0.064505331218, -0.108080908656, -0.147145897150, 0.077018313110, -0.144908234477, 0.169210955501, -0.082338400185, -0.109453953803, -0.080302596092, -0.022953096777, 0.181134432554, -0.125748261809, 0.114381909370, 0.168961644173, -0.194581866264, -0.043646104634, -0.017150226980, -0.125968888402, -0.040847785771, 0.141381010413, 0.105729140341, -0.203357949853, 0.148879140615, 0.019200202078, 0.147202804685, 0.015492195264, -0.104671396315, 0.143147408962, 0.075782753527, -0.052070606500, -0.143277317286, 0.112255066633, 0.045721840113, 0.055553872138, -0.121370784938, 0.082753792405, -0.168773993850, -0.125306591392, -0.088943131268, 0.199753582478, 0.069417469203, 0.152277767658, -0.017391620204, -0.166534319520, -0.053312849253, 0.098579958081, -0.082517847419, 0.166378766298, -0.117803223431, 0.049940280616, -0.093155555427, 0.205796733499, -0.020630992949, -0.024802107364, -0.008909119293, -0.003671157872, -0.100863121450, -0.117932580411, -0.077450916171, 0.093928851187, -0.174737349153, 0.037782698870, 0.092775449157, 0.023504838347, 0.113892421126, 0.060891743749, 0.273848652840, 0.083704285324, 0.045437313616, -0.068782627583, 0.228739798069, -0.056233432144, -0.057076815516, 0.112301610410, 0.064066812396, 0.189384281635, 0.037653543055, 0.084669180214, -0.008219887502, -0.075097858906, -0.015207217075, -0.056772600859, -0.043456271291, 0.101772099733, 0.077822923660, 0.088196247816, -0.017384791747, 0.000175066438, -0.069812983274, -0.002994794399, -0.004839888308, -0.085991427302, -0.161739125848, 0.020899409428, 0.166762217879, -0.130944237113, -0.097265660763, 0.038825828582, -0.063288867474, -0.093225061893, -0.160204961896, -0.062629021704, -0.145260557532, -0.096334159374, 0.039388794452, 0.067572526634, -0.035762820393, 0.004144599196, 0.046091996133, -0.109839245677, 0.126826345921, 0.032827466726, -0.064900226891, 0.119580328465, -0.040333937854, -0.080658532679, 0.093808904290, 0.027664473280, -0.095392987132, -0.051184251904, 0.053506538272, -0.106275439262, 0.008919884451, 0.120066866279, 0.009313892573, -0.124233819544, 0.067741788924, 0.057799935341, -0.040548570454, -0.052597463131, 0.015855940059, 0.085011743009, -0.022599657997, 0.013323763385, 0.119420044124, -0.099955528975, 0.043470323086, 0.064817048609, 0.051284965128, -0.059600282460, -0.035356402397, -0.085171848536, -0.018619459122, -0.035550516099, 0.081479579210, 0.077949985862, 0.078059874475, -0.105949349701, -0.120645582676, -0.063438542187, 0.056593697518, -0.036329451948, -0.008052171208, -0.123128712177, -0.083329766989, 0.114347882569, 0.016557641327, 0.001974745654, 0.119317449629, -0.111878864467, -0.014442716725, -0.064389832318, -0.044856421649, -0.116614587605, 0.055107455701, -0.086030334234, -0.052632883191, 0.092457905412, 0.007377720904, -0.104931570590, 0.037270434201, -0.111852347851, -0.056623205543, -0.008639740758, 0.007986538112, 0.018769467250, -0.040863513947, 0.038387779146, -0.061892081052, -0.097811147571, 0.033084638417, 0.070603199303, -0.074454985559, -0.086896531284, 0.085308536887, -0.095781430602, 0.100739091635, -0.013841111213, 0.029876597226, -0.125135526061, 0.071743339300, -0.049333296716, 0.062431138009, -0.113911464810, 0.051664188504, -0.059358194470, 0.087812483311, -0.108705699444, 0.016300404444, 0.047101546079, -0.118811681867, 0.035592809319, 0.130072489381, -0.030627615750, 0.071676366031, -0.051732227206, -0.124953463674, 0.012618753128, -0.033283866942, -0.123376481235, 0.041978318244, 0.124293021858, -0.005245083477, 0.073255486786, 0.024372443557, -0.117535002530, -0.113956011832, 0.041271410882, -0.022814063355, 0.115321420133, 0.046738386154, 0.126665011048, 0.095282800496, -0.114859491587, -0.009379983880, -0.082391992211, 0.017698574811, 0.138816624880, 0.006433955394, -0.041697524488, -0.076664261520, -0.099703021348, 0.100432075560, 0.085730232298, 0.012861084193, -0.036875724792, -0.062520891428, 0.061536747962, -0.111119307578, 0.014273990877, -0.071890406311, 0.124230690300, 0.069410473108, -0.038079816848, 0.019628744572, 0.113858237863, 0.024793321267, 0.036937162280, 0.117413423955, 0.048357989639, -0.093111485243, 0.018946725875, -0.058287926018, 0.097412720323, 0.130560711026, 0.020633380860, -0.130416512489, -0.016643876210, 0.108078218997, 0.033964168280, -0.032063718885, -0.030248243362, 0.029401505366, 0.005272626877, -0.018278706819, 0.122320719063, 0.127208560705, -0.007356886752, -0.124925091863, -0.003562501166, 0.137784495950, 0.102943599224, 0.012670725584, -0.071573004127, 0.028179975227, -0.071789592505, 0.012017423287, -0.015568843111, -0.031675081700, -0.077135413885, -0.043208841234, 0.085719540715, -0.042888853699, -0.006031434983, 0.158071100712, 0.019513428211, -0.114674903452, -0.011802611873, 0.049011215568, 0.018478827551, 0.049278948456, 0.012980368920, 0.019424401224, 0.015307680704, -0.008255654946, -0.046279583126, -0.047519989312, 0.050422064960, -0.054040223360, 0.053062546998, 0.057535298169, 0.031161341816, -0.098401069641, -0.048445019871, -0.102982833982, 0.127835944295, 0.040769986808, -0.101182721555, -0.086053997278, -0.015899885446, 0.048865657300, -0.107876829803, 0.014763908461, 0.105106703937, 0.005127692129, 0.116449847817, -0.044971555471, 0.077047750354, 0.029261125252, 0.159380361438, 0.017631592229, 0.093082405627, 0.083649568260, -0.053686529398, 0.108051046729, -0.011049403809, 0.091251775622, 0.024207880720, -0.014039863832, 0.083944171667, -0.058395974338, -0.016928741708, -0.093696460128, -0.071328103542, 0.038012381643, -0.181499257684, -0.009174041450, -0.046517342329, -0.044734638184, -0.135311692953, 0.049169190228, 0.093916743994, 0.025235952809, -0.099319949746, 0.077085107565, 0.052518595010, -0.199002251029, 0.239050984383, 0.028511706740, -0.093420065939, 0.138087719679, 0.051238827407, 0.107078067958, 0.091079600155, 0.090610660613, -0.108014285564, -0.185240298510, -0.197158753872, 0.031365241855, -0.118128031492, -0.113019235432, -0.036766998470, 0.105682238936, 0.132185921073, 0.133870333433, -0.168794393539, 0.118307612836, 0.025319376960, -0.062068242580, -0.070936493576, -0.195527106524, 0.142082676291, -0.257377088070, 0.075659997761, -0.063193343580, -0.051576297730, -0.101750098169, 0.007849996909, -0.103852808475, -0.231077089906, -0.055893052369, -0.052942484617, -0.037964951247, -0.131913200021, -0.193152979016, 0.008638431318, 0.020488757640, 0.013381935656, 0.039816606790, 0.103988483548, -0.058383945376, 0.071236789227, -0.083259828389, -0.000854370999, -0.004847728647, 0.036366928369, -0.071492858231, 0.127179056406, -0.020313195884, -0.141048118472, -0.010362882167, 0.066008470953, 0.146243438125, 0.106610566378, -0.088914923370, -0.094453081489, 0.064507782459, -0.014021259733, -0.097346320748, 0.084438808262, 0.028821550310, -0.053427848965, -0.122573345900, 0.146896362305, 0.102826513350, 0.096110604703, 0.142207950354, 0.005788786337, -0.121647000313, -0.102095983922, -0.097831644118, 0.015116533265, 0.047660823911, 0.055960793048, -0.097838163376, 0.072517193854, -0.195703789592, -0.146267503500, -0.253564715385, 0.098705016077, 0.074500620365, -0.030193673447, 0.164590165019, -0.223966211081, -0.006659688894, 0.052125144750, -0.096193857491, 0.141928762197, -0.062843568623, 0.012988289818, 0.003435381223, -0.031855966896, 0.074796572328, -0.092981614172, 0.051737200469, -0.189155712724, 0.062387570739, 0.031614087522, 0.111111134291, 0.090929619968, -0.139647424221, 0.084707595408, -0.058464113623, 0.187017738819, -0.160577028990, -0.082183919847, 0.057944931090, -0.139638096094, -0.058125600219, 0.038633186370, -0.011019552127, 0.113755121827, 0.018040120602, 0.067184284329, 0.167077854276, 0.003187228460, -0.013082674704, 0.064925611019, 0.103198155761, -0.017416723073, -0.028778653592, 0.036099754274, -0.032232474536, 0.047592863441, -0.012368978001, -0.051507290453, -0.006438263692, -0.020434001461, 0.040705572814, -0.043448273093, 0.060399319977, 0.011106965132, -0.200079590082, 0.003053478431, 0.001235485193, 0.077104337513, -0.106030508876, 0.047124680132, -0.124116316438, 0.022353896871, 0.133012652397, 0.032423712313, 0.078395314515, -0.096021085978, 0.047549810261, -0.091765359044, 0.072493374348, -0.070478133857, 0.100254341960, 0.070795543492, 0.028533749282, -0.008556819521, -0.116128534079, 0.071157701313, 0.244639933109, 0.069886110723, -0.219717830420, 0.034389447421, 0.033071268350, 0.009107166901, -0.076596423984, -0.171265199780, 0.072370626032, 0.183222904801, 0.050768569112, 0.033341143280, 0.173642247915, 0.019756294787, 0.090990461409, -0.056237325072, -0.092631176114, -0.067794755101, 0.046507656574, -0.069184496999, 0.013364773244, -0.024670880288, -0.095344178379, 0.173496842384, 0.051948796958, -0.026804903522, -0.150650516152, 0.090262383223, 0.102409482002, 0.088267587125, -0.114098072052, 0.096408605576, -0.072991147637, 0.020793294534, 0.071603842080, -0.099741555750, -0.038577541709, 0.040577240288, 0.002808337798, -0.044256057590, 0.090066298842, 0.039944767952, 0.111005380750, 0.122578471899, 0.128821238875, 0.056396991014, 0.098167389631, 0.139743074775, -0.147799313068, 0.162427738309, -0.165501639247, 0.012290159240, 0.044679243118, 0.025150028989, 0.142383486032, -0.094636969268, -0.026397451758, -0.100444972515, -0.102463491261, -0.114551581442, 0.021908776835, 0.070105306804, 0.006814971101, 0.053880237043, 0.089038923383, 0.020865740255, -0.095499329269, 0.006637975574, -0.035621799529, -0.166264399886, -0.094522312284, 0.021976662800, -0.012881487608, -0.045665770769, -0.122146613896, 0.084588378668, -0.005389644299, -0.106490865350, -0.049857515842, -0.030827153474, -0.108060181141, -0.053823005408, -0.062756024301, -0.042145431042, 0.054261878133, 0.116413377225, 0.047164525837, 0.144577711821, -0.054964840412, -0.001984469127, -0.087097227573, -0.031006637961, -0.105845339596, -0.017279364169, -0.007503406610, 0.091031439602, 0.003709876910, -0.119377955794, 0.127455353737, -0.148576885462, 0.076153814793, -0.157809883356, -0.118957757950, 0.089694865048, -0.014664757065, 0.126521766186, -0.024403117597, -0.056019522250, 0.051146909595, 0.022545166314, 0.138069167733, -0.051542345434, 0.109034940600, 0.078196041286, 0.039395429194, -0.003724469570, -0.006170018576, -0.064297191799, -0.064035736024, 0.018481612206, -0.039415895939, -0.091986916959, 0.101537346840, 0.056809395552, 0.007557106204, 0.124078616500, 0.058158427477, 0.081616677344, 0.022781051695, 0.129266858101, 0.123088359833, 0.059208858758, 0.160037055612, 0.116712465882, 0.030963853002, 0.056041412055, 0.079834528267, 0.063681215048, -0.112743191421, -0.082690440118, -0.092770382762, -0.017802707851, -0.040456846356, 0.011963739991, 0.166241496801, 0.069876313210, 0.006917083636, -0.066322460771, 0.036164585501, 0.010632971302, -0.062263932079, -0.047877293080, 0.001302437158, 0.115676209331, 0.074661299586, -0.023952146992, 0.059954158962, -0.125593319535, -0.113921478391, 0.022767039016, 0.091634608805, -0.014823631383, -0.063310615718, -0.077728711069, 0.023838199675, -0.012333205901, -0.000775636348, -0.097893111408, -0.085165530443, -0.055807072669, 0.024249680340, 0.074156470597, 0.002436822979, 0.136171594262, -0.055633191019, -0.004599526059, 0.046790275723, -0.122028239071, 0.059126928449, 0.078452758491, -0.015863921493, -0.017611557618, 0.037015683949, -0.051594100893, -0.037509974092, -0.053526744246, -0.033232674003, 0.048082310706, -0.033414699137, 0.104742072523, 0.069240599871, 0.102055713534, -0.130403965712, 0.000028701455, -0.047180064023, -0.152153000236, -0.085771873593, 0.049711432308, 0.075847618282, -0.002382330829, 0.051355022937, 0.078212060034, -0.033483907580, -0.118917942047, 0.005815025419, 0.001388443983, 0.093470267951, 0.033300042152, -0.054865442216, -0.053126871586, -0.005009768531, -0.085513591766, -0.070435300469, 0.056696519256, -0.009249212220, -0.120138540864, -0.057070706040, 0.023260764778, -0.016756953672, 0.098317869008, 0.050337240100, -0.084111064672, -0.120316736400, -0.101913094521, 0.058529097587, -0.012736076489, -0.141084879637, -0.060356557369, -0.151483088732, -0.010133612901, 0.018583666533, -0.116276726127, -0.114133827388, -0.121905051172, -0.127722099423, 0.025060351938, 0.055165886879, 0.074113458395, -0.023542471230, 0.005028767511, -0.111674748361, 0.100272290409, 0.061032649130, -0.025711473078, -0.091954059899, 0.170792207122, 0.049970664084, -0.059885829687, 0.109781399369, -0.056276131421, 0.024378821254, -0.079556174576, -0.010738688521, 0.121627710760, 0.000507440651, 0.152344435453, -0.158563762903, -0.029395597056, -0.005410321057, 0.006186386570, 0.037659272552, 0.060578733683, -0.064453266561, 0.118739947677, -0.064440116286, 0.022007100284, 0.107153363526, -0.061673313379, 0.060648065060, -0.112417414784, -0.084046594799, 0.121436119080, -0.066155724227, 0.042872574180, 0.054936669767, -0.153513059020, -0.076756723225, 0.121148325503, 0.021384838969, 0.051386814564, -0.096007652581, -0.070375345647, 0.009806144051, 0.043059278280, -0.099667072296, 0.030812431127, -0.228771865368, -0.120409838855, 0.003309474094, 0.045939024538, 0.032926071435, 0.081310980022, -0.060175418854, 0.038596473634, 0.073544107378, -0.031614456326, 0.049729742110, 0.089823335409, -0.028542822227, 0.097580201924, 0.048538643867, -0.081684052944, -0.091215595603, 0.093788102269, -0.200808525085, 0.069474346936, 0.028883375227, 0.157028272748, -0.020456593484, -0.015805097297, -0.174786210060, -0.038597807288, 0.079352453351, -0.058417327702, 0.097232177854, 0.064940132201, -0.042836099863, -0.020025819540, 0.058107089251, 0.111709721386, -0.044141922146, -0.024087579921, 0.101228669286, -0.029202587903, -0.017313327640, 0.013523552567, -0.220582008362, -0.092284671962, -0.015862556174, 0.034697767347, 0.167585954070, 0.095219247043, -0.133876636624, -0.011085495353, -0.054811883718, 0.022841265425, 0.051450546831, -0.127848505974, -0.160540476441, 0.043313920498, 0.032421555370, -0.032543033361, 0.011541184038, -0.016585826874, -0.177127718925, -0.029410703108, 0.163879185915, -0.064487144351, 0.133244618773, 0.002719405340, 0.150549203157, -0.021231813356, 0.061244245619, -0.145943820477, 0.020472453907, 0.168476462364, 0.001936591230, -0.199017599225, 0.003368165810, -0.000982811791, 0.318026453257, 0.256610006094, -0.194485083222, -0.018842788413, 0.003218624275, -0.049765557051, -0.094486422837, 0.000337636273, -0.004510683473, 0.140855118632, -0.034938398749, 0.193890511990, 0.192052260041, 0.078416846693, 0.005178112537, 0.225327640772, 0.002504134551, 0.047417186201, 0.208105340600, -0.057954650372, -0.096812076867, 0.136582762003, 0.139522835612, 0.283198386431, 0.074427336454, -0.001203208347, -0.144845098257, 0.010538251139, -0.018329041079, -0.094609983265, 0.143615946174, -0.118305303156, 0.066382594407, -0.128587722778, 0.042681999505, -0.043733008206, -0.042468741536, 0.038676969707, 0.111681729555, 0.035562351346, -0.037881135941, -0.131563857198, 0.036225739866, 0.245290026069, -0.075351670384, 0.084283582866, -0.168617963791, 0.128962829709, -0.003363168333, 0.161241382360, -0.165828004479, 0.015615235083, 0.106073386967, -0.031209032983, -0.042718939483, -0.032160822302, 0.044186796993, 0.079340241849, -0.029302306473, -0.056575693190, 0.045596975833, 0.114958114922, -0.093964345753, -0.126190423965, -0.139332622290, -0.006748639513, 0.103358410299, 0.092125050724, -0.121559038758, -0.088405326009, 0.078766085207, 0.018698124215, 0.005015332717, 0.107825033367, -0.110865779221, -0.017204601318, 0.186731740832, 0.118570879102, -0.051589772105, 0.055767308921, -0.058931589127, -0.138465404510, 0.093974180520, 0.030916931108, -0.022743452340, 0.054901849478, 0.170624986291, 0.021094543859, 0.238640546799, -0.012395082973, 0.159119993448, -0.079622142017, -0.013417095877, -0.006999732461, -0.052625805140, 0.092278331518, 0.046203624457, 0.156257808208, -0.048402503133, -0.091942749918, 0.077611252666, -0.105926349759, -0.025217747316, 0.053505301476, -0.212416201830, -0.029721882194, 0.088761374354, 0.252365469933, -0.060847256333, 0.012829001993, 0.053934719414, -0.035000834614, 0.098391123116, -0.155088186264, -0.076071530581, 0.188497304916, 0.077927015722, -0.070133447647, 0.000965195824, -0.007380087860, -0.004952007439, 0.066741816700, -0.032394967973, 0.054964270443, -0.013918943703, -0.055413443595, -0.168216168880, -0.005409276579, -0.062124941498, 0.034152079374, -0.100105829537, -0.108038976789, -0.071525841951, 0.008474585600, 0.103125080466, 0.089929334819, 0.107347704470, -0.020815320313, 0.057007137686, -0.073990702629, -0.071030050516, 0.005460161716, -0.083070531487, -0.028252366930, -0.030645212159, -0.109589874744, 0.037686791271, -0.175767228007, 0.098131164908, 0.067634180188, 0.199001565576, 0.131122931838, 0.112726375461, -0.063897415996, 0.013241984881, -0.109841354191, -0.121256612241, -0.008423948660, -0.003724444192, -0.061330042779, -0.052180260420, -0.057835284621, -0.019677370787, 0.055039282888, -0.055730693042, -0.091217756271, 0.098613061011, 0.205179631710, 0.205374091864, 0.142548084259, 0.007758610416, 0.139527291059, -0.014637271874, -0.094978824258, 0.116413369775, -0.015962863341, -0.075117163360, -0.231222540140, -0.082048624754, 0.000903160020, 0.213550135493, 0.097640030086, 0.091850720346, -0.046713687479, 0.074432887137, 0.095437698066, 0.137217596173, -0.106023058295, -0.096389845014, -0.038901440799, 0.053239956498, 0.130763888359, -0.012549660169, -0.104061506689, 0.061992853880, -0.004294282757, 0.033174186945, -0.058293420821, 0.004836801905, -0.040673166513, 0.045894332230, -0.009766740724, -0.059498187155, -0.010026760399, -0.101391687989, -0.122184097767, -0.128271982074, -0.083989657462, -0.094924166799, -0.068590544164, -0.013990554959, -0.118862815201, 0.119861952960, -0.048805017024, -0.072691574693, 0.094006240368, -0.041520603001, -0.003152406076, -0.183027550578, 0.004451026209, 0.099860571325, -0.088409557939, 0.112392731011, -0.000119342680, -0.184973016381, -0.055741772056, 0.107158735394, -0.117345578969, -0.094017021358, 0.024455687031, 0.027795713395, -0.092558115721, 0.078804127872, 0.003270878922, 0.049203772098, -0.114232763648, -0.104191154242, -0.094583138824, 0.169495120645, 0.106672316790, 0.111827805638, -0.028712596744, 0.031478561461, 0.110064536333, 0.021785013378, -0.026130849496, -0.084610454738, -0.041016191244, -0.041793312877, -0.070435665548, -0.067996785045, -0.027498915792, 0.045165583491, 0.121434167027, 0.003660896095, -0.087415933609, 0.002726601902, -0.052235987037, 0.060871329159, -0.023933053017, -0.153410583735, -0.018987158313, 0.029794093221, 0.021760078147, 0.111831851304, 0.034561846405, -0.054201819003, -0.068047448993, 0.003062250558, -0.041620969772, 0.113713979721, 0.048886839300, -0.059756308794, 0.070674017072, 0.004883128684, -0.042762272060, 0.072472490370, 0.207610413432, -0.031431157142, 0.026175150648, 0.040929339826, 0.064424246550, -0.000994274043, 0.068092457950, 0.098520271480, -0.104573771358, -0.119254566729, -0.094437062740, -0.050805661827, -0.156068325043, -0.090323351324, 0.023985052481, -0.097746454179, 0.111925616860, 0.053507018834, 0.104161486030, -0.085016980767, -0.028307905421, 0.127216517925, 0.079581886530, -0.094543039799, -0.044504549354, -0.021219652146, -0.003857443575, -0.112110182643, 0.070561021566, 0.083771727979, 0.024910753593, -0.034984283149, 0.102693147957, 0.024968748912, 0.123208709061, 0.003654745175, 0.066427089274, 0.089913815260, 0.072669617832, -0.029831167310, -0.034717384726, 0.002082591178, 0.104593195021, -0.122606642544, -0.080677792430, -0.099676489830, -0.095372803509, -0.009609308094, 0.169642001390, -0.014447372407, 0.057875800878, -0.146002829075, -0.133688747883, 0.132787823677, -0.060883216560, 0.145301625133, 0.139840617776, -0.103979840875, 0.028076192364, 0.016603983939, -0.112479835749, -0.030595600605, -0.024095652625, 0.019162390381, 0.023921554908, -0.106495745480, -0.010007881559, 0.109718024731, -0.048454530537, 0.131746158004, -0.018301945180, 0.034652728587, 0.011312814429, 0.059729762375, 0.112093001604, 0.054119996727, 0.110629893839, -0.093046076596, -0.102031007409, 0.023297917098, -0.059339269996, -0.062979303300, -0.031956464052, 0.178058654070, -0.032336421311, -0.083489611745, 0.204231157899, -0.076204858720, -0.035927239805, -0.075491413474, -0.142886012793, -0.023008743301, -0.129505440593, 0.016361633316, 0.167455822229, -0.031239544973, 0.019882673398, 0.080586969852, -0.116463109851, 