//Numpy array shape (120, 84)
//Min -0.384562790394
//Max 0.362323045731
//Number of zeros 0

weight_default_t w6[10080] = {0.055698182434, 0.113322034478, -0.149677559733, 0.062385942787, -0.081485398114, -0.133351862431, 0.243467092514, 0.114830605686, -0.092887438834, -0.124481707811, -0.053911916912, -0.024060366675, 0.137221768498, 0.066501922905, -0.124041520059, -0.149424061179, -0.113965749741, -0.073326207697, 0.141839534044, 0.077770248055, -0.031350336969, 0.152534469962, 0.089164242148, 0.167236432433, -0.097948849201, 0.001374065643, 0.193415775895, -0.044821020216, -0.038158595562, 0.061831176281, -0.085860744119, -0.177600696683, -0.015253460966, 0.143130406737, 0.195822209120, 0.171990171075, -0.111927948892, 0.028130726889, 0.198992997408, -0.085014432669, 0.076975114644, -0.038499929011, -0.019639242440, -0.022476468235, -0.025583863258, 0.191607892513, 0.060137599707, 0.084074117243, 0.151931822300, 0.109522484243, -0.055525202304, -0.160810813308, 0.074883282185, -0.105155386031, -0.067275092006, 0.110634602606, 0.046312995255, -0.089463241398, 0.136959478259, 0.214990422130, 0.108990654349, 0.125683724880, -0.099048644304, 0.028882663697, 0.081358909607, -0.185507506132, -0.034496266395, 0.226295754313, 0.110612139106, 0.138697981834, 0.128014519811, 0.155871197581, 0.017753217369, 0.123001918197, 0.139091581106, -0.111999541521, -0.141914233565, -0.106756098568, 0.142353311181, 0.166291326284, 0.116434693336, -0.104035474360, 0.044789258391, -0.055513907224, -0.012901981361, 0.096024818718, -0.098654218018, 0.086467690766, 0.045366503298, 0.054983556271, -0.196629092097, -0.197485163808, 0.101168580353, -0.104200713336, 0.084393516183, -0.187483638525, -0.007420128677, 0.099564477801, 0.115188546479, -0.159855917096, 0.113673374057, 0.107522614300, -0.226443320513, 0.105182528496, 0.199564039707, 0.133295401931, -0.030872385949, -0.014841453172, 0.125060677528, 0.137664660811, 0.137313276529, -0.103247530758, -0.018411967903, 0.020080959424, 0.016357652843, -0.181322857738, -0.158909395337, -0.107941195369, -0.155365139246, -0.129163026810, -0.086609594524, 0.087480671704, -0.123969532549, 0.068932510912, -0.088971614838, -0.073538810015, 0.144814729691, -0.134013667703, 0.218670234084, 0.162907153368, 0.069521032274, 0.110248476267, 0.167693838477, -0.207605898380, -0.012335065752, 0.104266010225, 0.036899566650, -0.109433837235, 0.171180278063, 0.029186995700, -0.043572477996, -0.151795625687, 0.099780566990, -0.124275684357, -0.104151949286, 0.095155715942, 0.123282939196, 0.172906517982, -0.106272593141, 0.152148157358, -0.112928040326, 0.175282314420, -0.162618771195, -0.053957644850, 0.119563840330, -0.111600138247, -0.069982603192, -0.140860795975, 0.135832116008, 0.039652168751, 0.093293912709, 0.056783389300, 0.119119301438, 0.110529191792, 0.106123186648, 0.148654744029, 0.022737022489, 0.013111052103, -0.167531982064, -0.024228679016, -0.006567327306, -0.132978454232, -0.219586670399, -0.044457703829, -0.066876113415, -0.036596167833, -0.145773440599, 0.164052039385, 0.117388173938, 0.204148754478, -0.117505230010, 0.058956220746, 0.078486107290, -0.104480132461, -0.047065421939, 0.003232798073, 0.000312454184, -0.075589194894, -0.162444844842, 0.122072644532, -0.247389391065, -0.054114691913, -0.076534584165, -0.112818390131, -0.099172599614, 0.122691780329, 0.141558140516, -0.172145366669, -0.007198441774, 0.184812650084, -0.114313907921, 0.146278619766, 0.168975234032, -0.047809250653, -0.046037971973, 0.050856944174, -0.238618075848, 0.058689113706, -0.036866117269, 0.038256734610, 0.104206517339, -0.122889362276, -0.177801147103, -0.177101150155, -0.125833854079, 0.044395405799, -0.099292054772, 0.076528161764, -0.112771563232, -0.113867342472, -0.076313674450, -0.127720311284, -0.026966800913, -0.042161930352, -0.154917731881, 0.105620592833, -0.144392848015, -0.111194714904, -0.251552939415, -0.086708359420, -0.186666399240, -0.242683589458, -0.143241822720, -0.154155716300, -0.011493368074, -0.059051401913, -0.027788331732, 0.032582916319, 0.155109629035, -0.156907945871, 0.023249659687, -0.038868859410, -0.023122873157, -0.040050148964, -0.194476142526, 0.178725406528, 0.065594054759, -0.035999961197, 0.129493102431, -0.000699876051, 0.167035624385, 0.168149709702, -0.163113653660, -0.129638314247, 0.238180756569, 0.082474820316, -0.094762355089, -0.006456186995, 0.094877578318, 0.109226375818, -0.134029567242, -0.092796169221, -0.138210475445, 0.104575850070, 0.051070094109, 0.003481829306, 0.051434312016, 0.119414813817, 0.024852626026, -0.065244443715, -0.028014630079, 0.114096380770, -0.179351076484, -0.135342881083, -0.178338617086, -0.005035149865, 0.159276008606, 0.008704634383, -0.205960959196, -0.107226260006, 0.143840715289, 0.019230587408, -0.151653483510, 0.106386169791, 0.023627087474, 0.000593108183, 0.072531536222, 0.220813080668, -0.133762583137, 0.191708505154, -0.197514891624, 0.145401105285, 0.154167190194, -0.063656099141, -0.182367026806, -0.018766768277, 0.150621667504, 0.004517277237, -0.074441909790, -0.039549071342, 0.261916428804, 0.156708940864, 0.059455107898, 0.056261528283, -0.131481856108, 0.123610109091, -0.009227890521, 0.139970719814, -0.118440993130, 0.135296434164, 0.029066098854, 0.112984746695, 0.122824653983, -0.094224326313, 0.110982790589, -0.049692332745, 0.105146475136, -0.039988614619, -0.189684703946, 0.100975386798, 0.015093725175, 0.005114595406, -0.118627190590, 0.047971934080, 0.158297002316, 0.005514297634, 0.051735885441, 0.108819417655, -0.087894231081, 0.030562547967, -0.055272851139, -0.156138509512, 0.056973081082, -0.207031413913, -0.081210717559, 0.184582889080, 0.063489027321, -0.149786844850, 0.097512274981, -0.142238706350, -0.050901200622, 0.037320844829, 0.194703876972, -0.050528738648, -0.089559324086, 0.079607218504, 0.130553647876, 0.155434936285, -0.064454570413, -0.000685747771, 0.138206794858, 0.109917096794, -0.060870382935, 0.084063105285, -0.180820420384, -0.114673025906, 0.126127511263, 0.169337913394, 0.156945273280, -0.018279138952, -0.146051019430, -0.223857000470, 0.047795809805, 0.039397418499, 0.181789621711, 0.124515317380, 0.152222484350, 0.021205702797, -0.006971990690, -0.090220615268, -0.014943270013, -0.060346674174, -0.043520208448, 0.147543743253, -0.019886763766, 0.062768377364, -0.166385859251, -0.012760786340, -0.196434408426, -0.196979716420, -0.147775292397, 0.094759777188, -0.054265651852, -0.147983327508, -0.069215394557, 0.170755907893, -0.072494447231, -0.159769132733, -0.110897868872, 0.105820439756, -0.185281708837, 0.090339966118, -0.229828506708, -0.084793090820, -0.097568862140, 0.078764736652, 0.094370238483, -0.128113791347, -0.149191424251, -0.002494065324, 0.151238456368, -0.067670732737, 0.039215408266, 0.055591393262, 0.118557363749, -0.009902935475, 0.102127768099, 0.246212884784, 0.140144973993, -0.152911692858, 0.035385027528, 0.086805179715, -0.084712177515, -0.027885833755, 0.098645932972, 0.169783338904, 0.000271014549, 0.148055300117, -0.129314109683, 0.002933430020, 0.052754085511, -0.117921270430, -0.098751962185, 0.009199749678, -0.121983692050, 0.025194987655, 0.025398811325, 0.030760888010, -0.079375810921, 0.050816629082, 0.097317866981, -0.169607132673, -0.000183251715, -0.098709985614, 0.153908938169, -0.125917464495, 0.175416678190, 0.217860966921, -0.002089791698, 0.043055661023, 0.159392878413, -0.065750166774, -0.072505712509, 0.066669583321, -0.108589760959, -0.191529378295, 0.130327016115, 0.084445923567, 0.068092890084, -0.058669410646, 0.068776972592, 0.197055011988, 0.095928110182, 0.107940599322, -0.039625663310, 0.027430633083, 0.073948942125, -0.172837197781, -0.106923148036, 0.207589820027, -0.124460875988, -0.015041190200, -0.155232757330, 0.144270554185, 0.036861542612, 0.015123060904, 0.037708792835, -0.119681157172, -0.155777752399, -0.055265601724, -0.057792987674, -0.036793142557, 0.108065225184, 0.226206645370, 0.054717369378, -0.057098682970, 0.140623122454, -0.004121088888, 0.106282100081, -0.067657962441, -0.089572891593, 0.083264313638, -0.046077474952, 0.006471579429, -0.045144721866, 0.145572140813, 0.069967970252, -0.108923830092, 0.188253507018, 0.033893845975, -0.150163352489, -0.053200393915, -0.076510138810, 0.081722266972, 0.147942766547, -0.107967525721, 0.099064387381, 0.062193088233, 0.198636740446, 0.020708320662, 0.148402452469, 0.051328994334, 0.046608231962, -0.075174234807, -0.059499055147, 0.171894416213, -0.174175724387, 0.171781316400, 0.093717373908, -0.133022174239, 0.053204327822, -0.049913331866, -0.090445011854, 0.073766976595, -0.009331269190, 0.072710081935, 0.019328281283, 0.005307644606, 0.158550769091, -0.074760764837, -0.069410204887, 0.172966390848, 0.188001409173, 0.190941572189, 0.056028846651, 0.118837840855, 0.053792405874, -0.029673092067, -0.170887500048, -0.110085673630, -0.126096382737, 0.042593285441, -0.156312793493, 0.039376787841, -0.000976269075, 0.119079686701, 0.095187030733, -0.269652009010, 0.059658683836, -0.128711670637, 0.166929617524, -0.079282246530, -0.060231599957, 0.148171842098, -0.228447377682, 0.003969458863, 0.028331276029, 0.125122815371, -0.065068669617, -0.048057105392, 0.056970633566, 0.019222522154, 0.132640972733, 0.028081331402, -0.006912176963, 0.019252015278, -0.106989435852, 0.165379792452, 0.084140650928, 0.094248205423, -0.083407804370, 0.137260511518, 0.127912402153, 0.162262827158, 0.013589833863, -0.025820424780, 0.021210912615, -0.031722646207, -0.066605783999, 0.044978782535, -0.221132293344, -0.169755697250, 0.126613453031, -0.223017320037, -0.022375626490, 0.178430438042, -0.115584932268, 0.223646447062, 0.082999758422, 0.149169832468, -0.024402180687, 0.117012955248, -0.046204514802, -0.015834020451, 0.203757435083, 0.137026548386, 0.121884107590, -0.126251220703, -0.076107628644, -0.050114501268, 0.101484730840, -0.155359134078, -0.074366807938, -0.145583033562, -0.120952673256, -0.052326142788, 0.122784703970, 0.158615306020, -0.187543228269, 0.052189983428, 0.138795495033, 0.178647264838, -0.006818169262, 0.091573759913, 0.119887501001, 0.273818850517, -0.022137099877, 0.010844307952, 0.194937720895, 0.076614096761, 0.084243707359, -0.195997297764, 0.142684474587, -0.033123131841, 0.073240846395, 0.094034895301, 0.041681516916, 0.001795270713, -0.013552537188, -0.064791016281, -0.228756323457, -0.218194961548, 0.054050453007, 0.111777245998, 0.030428905040, 0.080814465880, -0.151969075203, -0.054543767124, -0.187040507793, 0.177241370082, 0.233642011881, -0.063615918159, -0.201703771949, 0.072973087430, -0.086726278067, -0.132324159145, -0.158404424787, -0.062080889940, -0.026430595666, -0.105553142726, -0.213667154312, 0.032065447420, 0.064832955599, 0.190253406763, 0.012731553987, -0.157516926527, 0.014422039501, -0.172959908843, 0.194029331207, -0.152078866959, 0.233182206750, -0.125327751040, -0.144000664353, -0.164543494582, -0.141800284386, 0.043466318399, 0.102991983294, 0.150818273425, -0.149890944362, -0.103741407394, -0.045007940382, -0.112012013793, -0.123083390296, 0.064724653959, 0.118810161948, -0.106789611280, 0.160198733211, 0.014031249098, 0.035902626812, 0.277300477028, 0.157555133104, -0.098515771329, -0.124177575111, 0.084478430450, -0.096019387245, 0.123931199312, 0.020343462005, 0.013983275741, -0.105662085116, -0.009141575545, 0.107123315334, 0.159302443266, -0.017299687490, 0.170702680945, 0.224650502205, -0.000511257036, 0.127963528037, -0.084012620151, 0.012744704261, 0.118810407817, -0.092783950269, 0.015397612937, -0.205154761672, -0.041156612337, -0.075117908418, 0.028279386461, -0.129247039557, -0.158741474152, -0.037137180567, 0.076242767274, 0.103368155658, 0.110291093588, 0.008372564800, -0.064884632826, 0.047130100429, -0.052066285163, -0.038944918662, 0.015205301344, -0.113991782069, -0.013328672387, 0.059013038874, 0.005452142563, 0.144383266568, 0.056292481720, 0.007501245942, -0.140432581306, -0.071181781590, -0.137732371688, 0.015791131184, -0.097942367196, -0.177651882172, 0.091467842460, -0.156137987971, -0.028753872961, 0.080831021070, 0.172261118889, -0.194556817412, 0.188860490918, 0.217713624239, 0.016627017409, -0.056712977588, -0.072180762887, -0.134588837624, 0.006906992756, -0.235200628638, -0.112180538476, 0.075172170997, -0.031248686835, -0.197423174977, 0.109860308468, -0.057023592293, 0.190295889974, -0.034408278763, -0.104608066380, -0.081585817039, 0.161207273602, -0.158473014832, 0.126324653625, 0.054167799652, -0.101688332856, -0.039947338402, 0.014062587172, -0.052527572960, -0.015073996037, -0.053639233112, 0.121782705188, 0.150551304221, -0.241629257798, -0.137534648180, -0.069191150367, -0.023174816743, -0.125573173165, -0.024771515280, 0.079740710557, 0.079373247921, 0.161213219166, 0.062586069107, 0.009816833772, 0.094858713448, 0.082908123732, 0.135457947850, 0.016860142350, 0.201160699129, 0.079661168158, 0.031370487064, -0.009334069677, 0.082511641085, -0.157137364149, -0.092211462557, -0.001943809097, 0.023297760636, 0.008982668631, 0.221583932638, 0.092788487673, 0.068936973810, 0.008679254912, 0.073810704052, -0.080646172166, 0.018227072433, -0.123304575682, 0.108218006790, 0.086137667298, 0.165019229054, -0.236705869436, 0.150107413530, 0.013436065055, -0.030666977167, -0.168442741036, -0.219357982278, 0.094109408557, 0.307347625494, 0.087554506958, -0.094856880605, -0.079399086535, -0.038588412106, 0.058998651803, 0.082368582487, -0.146276056767, 0.214643761516, 0.185160502791, 0.111672289670, -0.108326882124, -0.128559380770, -0.158566817641, 0.231061652303, 0.041637726128, -0.004689908121, 0.172293201089, -0.072791062295, 0.215333387256, -0.017100896686, 0.045782011002, 0.193333134055, 0.213569402695, 0.064627982676, 0.007862630300, 0.062178228050, -0.109376937151, 0.113462485373, -0.035900313407, 0.029458675534, 0.008339708671, 0.094403758645, -0.197517901659, 0.050027877092, 0.075903877616, -0.012292207219, -0.013184199110, 0.071448139846, -0.078965693712, 0.110042586923, -0.007547643967, -0.112217061222, 0.025941494852, -0.077065221965, -0.144928678870, 0.127114415169, 0.200686112046, 0.362323045731, 0.004104801454, -0.085714645684, 0.188399121165, -0.055380038917, 0.131224408746, 0.221457228065, -0.086135096848, -0.170310229063, 0.153252750635, -0.049081940204, -0.112613148987, 0.044386532158, 0.008692367934, -0.152107551694, 0.182097062469, -0.012719135731, 0.186022013426, 0.010001558810, -0.118508294225, -0.100295476615, 0.042117502540, -0.083584472537, 0.081526495516, -0.074960976839, -0.049205623567, 0.035752862692, 0.088578350842, -0.001090477570, -0.159572124481, -0.188474580646, 0.054207764566, -0.083535693586, -0.018046643585, 0.035634581000, -0.057297583669, -0.124753370881, -0.098624974489, -0.150769606233, 0.020577492192, -0.140579745173, 0.111687883735, -0.043261803687, -0.009912786074, -0.187418565154, -0.016009572893, 0.062714770436, -0.091725021601, -0.103350229561, 0.131962135434, -0.015464304946, 0.075467169285, 0.017044015229, 0.007312159985, -0.013007374480, -0.213579237461, -0.116927236319, 0.053324308246, 0.022573681548, 0.233819469810, 0.016042079777, -0.052022513002, 0.049395468086, 0.040843389928, -0.051363438368, 0.061949927360, -0.156370848417, -0.182569101453, 0.164949133992, 0.132504582405, -0.030395641923, -0.138798981905, 0.190679684281, -0.118558712304, 0.092562571168, -0.061266325414, 0.197717651725, -0.129125177860, -0.002102567116, -0.083637177944, -0.146533206105, 0.114212147892, -0.060213431716, 0.135174512863, 0.163450181484, 0.002186535159, 0.079978615046, 0.215543165803, -0.019242985174, 0.030382037163, 0.188291147351, 0.092619262636, -0.050966642797, 0.036613933742, 0.212300255895, 0.006321397610, -0.085581444204, 0.182086125016, 0.141048088670, -0.088068351150, -0.057465422899, -0.110972248018, -0.023265883327, -0.134112492204, 0.067486383021, -0.177801996469, -0.095761403441, 0.019421789795, 0.238110378385, 0.113701641560, -0.082411728799, 0.067383930087, -0.033592805266, 0.013822624460, 0.020797293633, 0.214170634747, 0.019816121086, 0.048038065434, -0.001258867094, 0.218205019832, 0.227653861046, 0.034725058824, 0.021966701373, 0.069148197770, -0.219643622637, -0.126145347953, -0.328011065722, 0.088094592094, -0.006399820093, 0.287916988134, -0.180686429143, 0.043643254787, 0.195713177323, -0.053190220147, 0.215687155724, 0.072489202023, -0.030874654651, 0.161567479372, -0.031391311437, 0.093447357416, 0.126440107822, -0.018892871216, -0.041119128466, 0.156252577901, 0.012049858458, -0.059840064496, 0.139488488436, 0.022679023445, 0.019466280937, 0.004004963674, -0.039873808622, 0.000609267503, -0.071498714387, 0.082275711000, -0.080699890852, -0.201468288898, -0.154252514243, 0.039015229791, 0.092983469367, -0.166470766068, 0.030044825748, 0.060109008104, -0.028634544462, 0.077323935926, 0.085119187832, -0.162572935224, 0.134764090180, -0.036598868668, -0.149512991309, -0.165322870016, 0.107522070408, -0.010728414170, -0.083157137036, 0.048427883536, 0.140371158719, 0.161186650395, 0.109631799161, 0.016700915992, -0.126917958260, -0.040407091379, 0.002404770814, -0.091512858868, -0.056488141418, -0.048468310386, 0.011652790941, -0.054962370545, -0.045458748937, -0.020527265966, -0.116353191435, 0.156542614102, 0.069358982146, 0.081628270447, -0.134165078402, 0.087834618986, -0.047643508762, -0.004697327036, 0.145420581102, 0.041134845465, 0.164339691401, 0.076255410910, -0.066963501275, 0.163601651788, -0.032706450671, -0.094089165330, 0.056150030345, 0.055904321373, 0.098943486810, -0.050333973020, 0.053628362715, -0.065115682781, 0.011534359306, 0.021686216816, 0.100866742432, -0.163124710321, 0.115007422864, -0.019934149459, -0.136380001903, 0.065080851316, -0.087565451860, -0.109355963767, 0.046845946461, 0.125047519803, -0.175121739507, -0.025163998827, 0.068512082100, -0.059197101742, 0.148876354098, -0.100439935923, 0.114931806922, -0.113602362573, -0.065574072301, 0.128519862890, -0.080679737031, 0.094756573439, 0.009756304324, 0.169565349817, 0.022571820766, -0.064439825714, 0.130465671420, 0.032344080508, 0.097892098129, -0.023645153269, 0.053265281022, 0.042735669762, 0.081525899470, -0.154398053885, -0.019462436438, 0.030886493623, 0.041031751782, -0.157412439585, 0.143536090851, 0.094318002462, -0.032559886575, 0.060538288206, -0.105954386294, 0.035796441138, 0.096895292401, 0.070779927075, 0.004071838688, 0.163852527738, -0.164994463325, 0.013197684661, -0.095492355525, 0.046351596713, 0.047676596791, -0.051972009242, 0.127177804708, 0.114156655967, -0.038631573319, 0.074613198638, -0.162667781115, 0.013277726248, 0.157619372010, 0.096446715295, 0.047907959670, 0.059907268733, 0.047084059566, 0.081068918109, -0.141444489360, -0.134498253465, -0.088142879307, -0.057127930224, 0.085390560329, -0.080058507621, 0.021109391004, -0.148587852716, 0.008717430755, -0.054509505630, -0.017144821584, -0.124881595373, 0.035343300551, 0.079547926784, 0.139802724123, -0.167287558317, -0.150174394250, 0.149462684989, -0.017789592966, -0.116503819823, 0.076997689903, 0.003558605909, 0.163224205375, -0.028537074104, 0.113869994879, -0.096321694553, 0.087322153151, 0.061697397381, -0.001418071566, -0.046065818518, -0.015897007659, -0.104133948684, 0.111689805984, 0.038258731365, -0.088891416788, 0.165568932891, 0.041817635298, 0.074511602521, -0.152649700642, 0.076427996159, -0.079384364188, 0.060316529125, 0.104660682380, -0.122908025980, 0.020444422960, 0.061914682388, 0.159758448601, -0.119384407997, 0.025374846533, -0.020219976082, -0.098769485950, 0.243723407388, -0.083495005965, -0.097984775901, -0.058802034706, 0.122893080115, -0.089514486492, -0.050955884159, -0.001069522696, -0.047278575599, 0.092548958957, -0.235353827477, -0.074017696083, -0.088002704084, -0.063938342035, -0.158688798547, 0.114766746759, -0.028340151533, -0.217024445534, 0.027150236070, 0.137992784381, 0.115988567472, -0.116280384362, 0.058762550354, -0.056522335857, 0.087084911764, -0.017195004970, 0.008185087703, 0.019397631288, -0.065992861986, -0.050280246884, 0.140944778919, 0.084670357406, 0.015179491602, 0.001655054861, 0.029807168990, 0.104895107448, -0.216943264008, -0.166143670678, -0.138805240393, 0.081968061626, 0.040400251746, 0.138190627098, 0.006306424737, 0.102690093219, 0.020408621058, 0.174244716763, 0.161554411054, 0.062043108046, -0.151122689247, 0.161014765501, -0.170918136835, 0.163004174829, 0.040900357068, 0.148542657495, -0.109594404697, 0.055872075260, -0.032755844295, 0.119485124946, 0.062508024275, 0.054381214082, -0.002550123492, -0.046730246395, -0.113874740899, 0.010512423702, 0.134603485465, -0.107258521020, 0.174312457442, 0.035310816020, 0.042290478945, 0.013845986687, 0.197431713343, 0.155842870474, 0.185497462749, 0.069046966732, -0.007667637896, 0.044059772044, 0.098310060799, 0.183370292187, -0.215878695250, 0.000452157052, 0.146415382624, -0.273538559675, 0.051724437624, -0.048701319844, 0.175553455949, 0.045684006065, 0.128912299871, 0.149375721812, 0.156376421452, -0.037422001362, -0.227278351784, 0.032535672188, 0.039436195046, 0.193503394723, -0.140503883362, 0.020804759115, 0.118636667728, 0.055493995547, -0.072403810918, -0.053648758680, -0.084988676012, -0.082496091723, -0.003441357054, 0.173169255257, 0.079254008830, 0.148783847690, -0.115795329213, 0.073991477489, 0.039448477328, -0.154677599669, 0.035419899970, -0.000676936063, -0.059379871935, 0.018592622131, -0.046183984727, 0.160168096423, 0.042348425835, -0.222018554807, -0.113712362945, 0.025318054482, -0.181306153536, 0.126336038113, 0.044404156506, -0.071540325880, -0.033624049276, -0.046318244189, 0.162103757262, -0.004496179987, -0.050818420947, -0.080102078617, 0.001835093950, 0.206660211086, -0.189067438245, -0.202257439494, -0.072528220713, -0.145227745175, 0.115884892642, -0.083246968687, 0.070843271911, -0.000459486910, 0.153753891587, 0.116818755865, -0.102595485747, -0.014592641965, -0.046328749508, 0.034848559648, 0.306791484356, -0.117868453264, -0.017419746146, -0.190636828542, 0.032317485660, -0.057532940060, 0.027662675828, -0.187620237470, -0.130569905043, 0.038282744586, 0.152558892965, 0.193890586495, 0.190174788237, 0.157736614347, 0.136211901903, -0.106555797160, 0.120717741549, -0.001936479588, -0.134839802980, -0.166301369667, 0.103562004864, -0.184906035662, -0.085011422634, 0.001099170069, 0.040062595159, 0.076847858727, 0.129266411066, -0.018108468503, -0.086259700358, 0.205064579844, -0.006456768606, 0.170260906219, 0.197823628783, -0.138087689877, 0.027083609253, -0.100915022194, 0.018136950210, -0.119537182152, 0.138738438487, -0.221324160695, 0.034544274211, -0.127714410424, -0.028946433216, 0.099146418273, -0.064850494266, 0.162788048387, -0.068955227733, 0.127468928695, 0.047577220947, -0.057700265199, -0.172877579927, -0.003828202840, 0.051556412131, 0.191722258925, -0.101698853076, 0.008564646356, 0.085764393210, -0.094751864672, 0.177974581718, -0.148815289140, 0.107526160777, 0.077410779893, -0.009635585360, 0.044104341418, -0.107474036515, 0.033072594553, 0.217447146773, -0.095946788788, -0.123515717685, 0.096681043506, -0.067236132920, -0.060944203287, -0.123074412346, -0.042724065483, -0.058895874768, 0.173221156001, 0.045732755214, -0.177988901734, 0.012931012549, -0.074159316719, 0.007421908434, -0.081093646586, -0.111111082137, -0.091017805040, -0.109668672085, 0.161968857050, -0.032106690109, 0.139305070043, 0.153768435121, -0.230372220278, 0.062013965100, -0.068375639617, 0.128337115049, -0.015958368778, 0.051152527332, 0.111554883420, -0.003090711776, 0.160295009613, -0.104357875884, 0.023473184556, -0.214759379625, 0.187613666058, 0.156957551837, -0.153873980045, 0.062029540539, 0.026098130271, -0.034047305584, 0.044933337718, 0.092627383769, 0.172295033932, -0.163680940866, 0.155099704862, -0.009856054559, 0.123891122639, -0.148113578558, -0.049238406122, -0.119341641665, 0.125893890858, -0.012544574216, 0.031859677285, 0.004130458925, 0.070357710123, 0.173883736134, 0.026188885793, -0.259121835232, -0.086147531867, 0.179868385196, 0.038040712476, 0.067680202425, -0.035345986485, 0.179959058762, 0.010018545203, -0.002674637828, -0.200859978795, -0.081087931991, 0.175420448184, 0.074507705867, 0.015491416678, -0.043087840080, 0.228464066982, 0.069889150560, 0.237217351794, 0.219570130110, 0.003713990096, 0.089341349900, 0.137262344360, -0.018471805379, -0.063040621579, 0.150283619761, 0.077904209495, -0.170033499599, -0.058804459870, -0.182849973440, -0.061370339245, 0.057954862714, 0.264034062624, 0.075228653848, -0.177517816424, 0.134506553411, 0.190886378288, -0.013214432634, 0.125951722264, 0.078217625618, -0.032038111240, 0.014826058410, 0.023128464818, 0.229526534677, 0.295354723930, 0.126319617033, 0.082143127918, -0.106800585985, 0.061477262527, 0.000828958931, 0.155833259225, 0.007705377415, -0.175278276205, -0.017349213362, 0.106574520469, 0.009580780752, 0.039621129632, -0.068512722850, -0.097035177052, -0.067251294851, 0.197831898928, 0.007823938504, -0.112098030746, 0.093639835715, -0.088527940214, -0.053134147078, -0.089550420642, -0.217619255185, 0.123043984175, -0.004478003830, -0.055194012821, 0.162413328886, -0.229639723897, -0.081687889993, 0.054526872933, -0.130728751421, 0.014400163665, 0.028362842277, 0.142798349261, -0.039276368916, 0.042468201369, -0.147193670273, -0.226169541478, -0.084873944521, -0.192072346807, 0.119056180120, -0.064019136131, -0.051612716168, -0.068772263825, -0.193351596594, 0.098559692502, 0.073482640088, -0.104132570326, 0.011983077973, 0.137454777956, 0.231896042824, -0.080144576728, 0.050586275756, -0.142125740647, -0.007157894317, 0.052273496985, -0.117037780583, -0.077422827482, 0.168005555868, -0.008564050309, -0.079352229834, -0.113806053996, 0.079156607389, 0.150337323546, 0.052973981947, -0.033409085125, 0.132594153285, -0.145033702254, 0.124336056411, 0.016720537096, 0.071397379041, -0.165000244975, -0.029021853581, -0.135583534837, -0.195484131575, 0.135642647743, -0.171506136656, -0.177026867867, -0.021654477343, -0.091209031641, -0.146819382906, 0.226233631372, 0.021271714941, 0.163335472345, -0.000562600209, 0.068784952164, 0.075010918081, -0.095073595643, 0.200038567185, -0.128135189414, -0.160975337029, 0.108035884798, 0.137047871947, 0.116412639618, -0.085699819028, 0.116821900010, 0.092835687101, -0.029994096607, 0.048013746738, 0.050740949810, 0.238005295396, -0.116028591990, 0.161804050207, 0.192442983389, 0.186256915331, -0.088298834860, -0.000586547889, 0.082999616861, 0.068217515945, 0.209672927856, -0.161409646273, -0.142177402973, 0.080014228821, 0.036572929472, -0.021436637267, -0.025297924876, 0.212753683329, 0.198092594743, -0.050093520433, -0.028378788382, -0.020375989377, -0.055634953082, -0.206363335252, 0.076468028128, -0.005829984322, 0.026365676895, -0.016225522384, -0.002667140681, -0.128172069788, -0.002590804361, -0.024773269892, 0.145875841379, -0.011400088668, -0.117066949606, 0.110633730888, -0.186884075403, 0.069946989417, -0.124529629946, -0.041708312929, 0.142005831003, 0.119258597493, 0.051869913936, 0.133471772075, 0.189519256353, 0.046672005206, 0.095290631056, -0.070986866951, -0.153768569231, 0.168799847364, 0.162518456578, 0.030864797533, -0.116092734039, 0.166613951325, -0.064372226596, 0.189648345113, -0.068292066455, 0.168617203832, -0.050294298679, 0.096357978880, -0.019395343959, -0.114048101008, 0.096842139959, 0.060620944947, 0.054003186524, -0.047926679254, 0.204945430160, -0.010916669853, 0.203734681010, -0.004348087590, -0.123606197536, -0.129538342357, -0.152255594730, 0.186504781246, 0.151284739375, -0.198281630874, -0.113125771284, -0.049699116498, 0.012556702830, -0.211478427052, -0.017820587382, -0.073364987969, -0.084032639861, -0.057158626616, -0.091970942914, -0.005624176003, -0.132202968001, -0.040927659720, -0.001656199689, -0.098890483379, -0.007519331761, -0.072593674064, -0.122385568917, 0.088141046464, -0.119516029954, -0.065580718219, -0.132457345724, 0.020489556715, 0.175917506218, 0.050002269447, -0.005351935048, -0.153114646673, -0.056271385401, 0.072524115443, -0.027353471145, -0.084593005478, 0.002148863394, -0.138329505920, 0.095821611583, -0.176079422235, 0.090006493032, -0.070383280516, 0.137905746698, 0.099852986634, 0.063037849963, 0.098152957857, -0.157936051488, -0.085314497352, -0.057054098696, 0.083914466202, 0.012811822817, -0.005089065526, -0.015023344196, -0.031928095967, 0.182049468160, -0.169720888138, 0.134021297097, -0.139647617936, 0.036428090185, -0.096344880760, -0.135849446058, -0.050147019327, -0.153607115149, 0.152846381068, 0.111678391695, -0.006107806228, 0.099825590849, 0.080133028328, -0.109099783003, -0.122395828366, -0.096754558384, -0.139133751392, -0.061257664114, 0.027297822759, -0.084465332329, 0.143268674612, -0.039642345160, 0.028799902648, -0.098488546908, 0.152538090944, 0.005037944764, -0.142657339573, -0.054048597813, 0.159445405006, 0.093769602478, 0.081571348011, 0.094654239714, 0.130661115050, -0.063740864396, 0.134685903788, 0.061533570290, 0.130698084831, -0.017399659380, -0.069265820086, -0.133512288332, -0.034813083708, 0.137988373637, -0.106885224581, 0.188654124737, -0.104943692684, -0.153353169560, -0.027491999790, 0.117197275162, -0.058277867734, -0.021509384736, -0.146243512630, 0.036234609783, 0.093453325331, 0.071568220854, -0.090623155236, -0.037560354918, 0.062310911715, 0.039870418608, 0.096887893975, 0.029907174408, -0.076774336398, -0.086664743721, 0.092373624444, -0.100507304072, 0.113482996821, 0.092469774187, 0.012664462440, -0.053036998957, -0.119041547179, 0.093896873295, 0.091055586934, 0.138363108039, -0.140073269606, -0.039450317621, -0.130930542946, 0.022411525249, 0.064776599407, -0.129929840565, -0.005496259313, 0.012917244807, 0.141603231430, 0.102667547762, -0.031337816268, 0.139208585024, -0.079449608922, -0.069937586784, -0.071783870459, -0.142693117261, -0.073607772589, -0.162755429745, -0.085584923625, -0.066628776491, -0.035276472569, 0.083738304675, 0.056442730129, 0.128529265523, -0.068901121616, 0.092911526561, -0.072639957070, 0.080915004015, -0.023244544864, 0.020305186510, 0.037502732128, -0.154293641448, -0.050921063870, -0.050320990384, -0.089261420071, 0.153465881944, 0.045415706933, -0.038091830909, 0.047972604632, 0.062407616526, -0.057026721537, -0.089774481952, -0.095546551049, 0.097470186651, 0.075047269464, -0.040222391486, 0.032777391374, 0.067393101752, 0.010860295966, 0.054052527994, -0.066559225321, -0.000259920838, 0.030729914084, 0.071670651436, -0.100559666753, 0.015123239718, 0.139062955976, -0.102068543434, -0.001852200250, -0.071942679584, 0.074612542987, -0.004340026993, -0.016801906750, -0.024351540953, 0.104704059660, 0.182008072734, 0.026074625552, -0.078530035913, 0.141851812601, 0.020472975448, -0.096129499376, 0.024288909510, -0.095707170665, -0.183996841311, 0.154854118824, 0.127516761422, 0.013782682829, -0.187730550766, 0.088701285422, 0.023376019672, -0.000214432366, 0.171136587858, -0.056106649339, 0.076388582587, -0.273759007454, 0.005802997388, 0.155980661511, -0.050831168890, 0.053957961500, 0.153362542391, -0.079797223210, 0.066756710410, -0.049502588809, -0.068801566958, 0.007567184046, -0.124240100384, 0.072025790811, 0.066219888628, -0.143828496337, -0.131535917521, 0.080307468772, 0.055872008204, -0.002420296893, 0.028850961477, -0.097068168223, -0.115601122379, 0.021323123947, -0.104823701084, -0.101488508284, -0.079816699028, -0.082122899592, -0.089122191072, -0.246778160334, -0.134222984314, 0.254772067070, 0.104284942150, 0.058053977787, 0.062317319214, 0.048091642559, 0.023005556315, -0.155896410346, 0.027460370213, -0.101766780019, 0.091646820307, 0.069073878229, -0.134134784341, -0.125854626298, -0.019214672968, 0.195361867547, -0.211716577411, -0.069576770067, 0.059093430638, 0.088959477842, -0.127722635865, -0.148966789246, -0.000129302032, 0.031254008412, 0.042302399874, 0.124259106815, -0.116803079844, -0.017538843676, 0.068292759359, 0.133159339428, 0.132779687643, 0.072724446654, 0.062509328127, 0.140770450234, -0.147617712617, 0.021414475515, 0.167408332229, -0.125687137246, -0.061399228871, 0.107687756419, 0.142333984375, 0.048630062491, 0.133117571473, 0.052944857627, 0.135202527046, -0.080807060003, -0.136613234878, -0.023806387559, -0.095409058034, 0.003859792138, -0.180610224605, 0.013459679671, -0.040294665843, 0.087455011904, 0.122320741415, -0.045218117535, -0.158124610782, 0.016757478938, -0.089184068143, -0.085263155401, -0.203641578555, -0.114046812057, 0.007320288103, -0.115512393415, -0.102960437536, 0.026492986828, -0.125800818205, -0.141428872943, 0.050113085657, 0.160591542721, -0.146495580673, 0.091962225735, 0.164285644889, -0.068042866886, -0.082793138921, 0.053263489157, -0.123974159360, 0.092584848404, -0.019869461656, 0.034811571240, 0.151388004422, 0.178145781159, 0.139666929841, -0.166963219643, 0.143764600158, 0.051761582494, 0.175579518080, -0.109992220998, -0.056150116026, -0.118110902607, 0.038652461022, 0.076122157276, 0.110165201128, 0.091135434806, 0.113765463233, 0.114270247519, 0.160099864006, -0.030496049672, 0.048787258565, -0.157589614391, 0.114525221288, -0.074575088918, 0.047223594040, -0.102142170072, -0.067874372005, -0.025882260874, -0.074448071420, -0.035036619753, -0.180576726794, 0.025737391785, -0.074747614563, 0.068611286581, 0.124674923718, -0.059737209231, -0.049939356744, -0.117623947561, 0.130582317710, -0.046715129167, 0.001419414766, 0.027259755880, 0.053937241435, 0.104705147445, -0.123963929713, -0.028634488583, 0.117918677628, -0.019818674773, 0.056847032160, -0.030862992629, 0.022539034486, 0.161862492561, 0.085021823645, -0.147363707423, 0.028842970729, -0.227006345987, 0.102918662131, 0.153698369861, 0.105963595212, -0.072783693671, -0.001917225425, 0.161748006940, 0.154729709029, 0.110040672123, 0.228382617235, 0.094996504486, 0.167258679867, 0.216427385807, -0.176676064730, -0.058426871896, -0.090553097427, -0.129349097610, 0.010251691565, 0.158430695534, -0.000492770574, -0.051278486848, 0.170230165124, 0.210706293583, 0.114397794008, -0.191415458918, -0.078191995621, 0.131643578410, 0.021497540176, -0.129969552159, 0.026023680344, 0.145356982946, -0.043425038457, 0.220043897629, -0.186417579651, -0.059606719762, 0.161574468017, -0.025855734944, -0.102875687182, 0.023592198268, -0.069303266704, -0.143607169390, -0.004193695262, -0.013651880436, -0.056409422308, -0.141524791718, 0.219861090183, -0.125829622149, 0.010211780667, 0.140775904059, -0.153757199645, 0.198072880507, -0.093084186316, -0.162632137537, 0.039739441127, -0.081193886697, 0.091220386326, -0.035240173340, -0.082720130682, 0.111527398229, 0.022279327735, 0.106205053627, 0.047822330147, -0.007578039542, -0.058335818350, 0.086952358484, 0.188704252243, 0.003880860284, 0.126345306635, -0.276213079691, -0.015922812745, -0.052440144122, 0.118655622005, -0.103669263422, -0.057900249958, -0.182199373841, -0.001997977495, 0.163232892752, -0.027731936425, 0.122742891312, -0.187783822417, 0.031170135364, -0.088898114860, 0.125773459673, -0.137533321977, 0.140195891261, -0.063862808049, 0.008816642687, 0.095204010606, 0.018703171983, -0.062252197415, -0.099846661091, -0.161356642842, 0.104212231934, -0.057731296867, 0.131516903639, 0.223623558879, -0.030190194026, 0.176443085074, 0.020237989724, 0.060954499990, -0.095651574433, -0.067801646888, 0.062426038086, -0.009478848428, -0.024246454239, 0.049168564379, 0.104571208358, 0.080140359700, 0.023746507242, 0.054709747434, -0.115252874792, 0.153829574585, -0.106627300382, -0.096240155399, -0.063332587481, 0.056903239340, 0.159136503935, -0.048918016255, -0.062059007585, 0.121229603887, 0.128116577864, -0.139345303178, -0.206617906690, 0.054605238140, 0.228499412537, 0.157884597778, -0.122514575720, -0.009180860594, -0.144337758422, -0.065805241466, 0.255645990372, 0.069312222302, -0.028639087453, 0.006786658429, 0.148002192378, -0.106978401542, 0.038416214287, 0.120423868299, -0.168832033873, -0.140040427446, -0.138546511531, 0.176054447889, 0.228519752622, -0.086971372366, 0.185497075319, -0.267104655504, 0.203516647220, 0.123481988907, 0.012430761009, 0.044203624129, 0.061503108591, -0.011478638276, 0.099634900689, 0.142014905810, -0.174019932747, 0.030077302828, -0.063561096787, 0.015154852532, -0.081470482051, 0.197238728404, 0.213155567646, -0.003988668323, 0.124782904983, 0.081752158701, 0.024258308113, -0.081120669842, -0.081683486700, -0.098976805806, -0.017725486308, 0.181479901075, -0.235857889056, -0.070027053356, -0.142255187035, 0.188912644982, 0.017189627513, 0.072675473988, 0.228633582592, 0.175031378865, -0.167441725731, 0.072096399963, -0.045819677413, 0.137408256531, -0.033261563629, -0.026422448456, 0.089991934597, -0.101579032838, 0.029756374657, -0.006365264300, 0.096847072244, 0.096739165485, 0.147227808833, -0.005677564535, -0.019704747945, -0.161275818944, 0.162714064121, 0.042990233749, 0.130738824606, -0.060843728483, -0.165579408407, -0.075135178864, 0.167370513082, 0.165759578347, -0.132992193103, -0.155625313520, 0.112853728235, 0.130233943462, 0.095408454537, 0.021029539406, 0.125144377351, -0.020203689113, -0.124927230179, -0.001266106381, -0.014210430905, 0.129850387573, 0.157174542546, 0.036814723164, -0.135959640145, -0.025819042698, -0.068923100829, 0.016777969897, -0.058644760400, -0.108784735203, 0.059106066823, 0.144917413592, -0.063884519041, 0.199919790030, -0.159933045506, -0.037770722061, 0.098333060741, 0.123471952975, -0.066738307476, 0.039825905114, -0.081387370825, 0.175092503428, -0.171429574490, 0.011498838663, -0.206372126937, -0.081144273281, -0.051262095571, 0.053810372949, -0.014914128929, -0.127130150795, 0.068502783775, 0.261991202831, -0.141675099730, -0.098967261612, -0.010745909996, 0.122198723257, -0.145808205009, -0.057180106640, 0.068185135722, -0.015897691250, -0.052389614284, 0.224878281355, -0.073514170945, -0.119480513036, 0.029963428155, -0.246243178844, -0.131693661213, -0.114529080689, 0.131142467260, 0.141266480088, -0.150842174888, -0.041498869658, 0.049074564129, 0.055461466312, 0.102220565081, 0.119858331978, 0.120798110962, 0.152897179127, 0.227812603116, -0.015449856408, -0.145266249776, 0.151412054896, -0.093897089362, 0.159972742200, 0.152309209108, -0.181467369199, -0.005594764836, -0.044197950512, 0.071031421423, 0.071557916701, 0.146429777145, 0.068050451577, 0.042329050601, -0.169349789619, 0.112776950002, 0.173439681530, -0.001283580787, -0.018839266151, 0.088544405997, -0.018710408360, 0.064425677061, -0.089525125921, -0.124988146126, -0.148746460676, -0.064392842352, -0.216003105044, 0.051547124982, -0.128508120775, -0.020299995318, 0.116461805999, 0.044109277427, 0.029639460146, 0.201241672039, -0.069867014885, 0.003382843686, 0.086762025952, -0.009149985388, -0.149090960622, -0.013996605761, 0.154705196619, -0.045557145029, 0.096482753754, -0.221862733364, 0.126491814852, -0.039753776044, 0.077444411814, 0.172124400735, -0.180652782321, -0.104887738824, -0.109740026295, -0.146127238870, -0.023971343413, -0.039011087269, 0.102193869650, 0.011657533236, -0.101342156529, 0.089083187282, 0.154527559876, -0.122481472790, 0.060450896621, -0.116310104728, 0.053364783525, -0.147278249264, 0.064027398825, -0.196239784360, -0.005328868981, -0.018910070881, 0.026501765475, 0.005487930495, 0.094289220870, -0.105577878654, -0.147409021854, 0.041937112808, -0.107545554638, -0.089815869927, 0.137785419822, 0.006344258785, 0.133398815989, 0.078719355166, 0.086909078062, 0.125899434090, -0.159170523286, 0.078849874437, 0.005219263025, 0.039851993322, 0.069928675890, -0.124045513570, -0.034168783575, 0.211662784219, -0.115730710328, -0.013988550752, 0.170686244965, 0.116158813238, -0.101614668965, -0.006548386998, 0.008624447510, -0.217162296176, -0.188561558723, -0.092130236328, 0.110528416932, -0.078070357442, 0.133268252015, 0.115421913564, 0.192933604121, -0.036452699453, 0.273958355188, 0.112604878843, -0.102743364871, 0.105772778392, -0.175688132644, 0.087385199964, -0.004319119733, 0.026696689427, -0.016108326614, 0.120669201016, -0.153634354472, 0.016507375985, -0.117504529655, 0.115639112890, -0.093475833535, -0.014188110828, -0.136428028345, -0.089767023921, -0.033359393477, -0.001711324905, 0.134071201086, -0.027238324285, 0.202948883176, -0.093511492014, 0.149131253362, -0.054081562907, -0.036268591881, -0.098600707948, 0.029728753492, -0.082924090326, -0.086603760719, 0.142291978002, 0.087917044759, 0.116783671081, 0.125023424625, -0.074855983257, -0.131436988711, 0.037252325565, 0.141862481833, 0.142017856240, -0.165153399110, 0.068944394588, 0.131781354547, 0.139087900519, -0.024927504361, 0.009664209560, 0.156042188406, -0.046214058995, -0.063485346735, -0.029603492469, 0.046681795269, 0.008116111159, -0.066536113620, -0.163119047880, -0.120261594653, -0.005908131134, 0.164614722133, -0.128811925650, -0.021797990426, -0.145269602537, -0.088860519230, 0.115733057261, 0.072157166898, 0.059831976891, 0.107652500272, -0.154280573130, -0.166554227471, -0.067089512944, -0.035800516605, -0.136212080717, -0.035244241357, -0.062041603029, 0.027284165844, 0.100219264627, -0.038722395897, -0.144068166614, -0.163100317121, 0.000226208518, 0.107397660613, 0.051837954670, -0.044555105269, -0.140685990453, 0.082296557724, 0.103473700583, 0.143066033721, -0.058948218822, -0.134183317423, -0.050282735378, 0.092816814780, 0.020605016500, -0.125712022185, -0.163874328136, 0.047690872103, -0.101060420275, -0.053379230201, 0.000114852257, -0.002429544926, 0.030848678201, 0.109994202852, 0.125535011292, -0.134211361408, 0.112213648856, -0.056486528367, -0.099111422896, 0.075707793236, -0.126735016704, -0.154874369502, 0.065694317222, 0.096766911447, -0.081812448800, -0.028510730714, -0.125199303031, -0.162815928459, 0.128453373909, 0.007073550019, 0.139597803354, -0.021300636232, 0.049605909735, 0.016044573858, -0.056805826724, 0.131789743900, -0.019670447335, -0.106160603464, -0.067481040955, -0.020284296945, 0.041175540537, -0.035137776285, -0.171033114195, 0.057947311550, 0.055889699608, 0.144906103611, -0.092090077698, -0.005034921691, -0.048924840987, -0.116926118731, 0.070460990071, 0.160974815488, 0.018794354051, -0.087315537035, 0.068532109261, 0.026228325441, 0.125465244055, 0.063165068626, 0.045030478388, 0.158383458853, 0.087437123060, -0.089839525521, 0.159342706203, -0.015211000107, -0.011279194616, 0.096814922988, -0.124459587038, -0.154704913497, 0.151388779283, 0.067478708923, 0.159751862288, 0.145729452372, 0.106391854584, 0.124578021467, 0.035036597401, -0.111745372415, -0.093176349998, 0.057795040309, -0.192866042256, 0.145033165812, -0.141938924789, 0.033617015928, -0.055698972195, -0.143499359488, 0.136853784323, -0.046051695943, 0.026625689119, 0.018877742812, -0.162867218256, 0.064004465938, -0.000719784584, -0.055289972574, -0.128175348043, -0.144764676690, 0.026204513386, 0.021752102301, 0.132322058082, -0.075438924134, -0.148506313562, 0.086634658277, -0.147977471352, -0.158936753869, -0.095670305192, -0.040491860360, 0.085458651185, 0.146194666624, -0.028063811362, -0.050063867122, -0.042908143252, 0.128130450845, -0.077436409891, 0.036961127073, 0.081665858626, -0.135518833995, 0.017232334241, -0.217655479908, 0.052880652249, 0.016132153571, -0.131263017654, -0.007022529840, -0.007708054502, -0.146744668484, -0.032926328480, -0.092359319329, -0.109840385616, 0.013497587293, 0.189376249909, -0.039234399796, 0.125449150801, -0.084061644971, -0.017397029325, 0.148180633783, -0.050505910069, -0.124151103199, -0.059828773141, 0.105952985585, 0.025175079703, 0.040017634630, 0.096446827054, -0.135175392032, 0.048576515168, -0.219691708684, -0.051703214645, -0.097607888281, 0.137682870030, -0.023216703907, -0.051923304796, -0.004039020278, 0.204544752836, -0.043088778853, 0.148013815284, 0.186414614320, -0.086346596479, 0.110444821417, 0.082970805466, -0.127279177308, 0.031865652651, 0.037587150931, 0.090444095433, 0.072595871985, -0.229761168361, -0.218629673123, 0.151086315513, 0.040816869587, 0.066492572427, 0.063667975366, 0.080066315830, -0.081827782094, -0.012153229676, 0.142085909843, 0.064749561250, 0.138621389866, 0.154438436031, 0.044705182314, -0.058556877077, -0.201747000217, 0.157955184579, 0.069309547544, 0.012130249292, 0.040913086385, -0.161256760359, -0.114189945161, 0.002420469420, 0.031354740262, -0.079025529325, 0.173061281443, 0.144277572632, -0.028212783858, 0.087611593306, 0.209257200360, 0.118930831552, 0.028282303363, 0.007756442763, 0.064214825630, 0.020100016147, 0.039532482624, -0.077310696244, -0.087816722691, 0.116734474897, -0.186297714710, 0.039302106947, -0.009527200833, -0.144457444549, 0.070299029350, 0.033276725560, -0.096234180033, 0.137489259243, -0.122104883194, -0.133483171463, 0.081571258605, 0.024158969522, -0.071090966463, -0.061758544296, 0.136328190565, -0.032121211290, 0.066843792796, -0.023383019492, 0.108187310398, 0.176357746124, 0.198204383254, -0.103326119483, -0.050142075866, 0.142226830125, -0.020117500797, -0.187261596322, 0.105598025024, 0.035717431456, 0.035333979875, -0.089850150049, 0.090645283461, 0.067915610969, 0.028048211709, -0.143641561270, 0.077739126980, 0.145090430975, 0.170631214976, -0.067495010793, 0.152233630419, 0.015295595862, 0.107400484383, -0.033626690507, 0.179843708873, 0.069691449404, 0.113185122609, -0.115598112345, -0.123924747109, -0.106605105102, 0.277606248856, 0.127800717950, -0.015822740272, -0.187219530344, -0.075302749872, 0.035330567509, 0.229147270322, -0.154548794031, -0.069289460778, 0.055860232562, 0.138755187392, 0.087580531836, -0.172260075808, 0.157004863024, 0.090122535825, 0.107629634440, 0.001132917474, 0.143084406853, 0.120524741709, 0.084497399628, 0.000172749278, -0.054820183665, -0.118673689663, -0.007590671070, 0.140936151147, 0.132369488478, 0.047162137926, -0.189184144139, 0.030971270055, 0.181608587503, 0.154394179583, -0.060625988990, -0.119401484728, -0.025492392480, 0.058023687452, 0.089885659516, 0.095823161304, -0.043290652335, -0.100457310677, 0.084712289274, -0.063117317855, -0.028217410669, -0.177976831794, -0.212700575590, 0.293167263269, 0.032325070351, -0.039641436189, -0.122788630426, -0.086165547371, 0.135203927755, 0.032782830298, 0.005447992124, 0.085266500711, 0.145855084062, 0.134469047189, -0.029641943052, 0.049584552646, 0.131593555212, 0.187632024288, -0.247880160809, -0.019112063572, -0.000497326895, 0.048390187323, 0.007998240180, -0.082930289209, -0.029567301273, -0.090321362019, -0.228728577495, 0.182479307055, 0.162732779980, -0.119223982096, -0.026578914374, -0.071299068630, 0.002187174046, 0.041842214763, -0.081461593509, -0.080866359174, -0.108740165830, -0.095443964005, 0.121880836785, -0.086351439357, 0.022332772613, 0.082862623036, 0.192404702306, -0.068405523896, 0.000494780485, 0.120810441673, 0.120672442019, 0.064151130617, 0.131804272532, -0.205287441611, -0.048154707998, -0.100429184735, -0.055509109050, -0.031783241779, -0.048129431903, 0.115323193371, 0.272185236216, 0.124095886946, -0.037443500012, 0.004917044193, -0.114826321602, 0.067362949252, 0.098880961537, -0.055135406554, 0.123383745551, -0.130184769630, -0.182301089168, 0.119478777051, 0.032211210579, -0.181915536523, -0.020899783820, -0.086526528001, -0.088501706719, -0.008854979649, -0.114846281707, 0.185919061303, 0.083230905235, 0.003511818592, 0.075881145895, -0.228800162673, 0.044157113880, -0.024652156979, 0.029659848660, 0.092936091125, 0.168903186917, 0.007776823826, 0.120536006987, 0.143145442009, 0.166058406234, 0.051526341587, 0.032072763890, -0.052621569484, -0.099342890084, -0.095204547048, -0.109332159162, -0.153587102890, 0.090034760535, 0.076241217554, -0.126773059368, -0.141296103597, -0.063589476049, 0.185512050986, -0.049085486680, 0.075763888657, 0.085746824741, -0.045279894024, 0.027122627944, 0.104139298201, 0.071995370090, -0.145502746105, -0.260045588017, 0.146815732121, -0.026438919827, 0.095668502152, 0.030810501426, 0.116072177887, 0.136166363955, 0.076797381043, 0.069024428725, 0.085365541279, 0.086193405092, 0.002716234652, 0.108706802130, -0.125760883093, -0.078980170190, 0.136251807213, -0.099998578429, 0.114110469818, 0.258381932974, 0.089274160564, -0.126761108637, -0.022936390713, -0.074345365167, -0.138520598412, -0.106132730842, -0.235401585698, 0.098432734609, 0.114551573992, 0.135784730315, -0.111454680562, -0.088406980038, 0.043983932585, -0.078676797450, -0.078651577234, -0.001687954762, -0.101531125605, -0.177956029773, 0.028801370412, -0.002917392179, -0.059445351362, -0.001506061642, -0.071888655424, 0.149623870850, 0.039906457067, 0.079098075628, 0.072685256600, 0.095331907272, -0.021715225652, 0.099205106497, -0.081059426069, 0.207994192839, 0.125170364976, -0.117040641606, 0.198731541634, -0.076846107841, -0.091616988182, 0.138797193766, -0.124989390373, -0.009671534412, -0.070878326893, 0.054828692228, -0.044619888067, -0.126647055149, -0.145404219627, -0.101667068899, -0.008254778571, -0.127631545067, -0.049845702946, -0.138282388449, 0.005909798201, 0.217004716396, 0.044076103717, 0.037086982280, -0.134088978171, 0.132143467665, -0.136842414737, 0.134027317166, 0.018468124792, 0.104690581560, 0.077818788588, 0.225115358829, 0.096670933068, 0.087668582797, 0.128086328506, 0.247327506542, 0.008293747902, -0.073976852000, -0.121863462031, -0.179892629385, -0.303672999144, 0.021914726123, -0.089378379285, 0.103578217328, -0.113508209586, -0.177227735519, 0.138601616025, 0.138475582004, -0.083968870342, -0.099604777992, 0.107657782733, 0.172888144851, -0.029587944970, -0.067881956697, 0.067520923913, 0.050383675843, -0.032918233424, 0.140971958637, 0.134462133050, -0.020186213776, -0.017643945292, -0.130989462137, -0.045052032918, -0.112988509238, -0.170907288790, 0.038035541773, -0.169122472405, -0.034318827093, 0.051630355418, -0.072334840894, 0.073080770671, 0.001028670813, -0.051622189581, 0.162361025810, 0.047182600945, 0.240503683686, -0.117091126740, 0.163292959332, 0.030965048820, -0.205641672015, -0.030957803130, 0.092578530312, 0.056541454047, -0.047819178551, -0.127923905849, 0.127755731344, -0.097482815385, 0.035159830004, 0.145278170705, 0.217308267951, 0.001679718145, -0.023781513795, -0.125346422195, 0.086715236306, 0.126994788647, -0.159202098846, -0.033542867750, 0.139213681221, 0.155763626099, -0.049119323492, 0.159085854888, -0.022976204753, -0.002666676417, 0.263302952051, -0.050784599036, 0.090615347028, 0.032605521381, -0.041042782366, 0.154783695936, 0.026947187260, 0.074792414904, -0.008062758483, 0.116551034153, 0.096106685698, 0.010718339123, -0.128528609872, 0.252170026302, -0.129705920815, 0.115025408566, 0.017481664196, -0.113936848938, 0.102154076099, 0.000416963041, -0.074367053807, 0.200174733996, -0.082601986825, -0.134747788310, 0.088512733579, 0.035981800407, 0.114532068372, -0.094391167164, 0.107844211161, 0.016543822363, 0.199810624123, -0.006829387974, -0.137223944068, -0.258516788483, -0.064582712948, 0.001047105063, -0.176775574684, -0.095694430172, -0.007468259893, 0.043666265905, -0.172548949718, -0.104856349528, -0.132536992431, 0.031983621418, 0.055065914989, -0.004962603562, -0.047828700393, 0.032270453870, 0.051622573286, 0.088413521647, 0.008098868653, 0.099092207849, -0.149813115597, -0.080470241606, -0.044767290354, 0.142276600003, 0.287693679333, -0.036371372640, 0.204420521855, 0.020409055054, -0.037436168641, 0.199919223785, 0.197432994843, 0.150996327400, -0.020975105464, -0.021075153723, -0.003559795208, -0.028617875651, 0.050956171006, 0.105849646032, 0.191140770912, 0.062465220690, 0.099812783301, -0.136659324169, 0.168052285910, 0.022459540516, 0.099602214992, 0.126836568117, 0.026701347902, -0.179062336683, 0.159140259027, -0.066086836159, -0.209754511714, -0.112887449563, -0.066283591092, 0.060408309102, 0.206460729241, -0.032026607543, 0.012415226549, 0.101238496602, -0.148246049881, -0.234963789582, 0.035851128399, 0.041862178594, -0.017614968121, -0.075318045914, 0.044070173055, 0.129416868091, 0.144544139504, -0.165490731597, -0.208708927035, 0.157988488674, 0.113764539361, 0.070918694139, -0.156631991267, -0.102041706443, 0.108907692134, 0.142673656344, 0.210474148393, -0.072167627513, -0.180729478598, -0.104667335749, 0.140389665961, 0.041540991515, -0.008256279863, 0.021760037169, 0.138318374753, 0.014753084630, -0.176053732634, -0.209228515625, -0.293008089066, -0.118371754885, -0.021974084899, -0.063433825970, 0.131894007325, -0.046978212893, 0.065266676247, 0.009116592817, 0.053517539054, 0.189085587859, 0.207344442606, -0.082488626242, -0.190079033375, -0.102467812598, -0.114504165947, -0.026514431462, 0.070035919547, 0.031972128898, -0.215231671929, 0.033801037818, -0.025060743093, 0.163540169597, -0.156706377864, 0.004979469348, -0.113419972360, -0.169843077660, 0.194991469383, 0.064026452601, -0.004893227015, 0.271472066641, 0.118611820042, -0.059976458549, 0.154951423407, 0.229784429073, 0.264638453722, 0.047904271632, -0.022473381832, 0.120722085238, 0.150873184204, 0.091067627072, -0.256723940372, 0.048639807850, 0.051434915513, 0.062513105571, -0.044968102127, -0.164716303349, -0.045894503593, -0.158455416560, -0.018107209355, 0.240138426423, -0.014410727657, -0.084885194898, -0.177869424224, 0.168102517724, -0.143599897623, 0.202114418149, 0.070744752884, -0.164962098002, 0.012921666726, 0.090063899755, 0.173819467425, -0.110150955617, -0.094871580601, -0.007236866280, 0.074767611921, 0.010246783495, -0.088766500354, 0.082284301519, -0.085356973112, 0.212556108832, 0.034435808659, 0.025577994063, -0.142647728324, -0.052435677499, -0.112244263291, -0.065280482173, 0.065533891320, 0.134141638875, 0.153369903564, 0.113510847092, -0.192972153425, -0.038038998842, -0.065814107656, -0.053800240159, -0.006800668314, -0.276475399733, -0.031142877415, 0.053807251155, -0.080134183168, 0.164505094290, -0.055195212364, -0.004412408918, -0.062460716814, 0.072778679430, -0.014069602825, 0.087445385754, -0.177370667458, -0.157374188304, -0.190916329622, 0.226485088468, -0.140330627561, -0.226970851421, -0.091206423938, 0.168163686991, -0.141533553600, -0.005929149687, -0.150209486485, -0.185447052121, -0.047747537494, 0.063188597560, 0.127118557692, -0.087720029056, 0.060530427843, 0.144556045532, 0.105149440467, 0.047251135111, -0.030986269936, 0.030805658549, 0.237961187959, -0.041557759047, -0.079346351326, -0.197300300002, 0.051623824984, 0.002896008780, -0.164855390787, 0.059219751507, 0.050880528986, 0.187908649445, 0.065100252628, -0.037570673972, 0.084387779236, -0.174894556403, -0.188087746501, 0.222813323140, -0.035354360938, 0.078514613211, -0.039349686354, 0.025751907378, -0.003520882223, -0.033737946302, 0.219715997577, -0.059571754187, 0.173802644014, 0.114681109786, -0.152253165841, -0.029099922627, 0.036562532187, -0.057033933699, -0.090898096561, 0.008673963137, 0.140822649002, -0.116709403694, -0.014152872376, 0.070775434375, 0.214722156525, 0.188225001097, -0.167018607259, 0.152784883976, -0.185727566481, -0.134433656931, 0.165793254972, 0.084853298962, -0.001637948095, -0.182017400861, -0.099426425993, -0.138738512993, -0.051361560822, -0.037863299251, -0.160940185189, -0.073882907629, 0.143602013588, 0.085306428373, 0.084249511361, -0.090376257896, 0.170060724020, -0.127812370658, -0.081430979073, 0.029512390494, -0.076637767255, 0.085088290274, -0.108038447797, -0.071228079498, -0.239825934172, -0.012822552584, -0.143263354897, 0.103994138539, 0.103505350649, -0.182778120041, 0.087968796492, -0.153626278043, 0.182875454426, -0.129707634449, 0.001892683911, 0.186219468713, -0.052358377725, 0.012536466122, -0.188502013683, 0.107039570808, -0.128499135375, 0.141121983528, 0.165062010288, -0.024424836040, -0.246709525585, -0.077668301761, 0.007880625315, 0.013968325220, -0.096804291010, -0.109324805439, 0.035477373749, 0.021105142310, -0.148499608040, -0.019671576098, -0.072521232069, -0.155499607325, -0.143988206983, -0.061994429678, 0.128021135926, 0.032307501882, -0.025882055983, -0.028761148453, 0.192246720195, -0.192834839225, 0.010715569369, -0.196126759052, -0.061020240188, -0.115848593414, -0.008900032379, -0.100308462977, 0.134023591876, 0.129065275192, 0.159090995789, -0.133472666144, 0.225919857621, -0.032799202949, -0.036396536976, -0.010933147743, 0.204686939716, -0.173873424530, -0.043670240790, -0.026584964246, 0.006648648530, -0.053688373417, 0.103699177504, 0.187203615904, -0.176500380039, 0.102900497615, 0.158356398344, 0.036379739642, -0.224268540740, 0.180243909359, 0.099351897836, 0.170319288969, -0.105513118207, 0.202325180173, -0.061462342739, 0.141243934631, 0.008653766476, 0.046281211078, -0.074866354465, -0.042029418051, 0.039291832596, 0.127422064543, 0.112280003726, -0.014969606884, 0.138598263264, 0.076654635370, -0.094974368811, -0.043296471238, 0.093543298542, 0.120938718319, 0.002782022348, 0.075682379305, 0.082242563367, 0.043007943779, -0.145852982998, 0.016782300547, 0.088632993400, 0.054196763784, 0.061982061714, -0.152736216784, -0.075593195856, 0.050387002528, -0.079724565148, -0.232108235359, -0.147719636559, 0.047957718372, 0.037133235484, -0.015167116188, 0.020688822493, -0.110260859132, -0.181033790112, -0.081001035869, -0.207525640726, 0.215663567185, -0.170566171408, 0.074963666499, -0.138821765780, 0.124589279294, -0.046890750527, -0.177889630198, 0.038717482239, -0.049277596176, 0.119691729546, -0.143708929420, -0.115465402603, 0.116108618677, 0.130773350596, 0.081186920404, -0.089506492019, -0.140391379595, 0.192413091660, -0.035054203123, 0.107356823981, -0.165501594543, -0.247865810990, -0.190990120173, 0.122563481331, -0.045377217233, -0.063868261874, -0.106857851148, 0.076867915690, 0.024381142110, 0.088230229914, -0.123059406877, -0.208089694381, -0.139352440834, 0.124892495573, 0.090091273189, 0.097300089896, -0.108422860503, -0.117165043950, -0.197474822402, -0.089674048126, -0.187035113573, -0.141521602869, -0.055898129940, -0.108549937606, -0.009519675747, 0.091464392841, -0.050056576729, 0.145512118936, 0.043100785464, 0.015090689063, -0.019296869636, 0.066673927009, -0.036077376455, -0.012440795079, 0.097123958170, 0.113617435098, -0.012197513133, 0.017535295337, -0.005111300386, -0.258916497231, 0.155523955822, -0.054141841829, 0.040388211608, -0.069601677358, -0.152406424284, -0.016205469146, -0.168838605285, -0.100361622870, 0.039528083056, 0.137641340494, 0.166181460023, -0.080390527844, -0.024152921513, 0.004442500416, -0.210208401084, 0.052238222212, 0.110560745001, -0.012236722745, -0.188435494900, -0.102412953973, 0.205057159066, 0.033553916961, 0.054331645370, -0.061390418559, 0.120045416057, 0.124251402915, 0.012767848559, 0.156878352165, -0.002505509183, 0.151427641511, 0.164611473680, -0.028765734285, -0.103376351297, 0.207078769803, 0.147278100252, 0.041681714356, 0.022619351745, 0.015527516603, -0.115064449608, -0.082931146026, -0.051220133901, -0.196286991239, -0.206946685910, 0.145154908299, -0.159774497151, -0.276138216257, 0.199838146567, 0.089685164392, -0.001454092562, -0.168454974890, -0.024165116251, -0.023268563673, 0.127440735698, -0.090890124440, -0.087857209146, -0.022874280810, 0.218295410275, -0.083885356784, -0.072563670576, 0.016377585009, 0.087507024407, -0.123861886561, 0.045962251723, 0.123719662428, -0.117000401020, -0.168421983719, -0.110635325313, 0.002738101408, -0.242318227887, -0.151550024748, 0.090084955096, -0.203465893865, 0.116180703044, -0.129949524999, -0.092330671847, 0.063212551177, 0.241705507040, 0.112796664238, 0.027762427926, -0.220271483064, 0.141642123461, 0.044801697135, 0.027086982504, -0.130596458912, 0.109216138721, 0.046998072416, 0.011769194156, 0.104002825916, 0.025765348226, 0.067953228951, -0.139887332916, -0.071208707988, -0.152998223901, -0.082227773964, -0.049534864724, -0.116815015674, 0.074460186064, 0.031684342772, 0.117494001985, 0.053880132735, 0.041056033224, -0.038549005985, -0.063648968935, -0.130323350430, 0.027571799234, -0.178352966905, 0.086602389812, -0.090239278972, -0.185829252005, -0.033468823880, -0.123932793736, -0.113356843591, -0.139027431607, 0.106228299439, 0.267945468426, 0.124993667006, -0.017021251842, 0.045426208526, -0.106322377920, 0.165332645178, -0.016831686720, 0.135498404503, -0.065018855035, -0.161947235465, 0.020763356239, 0.025240449235, 0.159828349948, -0.094567537308, -0.163307279348, 0.151040017605, 0.178049325943, 0.010808947496, -0.148075327277, 0.020203955472, -0.113480240107, 0.060051783919, -0.169027224183, 0.098867446184, -0.110350511968, 0.034155752510, 0.065648525953, -0.027809144929, -0.196866974235, -0.283658295870, -0.072570256889, -0.027973238379, -0.054534997791, 0.008165203966, 0.060104016215, 0.112524986267, 0.224692612886, 0.030517257750, 0.002498562215, -0.075225234032, 0.017364274710, -0.178151905537, 0.083433605731, -0.126155957580, 0.075803041458, 0.013175783679, 0.016903866082, -0.129088103771, 0.163603335619, 0.097928971052, -0.117915406823, 0.018880262971, 0.155153319240, 0.256545424461, 0.009332716465, 0.096500337124, -0.112739875913, -0.047470975667, 0.009729136713, -0.221545547247, 0.003615707858, 0.118235215545, 0.126896664500, -0.014807726257, 0.034734077752, -0.125225052238, 0.091504603624, 0.026921119541, 0.065846614540, 0.047760613263, -0.032655466348, -0.056353449821, 0.324276864529, -0.114145785570, 0.086980998516, 0.207889154553, 0.196329534054, 0.256029814482, -0.076067835093, 0.124527737498, -0.061121590436, -0.096931800246, -0.138303562999, -0.102782055736, -0.176001295447, 0.154963433743, -0.193109944463, 0.034194819629, -0.108567409217, -0.032282229513, -0.053069677204, -0.143806338310, -0.062232345343, -0.127715319395, 0.164088457823, 0.193776264787, 0.148571982980, -0.157149761915, -0.066213496029, 0.142664581537, -0.045404806733, 0.037695974112, 0.042453534901, 0.153800562024, 0.184390559793, 0.146126985550, 0.046741563827, 0.186483457685, 0.144347727299, -0.103827133775, 0.103845670819, 0.100606516004, -0.126167878509, -0.085476577282, 0.092543892562, -0.117141343653, -0.075138092041, 0.142095878720, 0.121407128870, 0.013015971519, 0.157335877419, -0.100455977023, 0.077095948160, -0.004037360661, -0.088402830064, -0.114222861826, -0.171871751547, -0.031246317551, 0.091332547367, -0.160797610879, 0.080080412328, 0.038340751082, -0.013751705177, -0.105161748827, -0.153262823820, 0.256438761950, 0.063567705452, 0.256208628416, 0.089608639479, -0.033525127918, 0.105179943144, -0.095256328583, 0.027254184708, -0.153834566474, -0.053319413215, -0.129933983088, -0.006782053038, 0.144739627838, -0.206812232733, -0.163735821843, 0.095802836120, 0.091817200184, 0.166123747826, -0.155269652605, 0.062383763492, 0.141314610839, 0.000314363977, -0.041555970907, 0.051221311092, -0.076787486672, 0.041446130723, 0.090967506170, -0.090158030391, -0.165338426828, 0.182789757848, -0.104696668684, 0.162215918303, -0.195125833154, -0.119297057390, 0.038545049727, -0.213789328933, 0.047744300216, -0.041758570820, -0.118190564215, -0.043870665133, -0.005777008832, 0.012575674802, -0.003924058750, 0.060405511409, 0.111438810825, -0.094135440886, 0.027125868946, 0.201685249805, -0.079172633588, 0.098346389830, -0.006542313378, -0.075001314282, 0.044379863888, -0.161294832826, 0.123730115592, 0.130275100470, 0.156681358814, -0.011780188419, -0.115541785955, 0.060043089092, -0.022149451077, 0.065285168588, -0.031201118603, -0.092595428228, -0.011806815863, -0.117964506149, -0.050987761468, 0.183741390705, -0.139720693231, 0.122871465981, -0.067532248795, -0.067836463451, -0.208013594151, -0.114112965763, 0.058444470167, 0.046572614461, 0.015405690297, -0.093076311052, -0.099473640323, 0.112772621214, 0.031695939600, -0.095392562449, -0.146174713969, -0.084092445672, -0.154963389039, 0.061044070870, 0.192155644298, 0.096996158361, -0.143646180630, -0.030352491885, 0.029417386279, 0.191496998072, -0.243199959397, 0.064582996070, -0.120206981897, 0.110915862024, 0.138337180018, 0.079109929502, -0.108222641051, -0.062881238759, -0.115235745907, 0.217339783907, -0.128939241171, -0.153521671891, 0.137951716781, 0.220929354429, 0.171100914478, -0.108870357275, -0.006445178762, 0.008976820856, -0.041289310902, -0.082894496620, -0.122575700283, 0.150433197618, -0.127266153693, -0.109153866768, 0.133221060038, 0.030002253130, 0.191322848201, -0.128499150276, 0.129278019071, -0.044494103640, -0.005184991285, -0.193927422166, 0.160162046552, -0.232488498092, -0.091135144234, -0.054424278438, 0.134252756834, -0.288306862116, -0.003165500006, -0.073206007481, 0.111974418163, -0.157672241330, -0.035973899066, -0.088110923767, -0.058668341488, 0.066543139517, 0.064782127738, -0.127728372812, 0.001048331847, 0.049414359033, -0.133181408048, 0.101261019707, -0.149929344654, 0.031925626099, 0.137698963284, -0.099606990814, -0.177772119641, -0.165161922574, -0.033492416143, 0.101169236004, -0.180503517389, 0.132326290011, 0.170406341553, -0.183148398995, -0.233724340796, 0.094900324941, -0.049314655364, -0.007728695869, 0.161757722497, 0.153505578637, -0.063056901097, -0.104014910758, -0.077901735902, 0.142117083073, -0.065051108599, 0.105357915163, 0.116339914501, 0.085367634892, -0.101314872503, 0.069924674928, 0.007989459671, -0.156647205353, 0.110361166298, 0.047347325832, 0.094843305647, 0.238542541862, 0.092144474387, -0.122803226113, -0.004602623638, -0.142415151000, 0.186626553535, 0.019380636513, -0.105265200138, -0.153414934874, -0.081951685250, 0.097234092653, 0.111951313913, -0.069753639400, -0.097198687494, 0.022470891476, -0.198841676116, -0.129081025720, 0.019317241386, -0.108569741249, -0.033756274730, 0.053059089929, -0.110700204968, 0.054424576461, 0.085560113192, 0.014751199633, -0.003380964743, -0.113975137472, -0.045109570026, 0.017474401742, -0.140034824610, 0.212793618441, 0.002904912457, -0.111411221325, 0.144720569253, -0.071958690882, 0.108987599611, 0.194198444486, -0.119135111570, -0.138225302100, -0.124839760363, 0.190405905247, 0.199759840965, -0.136588618159, -0.044358894229, -0.173040509224, -0.152236863971, -0.080728679895, -0.114105656743, 0.074287042022, 0.079345732927, 0.012060898356, -0.128176733851, -0.082647606730, 0.017022522166, 0.211187660694, 0.134370118380, 0.178436726332, -0.172970309854, -0.167075768113, 0.048845600337, -0.118576966226, -0.028815744445, -0.050511807203, -0.123470574617, -0.018854556605, -0.191437348723, -0.167440190911, 0.152050241828, -0.128733724356, 0.121555283666, -0.042347468436, 0.025434011593, -0.029794208705, -0.004958929028, -0.048453181982, 0.028436098248, -0.109420366585, -0.101502165198, -0.019141692668, 0.030542021617, 0.097186826169, 0.184338122606, 0.184158921242, 0.175210997462, -0.183983296156, 0.056287351996, -0.049620773643, -0.043481271714, 0.081075698137, 0.046196516603, -0.192316576838, -0.024546494707, -0.124934583902, -0.038398697972, -0.140516981483, -0.079197116196, 0.016571601853, 0.126524388790, 0.217604979873, 0.114678829908, -0.073805727065, -0.170664668083, -0.027355041355, -0.012327051722, -0.052082661539, -0.063750982285, -0.089133463800, -0.069485597312, -0.116857908666, -0.150307759643, 0.131742402911, -0.055590130389, -0.146245419979, 0.106458015740, -0.072532415390, -0.016957508400, -0.014772824012, 0.022737720981, -0.138662904501, -0.015265574679, -0.029032655060, 0.102056868374, -0.062919706106, 0.088698364794, -0.060980997980, -0.059412449598, 0.128013417125, -0.087830558419, 0.128645539284, 0.219368383288, -0.037066757679, -0.157912567258, -0.065765589476, 0.087696939707, 0.132353901863, 0.134950593114, -0.060143779963, -0.097765952349, -0.063638843596, -0.107036888599, 0.107939891517, 0.153494432569, -0.103803835809, 0.142868846655, 0.069992646575, 0.023261176422, 0.296297490597, 0.027890676633, -0.114632397890, -0.017861366272, 0.139877498150, -0.021032093093, 0.022413713858, -0.157734841108, -0.089837275445, 0.045734740794, 0.054394789040, -0.016324989498, -0.040004596114, -0.102457359433, -0.068496361375, -0.080144807696, -0.059416934848, -0.011104980484, 0.153732657433, 0.196502745152, 0.218638017774, -0.017905009910, 0.128543779254, -0.107183441520, -0.122280746698, 0.005019719712, 0.082452498376, 0.095347791910, -0.003458905267, 0.158831089735, -0.034696992487, -0.023230841383, 0.114216744900, 0.073217771947, 0.024236764759, -0.138115674257, 0.153419837356, -0.219752267003, -0.105498842895, -0.110527314246, 0.046611685306, 0.106649376452, -0.127705663443, 0.149983868003, 0.132724314928, -0.061302386224, 0.182371303439, -0.142088845372, 0.125407025218, -0.042273130268, -0.059763152152, 0.125910699368, 0.087428189814, 0.135589122772, -0.073790691793, -0.152143791318, -0.002764169127, 0.132051676512, 0.184009179473, -0.007169388235, 0.013148737140, 0.161104992032, -0.164431437850, -0.119756124914, 0.099485695362, -0.055060122162, 0.119031302631, -0.094187863171, 0.023797426373, -0.167950972915, 0.001314366469, -0.106796547771, 0.199238747358, -0.058485656977, 0.066374279559, -0.125906199217, -0.162073463202, 0.081468284130, -0.147364035249, 0.065083391964, 0.172394037247, -0.189174324274, -0.071015983820, 0.159810066223, 0.145779341459, -0.106618501246, -0.125317662954, 0.170993864536, -0.066877484322, -0.056933946908, -0.007121727336, -0.040747445077, 0.017824549228, 0.020431863144, 0.151041999459, -0.010041503236, 0.073969982564, 0.097491264343, -0.011707738042, -0.112921938300, -0.014138979837, -0.048342768103, 0.129595711827, -0.124053232372, -0.080916345119, 0.050558738410, 0.102935485542, 0.027118826285, -0.111748978496, 0.075632162392, 0.085863947868, -0.118388272822, -0.129026725888, 0.009856256656, 0.162631750107, -0.176242619753, -0.102464087307, -0.112981073558, -0.216489255428, 0.114771753550, -0.065937183797, -0.066148638725, -0.141455993056, 0.025220390409, 0.014878578484, 0.112949348986, 0.161745041609, -0.016417004168, -0.042065113783, 0.131670594215, -0.065543144941, 0.065727785230, 0.152822166681, 0.074741713703, -0.176810264587, -0.199521377683, -0.136243462563, 0.220470964909, 0.123315438628, 0.244853958488, 0.008353345096, -0.077061153948, -0.004825721961, -0.001458701561, -0.006827078294, -0.023186277598, -0.120034456253, 0.042421739548, 0.082155771554, 0.012965013273, 0.013359676115, -0.007931993343, 0.095651894808, -0.117929041386, 0.138215512037, -0.093144081533, -0.088486932218, 0.146097719669, 0.203634962440, -0.043396919966, 0.074724502861, 0.041512623429, -0.013837417588, -0.079737104475, -0.119966767728, -0.075216457248, 0.030383452773, -0.115032114089, -0.089107938111, 0.103578850627, -0.136293500662, 0.059647988528, 0.199688464403, 0.072507500648, 0.139313891530, 0.049815870821, -0.037199802697, 0.132497519255, 0.013779187575, -0.018398279324, 0.046611975878, 0.060843277723, 0.025099519640, -0.097083166242, -0.142679408193, -0.040309108794, -0.135379523039, -0.022826990113, -0.098327673972, 0.044934950769, -0.142974331975, 0.004250715021, -0.101255781949, -0.163246542215, -0.061202161014, -0.026101598516, 0.015412702225, 0.109993889928, -0.024152647704, 0.034958351403, 0.201436877251, 0.129183292389, 0.055421393365, 0.068213991821, 0.131640166044, -0.153460472822, -0.173727020621, -0.144772276282, -0.000799747766, -0.101010762155, -0.099201843143, -0.050234615803, -0.119566611946, 0.111175931990, 0.040842458606, 0.000071099021, 0.136486992240, 0.064550310373, 0.110051222146, 0.062720075250, 0.078374162316, -0.106350086629, 0.183266937733, 0.126351296902, 0.018194852397, 0.100179739296, 0.050547137856, 0.188469588757, 0.031736899167, -0.083495005965, -0.032346230000, 0.234223768115, 0.117146179080, -0.219953909516, 0.086592651904, -0.063382677734, 0.110829740763, 0.048468641937, -0.025643603876, -0.106481216848, -0.013771660626, -0.143787458539, 0.176128625870, -0.013600167818, 0.238663673401, -0.062579840422, 0.147184476256, -0.109496779740, -0.039108265191, -0.021709747612, -0.049786467105, 0.032772973180, -0.176568046212, -0.075815759599, -0.091164082289, -0.026957808062, -0.075105272233, -0.080371841788, 0.082580454648, -0.095773220062, 0.215729102492, -0.065607942641, -0.169386982918, -0.087179556489, -0.119056262076, 0.057382948697, 0.090838350356, -0.068613201380, -0.180041402578, 0.100995056331, 0.051280822605, 0.131894424558, -0.101119518280, -0.019677931443, -0.119904562831, -0.231548756361, 0.031230045483, 0.100847817957, 0.065452001989, 0.131815582514, 0.121247440577, -0.103976063430, 0.083677545190, -0.011528315954, 0.133805468678, 0.071488931775, -0.166608974338, 0.154044076800, -0.024208692834, -0.011521089822, 0.197695687413, 0.070535309613, 0.192086577415, 0.093529812992, 0.132344856858, -0.075027033687, 0.043772075325, 0.173201590776, 0.068658314645, -0.179460242391, 0.014680980705, -0.055985655636, 0.063867762685, -0.064473576844, 0.170563265681, -0.007134925108, 0.221579983830, -0.031297862530, 0.029483390972, 0.045433942229, 0.014027720317, 0.130162730813, -0.067946307361, -0.180920273066, -0.111064843833, 0.206269934773, 0.135963469744, 0.057586930692, -0.091492488980, -0.082138076425, 0.116201177239, -0.053097043186, -0.072732456028, 0.112436667085, -0.040876246989, 0.106539972126, 0.059126134962, 0.122552059591, 0.030630862340, -0.123260147870, 0.021096015349, 0.156226307154, -0.105123691261, -0.057725694031, 0.032846666873, 0.154286533594, -0.023708578199, 0.120168790221, 0.063232541084, -0.114151470363, -0.253921121359, -0.137804001570, -0.027713147923, -0.036520235240, -0.229620963335, -0.060113858432, 0.012541883625, -0.140103027225, -0.030756553635, -0.100100189447, 0.148729741573, -0.235525846481, -0.165344730020, 0.165570870042, 0.033555086702, 0.175415128469, -0.033595763147, 0.167992934585, -0.076891154051, 0.085148148239, 0.027053436264, 0.109076477587, 0.047727379948, -0.101647302508, 0.068168692291, -0.128859102726, -0.112738691270, -0.032306209207, 0.105244979262, -0.202556639910, 0.110332205892, -0.059163268656, -0.065457642078, -0.024237016216, -0.040779951960, -0.036426585168, -0.215552151203, 0.018871221691, 0.179939687252, -0.117792114615, 0.146042630076, -0.003002721118, 0.191720142961, 0.023902356625, -0.080485031009, 0.036199811846, -0.153097182512, 0.170363605022, 0.075738795102, 0.142604634166, -0.009979764931, -0.099310047925, -0.124424859881, -0.128268986940, -0.023246439174, 0.138219401240, 0.028999133036, -0.077362097800, 0.031481854618, -0.091498322785, 0.095656469464, 0.155504003167, -0.004824665375, -0.150390595198, 0.022622985765, 0.215255513787, 0.181821122766, 0.166981846094, -0.109213858843, -0.124955818057, -0.030144613236, 0.062109414488, -0.088983811438, 0.062958329916, 0.142930015922, -0.059161555022, -0.032320957631, -0.048418700695, 0.256951212883, -0.007106671575, 0.011362409219, 0.071576692164, 0.073908418417, -0.151122748852, 0.042707316577, 0.037403080612, 0.049704600126, 0.055420394987, 0.159113347530, 0.007485808339, -0.021753469482, 0.015994444489, -0.156871274114, 0.204117789865, -0.074841976166, 0.147837594151, 0.005015267059, 0.161317467690, -0.041131138802, -0.066647432745, 0.139155402780, -0.010200249963, -0.086589649320, -0.042757336050, -0.031378328800, -0.205431669950, -0.085460357368, -0.227137953043, 0.016220364720, -0.186146691442, 0.049494173378, 0.175505772233, 0.024344423786, 0.204567924142, 0.076481603086, -0.065402030945, 0.074367694557, -0.071880228817, -0.009846641682, 0.020452093333, -0.065839365125, -0.061188988388, -0.034495234489, -0.232420042157, 0.010247773491, 0.038111675531, 0.175874292850, -0.115896426141, 0.098549053073, -0.184174194932, -0.067455530167, -0.037537749857, 0.157632872462, -0.104605570436, 0.085220344365, 0.116324707866, 0.033082071692, 0.005784390494, 0.086216695607, 0.138762310147, 0.001543123741, -0.060903135687, -0.098712071776, 0.050793930888, 0.172320470214, 0.163822621107, 0.095900110900, -0.041021011770, 0.139006361365, 0.048202086240, 0.166091978550, 0.087932087481, -0.170827955008, -0.088162459433, 0.041330821812, 0.183556869626, 0.066323563457, -0.033384297043, 0.023567149416, 0.091503985226, 0.083451509476, -0.179310187697, 0.046435035765, -0.128721088171, 0.101605385542, -0.036096196622, 0.047523133457, 0.048660404980, 0.057003233582, 0.248114973307, 0.115429058671, -0.145279273391, 0.051979579031, 0.119199529290, -0.129626914859, -0.070151165128, -0.171957567334, -0.141214713454, -0.170673638582, -0.039344701916, 0.241187602282, 0.027799116448, 0.012720027938, -0.111229375005, -0.146214261651, 0.136555284262, -0.062144752592, -0.002853828482, -0.032164037228, -0.028856385499, 0.169886946678, -0.096104294062, 0.061269026250, -0.105686999857, -0.136766716838, -0.048143610358, 0.014892754145, 0.223953142762, 0.129803970456, 0.174649089575, -0.179677218199, 0.247770592570, 0.217540979385, 0.175230637193, 0.010919664986, -0.171641007066, 0.099775768816, -0.086081355810, 0.037274055183, -0.157312884927, -0.113211661577, -0.191303580999, -0.039672512561, 0.136452227831, -0.132148891687, -0.107154622674, 0.074535340071, -0.238849058747, -0.115034930408, -0.244076043367, -0.095925137401, 0.255523175001, -0.095465563238, -0.000706895371, 0.042744666338, 0.155257865787, 0.089651331306, -0.366157710552, -0.175097569823, 0.031638741493, 0.012188546360, 0.112950332463, 0.161049082875, 0.255820393562, 0.100095480680, -0.050427816808, 0.087985903025, 0.047755915672, -0.009390576743, -0.023741323501, 0.036364030093, -0.177892938256, -0.080195598304, 0.158738955855, -0.124613828957, -0.072132423520, 0.083247020841, -0.244601815939, -0.067354068160, 0.136512249708, 0.018535498530, -0.093645781279, -0.173006430268, -0.215258419514, 0.010753515176, -0.000253093109, 0.060946568847, -0.067900285125, 0.156199619174, -0.043406020850, -0.127881839871, 0.115451730788, -0.210983231664, 0.089715823531, 0.010051629506, -0.118550963700, -0.140347063541, -0.192259669304, 0.083606243134, 0.003344609402, -0.012209511362, -0.151782199740, 0.016024176031, 0.115514487028, 0.013566248119, -0.076981887221, 0.227468922734, -0.097938083112, -0.029049582779, -0.053661733866, 0.150300860405, 0.124632328749, 0.010971710086, -0.036626003683, -0.123376846313, 0.099346093833, -0.177682101727, 0.089508183300, -0.162380576134, -0.140266343951, 0.118675664067, 0.047401059419, -0.078393548727, 0.167949974537, -0.152671620250, -0.108486920595, -0.166255623102, -0.112136200070, 0.127175047994, 0.167914867401, -0.187109932303, 0.171124845743, 0.028741028160, 0.169334962964, 0.179171383381, -0.011326398700, -0.054973866791, -0.095566295087, -0.150054603815, 0.018759952858, 0.162506043911, 0.235407203436, 0.064237453043, -0.007547987625, 0.042083397508, 0.033631805331, 0.111780583858, 0.052682589740, -0.068890333176, 0.163262441754, 0.093605749309, 0.018860056996, -0.009907654487, -0.066138096154, 0.155678063631, -0.137345135212, -0.016754575074, -0.021234190091, 0.050911832601, -0.141592875123, -0.055672850460, 0.212452128530, -0.002217300003, -0.174562230706, -0.081554219127, 0.053230263293, 0.083042256534, -0.212873414159, -0.073559358716, 0.130767017603, -0.019971448928, -0.130184680223, -0.155708581209, 0.113423027098, -0.147069513798, 0.024223923683, -0.029014313594, 0.049514591694, -0.118393816054, -0.065855577588, -0.198312208056, -0.026987327263, 0.098874159157, -0.035182833672, 0.138774439692, 0.125534430146, 0.171666532755, -0.079147338867, -0.161246880889, -0.005554699339, -0.042218200862, 0.076882600784, 0.219509243965, 0.042723003775, -0.107002668083, 0.171428248286, 0.127897053957, 0.161032617092, -0.008155802265, 0.141626581550, -0.114511795342, -0.027106942609, 0.214459538460, -0.063262827694, -0.146399542689, -0.037176210433, -0.022188037634, -0.262164980173, -0.094937965274, 0.051077753305, -0.151785731316, 0.018555879593, 0.071619495749, 0.075324743986, -0.048833135515, 0.019035836682, -0.120572231710, 0.031051347032, 0.056784145534, 0.052201014012, -0.202117487788, -0.036694657058, 0.185092762113, -0.133751124144, -0.058014973998, -0.092969350517, 0.221306994557, 0.168897464871, -0.042642857879, -0.046330317855, -0.106906071305, 0.065433330834, 0.230404973030, -0.084946654737, -0.228327363729, -0.072556942701, 0.097050622106, 0.277956426144, 0.079942479730, 0.113620504737, -0.203862115741, 0.001535772812, 0.118323273957, 0.114960774779, -0.155560225248, 0.052004180849, 0.081441968679, 0.052709922194, 0.205494344234, 0.019931441173, 0.060738779604, 0.186529651284, -0.090369611979, -0.111904464662, 0.057821296155, -0.086263775826, 0.026948988438, 0.160090684891, -0.140977978706, -0.004637477454, 0.158089712262, -0.031304717064, 0.113170646131, 0.109501317143, -0.197242826223, -0.105964437127, -0.077122487128, 0.048780668527, -0.103136360645, -0.043205320835, -0.063903756440, -0.031928744167, -0.058625184000, -0.202568531036, 0.134129047394, -0.125389128923, -0.009986680932, 0.019412184134, 0.061238359660, 0.058244477957, -0.033304333687, 0.138420358300, -0.008096845821, -0.091696970165, 0.023592397571, 0.117758519948, -0.022833224386, -0.046754974872, 0.008453045972, -0.114766567945, 0.133177354932, -0.137884140015, -0.078913524747, -0.085573986173, -0.108559362590, -0.002383651910, -0.165032073855, -0.077609807253, 0.031437646598, -0.096447594464, -0.089018091559, -0.025694131851, -0.088331826031, 0.026290496811, 0.072123631835, 0.217669293284, -0.051170870662, -0.075985096395, 0.065008774400, -0.133659005165, -0.055276200175, 0.082118101418, 0.203397631645, -0.115769632161, 0.007128013764, 0.166452288628, 0.073605753481, -0.151584714651, 0.064732424915, -0.105873599648, 0.129803597927, -0.213437691331, 0.056467827410, 0.007174512837, -0.049109976739, 0.141965508461, 0.077246434987, -0.044293455780, -0.198669523001, 0.147186368704, 0.062604814768, -0.056049048901, -0.095640100539, -0.144352227449, 0.003215926234, 0.165936917067, -0.145254343748, -0.091747686267, 0.165832325816, -0.111291833222, 0.053919877857, 0.005876333453, -0.094942420721, -0.183309450746, -0.173606172204, -0.089457258582, 0.052069369704, -0.010736564174, 0.034217085689, 0.155755415559, -0.026112506166, 0.018400205299, 0.126596629620, -0.225996762514, 0.159404113889, 0.010621067137, 0.141996338964, -0.067290738225, -0.140801697969, 0.121117554605, 0.216510742903, -0.150591209531, -0.094772823155, -0.073607228696, 0.118227198720, -0.091808237135, -0.151623621583, 0.073651820421, 0.119814090431, -0.021596925333, -0.016145270318, -0.074422150850, 0.038573242724, 0.028846431524, -0.000504802330, -0.033685337752, 0.066028915346, 0.081085383892, -0.078981548548, -0.008805512451, -0.024686284363, 0.121754840016, 0.019676536322, -0.084237352014, -0.007093935739, -0.036704469472, 0.048729289323, 0.024439148605, 0.017315695062, -0.111450091004, 0.182471215725, -0.131728574634, 0.052651725709, 0.028563497588, -0.103780776262, 0.150822356343, -0.078628629446, 0.024931419641, -0.131037086248, 0.171959906816, 0.124648615718, -0.012229325250, 0.196313560009, 0.118750020862, 0.059454604983, -0.109239347279, -0.080452837050, 0.141672134399, 0.204949021339, 0.090012528002, 0.072867445648, -0.189679086208, -0.005247278139, 0.099441289902, 0.168315798044, 0.151973724365, -0.126844450831, -0.058421973139, 0.079218178988, 0.099873326719, 0.118388362229, 0.091522417963, 0.072418294847, -0.060501828790, 0.116415686905, 0.214061602950, -0.059538908303, -0.106895647943, -0.013239782304, 0.180630981922, 0.059054963291, -0.060306895524, -0.076645419002, -0.063628263772, 0.028684001416, -0.203720152378, 0.031253673136, -0.030663985759, -0.164734780788, -0.084744915366, -0.036607556045, 0.067812450230, -0.010449173860, -0.040100153536, 0.113939724863, -0.090206377208, -0.010429761373, -0.128796592355, -0.091680623591, -0.145037412643, 0.130611136556, 0.129528418183, 0.035286396742, -0.002515702741, 0.140815600753, -0.135608971119, 0.097238786519, -0.099295467138, 0.031611569226, -0.002656547818, 0.073545187712, -0.144733101130, 0.127318888903, 0.129506871104, -0.037877254188, 0.155586138368, 0.218771085143, -0.026931777596, -0.054603256285, -0.157264724374, 0.013063828461, 0.084492444992, -0.055688302964, 0.250998020172, -0.137994214892, -0.119052775204, -0.189174562693, 0.099033199251, -0.027458578348, -0.188221424818, 0.111973948777, 0.215734541416, -0.036006003618, -0.066986910999, 0.170625731349, 0.258887797594, -0.147852048278, 0.018970031291, 0.107228957117, 0.039951901883, -0.098804213107, 0.009094030596, 0.106160074472, -0.059225630015, 0.133809193969, -0.123363271356, 0.030470769852, 0.122963398695, 0.111518301070, -0.112955220044, 0.073955669999, -0.106435239315, 0.014707862400, 0.139894947410, 0.116162233055, -0.117439866066, -0.118809655309, -0.019972652197, -0.152270376682, -0.162262484431, -0.138321191072, -0.043860528618, 0.188813239336, -0.035118725151, 0.048112776130, -0.142147138715, 0.147542953491, -0.070278145373, -0.046476963907, -0.055932145566, 0.099435947835, -0.102509915829, 0.045575920492, 0.021128300577, -0.118589617312, 0.094410702586, 0.115207746625, 0.034774474800, 0.045684870332, -0.156763583422, 0.214354038239, -0.046877078712, 0.020385207608, 0.083383619785, -0.067597523332, -0.119038872421, 0.153548598289, -0.019764158875, 0.047345381230, 0.013809982687, 0.109116517007, -0.223444595933, -0.009842142463, 0.204468801618, 0.127559989691, -0.028238574043, -0.033939357847, -0.021062629297, 0.004400960635, 0.185505703092, 0.136299669743, 0.003667426063, 0.062866941094, -0.075679145753, 0.106043621898, -0.173682630062, 0.073632366955, 0.196946620941, -0.100485913455, 0.154811576009, 0.024260737002, 0.083238437772, 0.124690927565, 0.125769242644, 0.104995235801, -0.176063686609, 0.107258558273, -0.081009067595, 0.074366576970, -0.042092911899, 0.193688020110, -0.055634986609, -0.075740002096, -0.165968701243, -0.047252126038, -0.006427889224, 0.103534147143, 0.043997485191, -0.113712519407, 0.135388165712, 0.080666385591, 0.223435565829, 0.147669106722, 0.166945055127, -0.071636974812, 0.016718979925, -0.063994161785, -0.163677021861, -0.068697847426, 0.108716569841, -0.104444235563, -0.042969178408, 0.020286357030, -0.022169427946, -0.146120846272, 0.120600625873, 0.217829048634, -0.078937865794, 0.005516772624, 0.014449925162, -0.130608335137, 0.102239534259, 0.000729896361, 0.056800875813, -0.011638310738, -0.078910090029, -0.050446547568, 0.008841195144, -0.157103419304, 0.004573700484, 0.067911826074, -0.036804232746, 0.092535845935, -0.109508536756, -0.032628960907, -0.056870881468, -0.145436704159, -0.136073157191, 0.052517596632, -0.090775758028, -0.027756255120, -0.206065565348, 0.017309468240, -0.101819671690, -0.147460147738, -0.084081791341, -0.088699758053, 0.129522278905, 0.109010554850, -0.149432867765, 0.107629038393, 0.104421198368, -0.153460487723, -0.026504397392, 0.055457726121, -0.130795910954, 0.072932444513, 0.002537417226, -0.005151148420, 0.117272190750, -0.121591411531, 0.191785305738, 0.048176471144, 0.102500498295, 0.082054533064, 0.036216638982, -0.162866458297, 0.110877543688, 0.160592868924, 0.198982715607, 0.147059857845, -0.198909357190, -0.203483194113, 0.122058212757, -0.024279341102, 0.097253650427, -0.189579606056, -0.080556027591, 0.104808248580, 0.182813897729, 0.068810939789, -0.215575635433, -0.263982445002, 0.042332164943, 0.068156443536, 0.106382727623, -0.098750904202, -0.142254248261, 0.087429873645, 0.053798574954, -0.179397091269, -0.212453216314, 0.072852224112, -0.120369240642, -0.218538999557, 0.167477786541, -0.130263283849, 0.193302094936, -0.098113097250, 0.134579420090, 0.074204228818, 0.184285715222, -0.273833811283, -0.061080027372, -0.106009326875, 0.294685035944, -0.030226552859, 0.018477708101, -0.047777682543, 0.089988045394, 0.233121797442, -0.040273807943, 0.086951531470, 0.068300269544, 0.024375723675, 0.155212044716, -0.229933023453, -0.155841141939, 0.224514886737, 0.024749044329, 0.060691144317, -0.028404783458, 0.118503093719, -0.204215481877, -0.153575092554, -0.384562790394, 0.109962552786, 0.076357148588, 0.067167215049, 0.000489087484, 0.099598608911, 0.055457435548, -0.058145303279, 0.048264905810, 0.156841501594, 0.059930667281, -0.091595873237, -0.166789859533, -0.095456935465, 0.051115944982, 0.111962489784, 0.178406074643, 0.058624535799, -0.067240014672, 0.098945029080, -0.005400476046, -0.019559271634, -0.182648167014, -0.012831664644, 0.079886682332, 0.272391170263, -0.158028095961, 0.006219973788, -0.139240816236, 0.114958092570, -0.118996098638, -0.036610715091, -0.193059533834, -0.001533051720, 0.141250655055, 0.118142858148, 0.063134849072, 0.011720518582, 0.057201504707, -0.026455808431, -0.114588975906, 0.109585769475, -0.078046023846, -0.227225258946, 0.038771327585, -0.161782503128, -0.126936137676, -0.027654770762, 0.023135596886, 0.087734542787, -0.001091285143, -0.040821570903, -0.045971840620, -0.029469100758, -0.174733415246, 0.035639461130, -0.112451530993, 0.004095785785, 0.059200912714, 0.082213699818, -0.201803296804, -0.058165196329, -0.070570170879, 0.049983941019, -0.131435528398, 0.100698202848, 0.054038316011, -0.072428613901, 0.078208737075, -0.024992670864, 0.163699120283, 0.198199018836, -0.159875288606, 0.014508519322, -0.060132171959, -0.148998126388, 0.166197717190, 0.035204686224, 0.151667788625, 0.063830986619, -0.168913081288, 0.013110499829, 0.165661081672, 0.051408447325, -0.123978577554, 0.248412802815, 0.077985271811, -0.170551419258, 0.028855979443, -0.094653509557, 0.106723949313, -0.075582750142, 0.132809937000, -0.102381654084, -0.133935749531, 0.084470734000, 0.037969946861, -0.000810185040, -0.072819203138, -0.039526380599, -0.162717133760, 0.164991080761, 0.315821737051, -0.048862464726, -0.195644184947, 0.068728357553, -0.180150598288, -0.049839898944, -0.152667671442, -0.011358854361, 0.191527798772, -0.097194455564, 0.191563189030, 0.117319487035, -0.036072868854, 0.138280868530, -0.196493312716, 0.148987725377, -0.167677998543, 0.106889382005, 0.021264811978, 0.066888555884, -0.045886166394, 0.124641016126, 0.279816985130, -0.048117954284, 0.071506917477, -0.061687290668, -0.101824119687, 0.115415997803, 0.076193884015, 0.066013842821, -0.005892103538, 0.012738911435, 0.133662596345, -0.005125328433, 0.106392152607, 0.177086368203, 0.037262462080, -0.071112379432, -0.011486534029, -0.029854035005, 0.103341720998, -0.190463945270, 0.075903601944, 0.033511959016, 0.035036988556, 0.046102132648, 0.001837704331, 0.125997304916, -0.245716407895, 0.316399514675, 0.154723733664, -0.076630376279, -0.035715788603, 0.126736178994, -0.047579150647, 0.164715304971, 0.006738484371, -0.017614521086, 0.133149325848, 0.203351959586, -0.032705273479, 0.036467570812, -0.143582507968, -0.188601240516, -0.004779527895, 0.025948723778, -0.014634312131, -0.104470707476, -0.075901173055, 0.139568075538, -0.172602415085, 0.101822294295, 0.043435521424, -0.222053155303, 0.059595149010, 0.006312534213, -0.023438731208, -0.091370023787, 0.209012448788, 0.153027936816, -0.115357860923, -0.081193819642, -0.090919569135, -0.112098529935, -0.101457521319, -0.069860063493, 0.023126769811, -0.117640815675, -0.001789385686, -0.052777495235, 0.163982555270, 0.048179008067, 0.131911441684, 0.037808366120, -0.106361977756, -0.193983376026, 0.159878462553, 0.118598401546, 0.015305208042, 0.002399188234, -0.077166602015, 0.113090202212, 0.172538727522, -0.061319477856, 0.014301748946, 0.064069725573, 0.087078750134, -0.133864745498, -0.168124467134, 0.074164316058, 0.155809387565, 0.071813948452, -0.006030500866, -0.055940728635, -0.000257452746, 0.146232619882, 0.144280031323, -0.053109772503, -0.057125754654, 0.167339697480, 0.026388008147, -0.128436073661, -0.175676524639, -0.047386124730, 0.029269121587, 0.074724122882, -0.005985592026, -0.129436984658, 0.017521234229, 0.003064431250, -0.058172084391, 0.007152684033, 0.098382435739, -0.130148410797, -0.114487640560, 0.097834028304, -0.031465709209, 0.134276896715, 0.023621471599, 0.182257726789, -0.177838861942, -0.182483166456, -0.077450215816, -0.142692014575, -0.080401718616, -0.037476830184, 0.141599342227, -0.092163592577, 0.050315778702, 0.049090601504, 0.144233435392, -0.120497405529, 0.157932892442, -0.155467242002, 0.006841802038, 0.113989919424, 0.155777171254, -0.156320169568, 0.044958330691, -0.073577053845, 0.054326783866, -0.049150582403, 0.124236561358, -0.066890709102, 0.105498209596, 0.001876520342, 0.092793069780, -0.081297308207, 0.130901664495, 0.023732820526, -0.138577833772, -0.101989552379, 0.012635719031, -0.179039984941, 0.063088886440, -0.068108640611, -0.066065832973, 0.036791477352, -0.155655682087, 0.153267651796, 0.026749363169, -0.023477068171, -0.147457927465, -0.095269761980, 0.151699304581, 0.066102527082, -0.011992351152, -0.190688937902, 0.191923022270, 0.013057640754, -0.022900467739, 0.107525266707, -0.051983512938, -0.149783521891, 0.057067696005, -0.049095861614, 0.058285746723, -0.141791522503, -0.020799575374, 0.069292902946, -0.135588839650, -0.050263062119, 0.087353281677, 0.041353765875, 0.037572830915, 0.000492425403, -0.156244367361, -0.091921523213, 0.020736308768, -0.147925898433, 0.220180988312, 0.112586766481, 0.045604936779, 0.111360371113, 0.051763504744, 0.061080899090, 0.000632391602, 0.179195597768, -0.070913717151, 0.107578776777, -0.101959757507, -0.040448326617, -0.030743880197, -0.038707599044, -0.145791515708, 0.046985492110, 0.134824693203, -0.114817924798, 0.078779965639, -0.122572980821, 0.075550720096, -0.018630649894, 0.034788943827, 0.200920224190, -0.095953471959, -0.171685829759, -0.107906609774, 0.000305255176, 0.078220292926, -0.142408043146, -0.138118311763, 0.146578937769, 0.002015642123, 0.085122585297, 0.090823307633, -0.141503185034, 0.060368411243, -0.109274238348, -0.000771388644, -0.115801751614, 0.129235580564, 0.169695302844, 0.116412706673, -0.023073602468, -0.056095980108, -0.118590220809, 0.127256870270, 0.130404263735, 0.117920361459, 0.021034220234, -0.084605403244, 0.039563931525, -0.146713852882, 0.132354095578, 0.004949868657, 0.006853853818, -0.022200625390, 0.217317730188, 0.045471306890, 0.080328889191, 0.118186257780, 0.117559172213, -0.026054551825, 0.109955094755, -0.125025331974, -0.024298170581, 0.033784639090, 0.084998525679, 0.160048440099, 0.036404073238, -0.099804334342, 0.098433338106, 0.002042597858, -0.063764758408, -0.174968585372, -0.059802211821, -0.042117424309, 0.045253988355, -0.081737518311, -0.143242612481, -0.182917669415, 0.023029647768, -0.101552747190, 0.018190464005, -0.119769841433, 0.077176377177, 0.151866972446, -0.124031670392, 0.160440623760, 0.120405189693, 0.019761661068, 0.112160384655, 0.009695930406, -0.065306693316, 0.047440394759, -0.068904593587, -0.057141330093, -0.101721853018, -0.020402306691, -0.218955561519, -0.120309509337, 0.166196897626, -0.046498425305, -0.002970105037, -0.032283488661, -0.074446387589, -0.070172049105, -0.029188424349, 0.012049537152, 0.095909014344, -0.155058979988, 0.065214358270, -0.117281071842, 0.083229035139, -0.013207501732, 0.279812842607, -0.026432361454, 0.173662140965, 0.149425387383, -0.010561369359, -0.112741798162, 0.125705778599, 0.012766245753, 0.016367850825, 0.068941593170, 0.144223600626, -0.052315130830, -0.015745578334, -0.033338684589, -0.149186760187, -0.006333507597, 0.032780766487, 0.064688280225, -0.041577417403, -0.000685141655, -0.186839103699, -0.204871565104, 0.066571705043, 0.014878006652, -0.044742532074, 0.041096698493, 0.085865877569, 0.056697338820, 0.007636626251, -0.113530486822, 0.155608773232, 0.012800049968, 0.178783088923, -0.081023961306, 0.136164665222, -0.008230163716, 0.026641953737, 0.164013326168, -0.141652047634, 0.060195725411, -0.082633525133, 0.137128725648, 0.191495627165, 0.222521170974, -0.039584547281, 0.134752526879, -0.199556261301, -0.166130229831, 0.015051753260, -0.014094148763, 0.145499080420, 0.058685179800, -0.146055161953, -0.144504934549, 0.057040475309, 0.094066321850, 0.159543454647, -0.132052704692, -0.102697454393, -0.010228792205, 0.142882019281, -0.009184935130, -0.024372754619, 0.100530676544, 0.084160730243, 0.132406875491, -0.015340511687, -0.053864315152, -0.142776802182, -0.018709011376, 0.104870416224, 0.061406590044, -0.205784589052, 0.021381657571, -0.132248371840, -0.037068951875, 0.161306053400, 0.045390285552, -0.010907070711, -0.162299975753, 0.048633649945, -0.106255143881, -0.054408270866, 0.037761766464, 0.266313880682, 0.039864778519, -0.207037329674, -0.016924869269, -0.183628529310, 0.126445591450, -0.128595888615, -0.166133195162, -0.233652234077, -0.103435307741, 0.135725483298, 0.039500899613, -0.014635819010, 0.118485458195, 0.055029157549, -0.043563202024, 0.258291125298, 0.164638340473, 0.078510470688, 0.042352553457, -0.050522945821, -0.225895240903, -0.031908523291, -0.002733516740, 0.002135927789, 0.089744627476, 0.206613093615, -0.133087664843, -0.103035435081, 0.005461945664, 0.132429704070, 0.178745701909, -0.009445295669, 0.010370417498, 0.098758354783, 0.153654932976, 0.009256291203, -0.118454210460, -0.027465093881, 0.185110986233, -0.123530119658, -0.076465390623, 0.145080119371, 0.058229189366, 0.003395077307, 0.114339411259, -0.005401365459, -0.125065654516, -0.016706807539, -0.276007443666, -0.163057625294, 0.069255121052, 0.043393850327, -0.003029767890, -0.123467087746, -0.067909777164, 0.089499317110, -0.140196815133, 0.116565108299, 0.100163713098, 0.028860423714, -0.116856604815, 0.065109603107, 0.085257425904, 0.061582278460, 0.024264035746, -0.077516928315, 0.026928151026, 0.001873064088, -0.173768058419, 0.055227078497, -0.069705247879, -0.236430749297, 0.007271778304, 0.201285749674, -0.054621852934, -0.085603013635, -0.119223825634, 0.025617975742, 0.060200762004, 0.112056717277, -0.161099195480, 0.022240992635, -0.093156531453, 0.209483265877, -0.046215724200, 0.039756279439, -0.164702057838, 0.020377894863, -0.090012796223, 0.014618811198, 0.050165563822, -0.021885685623, 0.103369355202, -0.141995877028, -0.188355565071, -0.086902804673, 0.125460058451, -0.033849410713, -0.264953911304, 0.212377235293, -0.062637716532, 0.086076550186, -0.071069173515, -0.154507681727, -0.126469284296, 0.101812906563, -0.194806888700, -0.118432775140, -0.085990719497, -0.077527016401, 0.017296286300, 0.122582487762, 0.060819972306, 0.024289008230, -0.071675218642, -0.020531229675, 0.000651215611, 0.130506873131, 0.090206958354, 0.151240125299, 0.138270571828, 0.104066140950, -0.006721161306, 0.037580847740, -0.065568551421, 0.124334283173, 0.126391500235, -0.109496444464, -0.067342415452, -0.132456138730, -0.114330604672, 0.074842475355, -0.087914340198, 0.072804577649, 0.079243168235, -0.063956625760, -0.154231503606, 0.018819836900, 0.023935383186, -0.071635872126, 0.107245191932, 0.117635458708, 0.033756557852, -0.156389221549, -0.053765729070, -0.023285768926, -0.032276172191, 0.065828368068, 0.075619630516, -0.128364428878, 0.065851129591, 0.039539713413, -0.155059084296, -0.159303754568, -0.167929336429, 0.019988367334, 0.081455729902, -0.056225098670, -0.032327696681, 0.040988035500, 0.141160741448, 0.063745379448, -0.008474229835, -0.071621403098, -0.043178860098, 0.114610224962, 0.143840253353, 0.111997254193, -0.022102445364, 0.074437744915, 0.138147041202, 0.133195921779, 0.196743011475, 0.124456174672, -0.092076793313, -0.145985573530, -0.125054091215, -0.147859707475, -0.088400006294, -0.010576085187, 0.148816481233, -0.067795500159, -0.081982977688, 0.176232904196, 0.003604674712, 0.013301215135, -0.056124724448, 0.136513575912, 0.145522013307, -0.021486043930, -0.091689854860, -0.134466901422, 0.022909350693, 0.155136749148, 0.086973614991, -0.133141681552, 0.017684200779, -0.054689873010, 0.075370825827, -0.039249107242, 0.198992744088, -0.106431081891, -0.000711378758, -0.024523274973, 0.095529556274, 0.180709317327, -0.097104415298, 0.011503619142, 0.210329994559, -0.063126266003, 0.069775536656, 0.071697235107, -0.085228651762, -0.142996624112, 0.006688104942, 0.082991659641, 0.062613733113, 0.000600736239, 0.102979823947, -0.016709709540, 0.030536051840, -0.020928908139, 0.147891342640, 0.241246089339, -0.069714985788, -0.084702529013, 0.069172956049, 0.097170457244, 0.017752902582, 0.127332597971, 0.141993239522, -0.024767387658, 0.031395673752, -0.020510511473, 0.192253097892, -0.000679320132, -0.118094041944, 0.175717040896, 0.045780785382, 0.128029510379, 