//Numpy array shape (84, 10)
//Min -0.445905119181
//Max 0.383387386799
//Number of zeros 0

weight_default_t w7[840] = {0.158005610108, -0.043376982212, 0.106894016266, -0.249968707561, 0.296450734138, 0.151257947087, 0.034446492791, 0.163941845298, 0.130415678024, -0.129540920258, -0.134187310934, 0.070226028562, -0.380243420601, 0.000828472548, -0.240292623639, -0.162254884839, -0.318907499313, 0.074252367020, -0.202085882425, 0.201116263866, -0.341637492180, 0.255519777536, 0.271833598614, -0.002569842385, -0.142709329724, -0.393035233021, -0.096032135189, 0.112649045885, -0.228785306215, 0.049684077501, 0.269195169210, 0.268016368151, 0.161419898272, 0.052899282426, -0.254042267799, -0.248251482844, 0.027554528788, -0.019254451618, -0.199356436729, 0.085713505745, -0.410697966814, -0.122219592333, 0.017889268696, 0.123167231679, 0.114054910839, -0.180167570710, -0.121954932809, -0.364478617907, 0.305438578129, 0.208923056722, -0.103394448757, 0.247982323170, -0.249631151557, -0.182495117188, 0.245056390762, 0.057899601758, 0.135269001126, -0.162857502699, -0.010265144520, -0.226797193289, -0.166845038533, -0.128351867199, 0.230591610074, 0.291824877262, 0.148195669055, 0.144319713116, 0.108214668930, 0.296887457371, 0.047924801707, -0.154055327177, -0.071609556675, 0.099036298692, 0.112075723708, -0.262341707945, 0.131417915225, -0.006981641054, 0.141048863530, 0.358584761620, -0.183069974184, -0.099435947835, -0.215709537268, 0.158688947558, 0.026317330077, 0.048952221870, 0.337412536144, 0.050247833133, -0.102598793805, 0.145618751645, -0.141868233681, 0.301115721464, -0.260697335005, 0.286581814289, -0.104362778366, -0.118936590850, -0.133404329419, 0.215725213289, 0.108833484352, 0.194671913981, 0.059085410088, -0.363948047161, 0.260638147593, -0.318627595901, 0.061759497970, 0.137524962425, -0.073511809111, 0.014380044304, 0.209948122501, -0.087677299976, -0.001158903004, 0.059979405254, 0.085524603724, 0.151237607002, 0.182627916336, -0.172186538577, 0.224599972367, -0.016450982541, -0.005781541113, 0.031966693699, -0.076405473053, 0.207429498434, -0.064441233873, 0.145792469382, -0.100332334638, 0.185925602913, 0.315058708191, 0.154848232865, -0.252343416214, -0.044687792659, -0.073273263872, -0.063575178385, -0.318646013737, 0.035995956510, -0.115238443017, -0.030483899638, 0.093785822392, 0.295889168978, -0.288887679577, -0.130339384079, 0.044930744916, 0.184055224061, 0.080510988832, -0.137271746993, 0.061044402421, -0.196326240897, 0.193863436580, 0.001045982586, 0.230225756764, 0.101309031248, -0.246748000383, 0.009048961103, -0.080060176551, 0.194932967424, 0.095723286271, 0.073188789189, -0.226636469364, -0.239742860198, -0.247538164258, -0.221084207296, -0.077816098928, 0.046228244901, -0.022668950260, 0.290773987770, -0.133565083146, -0.074981085956, -0.112711749971, -0.171477600932, 0.193956851959, 0.160796061158, -0.032885845751, -0.129469186068, -0.065076895058, 0.046860903502, 0.227259755135, -0.013438279741, -0.223281547427, 0.152131438255, -0.004285010975, 0.314181268215, -0.224093437195, 0.009349434637, 0.019527383149, 0.190265953541, -0.202562376857, -0.209192559123, -0.064274422824, 0.182464137673, 0.202432140708, -0.330512583256, -0.266898751259, 0.225405246019, 0.264710426331, 0.137148588896, -0.061155617237, -0.017475735396, -0.179177612066, 0.118388324976, 0.242468342185, -0.259593635798, -0.213437095284, -0.240455135703, 0.000052735035, -0.212073028088, -0.261629581451, 0.245380371809, -0.349220395088, 0.366210103035, 0.123602554202, -0.001075451495, 0.110198594630, -0.058287613094, -0.199615150690, -0.183991581202, 0.223627552390, 0.171774715185, 0.159030035138, 0.300830423832, -0.191813975573, -0.265622347593, 0.061548296362, -0.102706335485, 0.089507900178, 0.183504924178, -0.136830046773, -0.110319599509, 0.022936495021, -0.253026902676, 0.137884676456, 0.010794902220, 0.169555619359, -0.348827362061, -0.244527891278, -0.245820179582, 0.173554226756, 0.033750545233, 0.078170515597, -0.233431816101, -0.279433727264, -0.112630710006, -0.177222266793, -0.339410156012, -0.190735071898, -0.145809650421, 0.053238347173, -0.140944704413, -0.078355178237, -0.027454897761, 0.070022962987, -0.192877262831, 0.069557800889, 0.035686235875, -0.060768496245, -0.180283844471, -0.192280635238, 0.164245396852, 0.212596893311, 0.023750033230, -0.303838223219, -0.246320441365, 0.212766736746, 0.200781017542, 0.024458182976, -0.080818712711, 0.111811608076, 0.213724359870, 0.119685322046, -0.169394373894, 0.294687896967, -0.231704428792, 0.221804305911, -0.238489240408, 0.045679114759, -0.025214683264, 0.147322371602, 0.177135929465, -0.188021838665, -0.049298811704, -0.025713238865, -0.128057926893, -0.093972332776, -0.436797559261, 0.220227971673, 0.046384599060, 0.260471940041, -0.153533041477, -0.182784914970, -0.153854265809, 0.150007352233, 0.161255031824, -0.277274698019, -0.120791301131, 0.056680072099, 0.257442831993, 0.212988600135, -0.072707355022, -0.060521796346, 0.014859840274, -0.110486790538, 0.102671124041, 0.187223419547, -0.093237452209, -0.388978749514, -0.128342494369, 0.019626913592, 0.050754208118, -0.195395052433, -0.028055172414, -0.097035504878, -0.014613196254, -0.173595055938, -0.050540667027, -0.171120584011, 0.032859876752, -0.099307060242, -0.250188291073, 0.051582530141, 0.059866689146, 0.071477413177, 0.277393430471, -0.329656243324, 0.178486794233, 0.024647815153, -0.235502496362, -0.212460905313, 0.138294443488, 0.033274888992, 0.011759853922, 0.147524192929, -0.325585424900, -0.073094502091, -0.265140205622, 0.075583636761, -0.307868957520, 0.162386417389, 0.272691220045, 0.218081191182, -0.227166384459, 0.059947069734, -0.116349518299, 0.071129485965, -0.030066791922, 0.161338701844, 0.197275057435, 0.111550465226, -0.121453173459, 0.115724831820, -0.038669165224, -0.203299120069, -0.445905119181, -0.110864706337, 0.002372163581, -0.069025769830, -0.054567210376, -0.048503924161, -0.164584815502, -0.021305995062, -0.012959050946, 0.034474845976, -0.192813023925, 0.087766118348, 0.242882579565, -0.042394418269, 0.168772786856, -0.219003096223, 0.169869884849, -0.002946683671, 0.307337999344, -0.346390962601, 0.156434014440, 0.140110328794, -0.023036377504, 0.035302270204, 0.112601108849, 0.177803516388, 0.314446657896, -0.319686174393, -0.220984265208, -0.338261961937, -0.034914594144, 0.153967320919, -0.055721294135, 0.030506292358, -0.260777711868, 0.044716630131, -0.200132906437, 0.192225247622, -0.321678161621, 0.213373616338, -0.038198407739, 0.257468968630, -0.237947806716, -0.045104809105, 0.195259764791, -0.092188380659, -0.403736293316, 0.123156256974, 0.121016740799, 0.163569733500, -0.025999309495, -0.061096452177, 0.097517631948, 0.291860729456, -0.399122506380, 0.089154683053, 0.061081398278, 0.225489929318, -0.242583587766, -0.140340417624, 0.038864091039, 0.033871170133, 0.146254912019, 0.269019067287, -0.096504352987, -0.032481841743, -0.297918349504, -0.223599553108, -0.114010393620, -0.098116107285, 0.211236208677, 0.044439602643, 0.197085425258, 0.376601040363, 0.165402606130, 0.042070850730, -0.029734658077, -0.298287004232, -0.119295492768, 0.035733819008, 0.272028714418, -0.132256671786, -0.082522429526, 0.109776720405, 0.272146224976, -0.185996308923, -0.397890925407, 0.197470590472, -0.065758593380, 0.096350677311, -0.108620285988, -0.155874118209, 0.168332636356, -0.347300887108, -0.071722187102, -0.218186587095, -0.257285952568, 0.054029218853, -0.013523399830, 0.097584098577, -0.273228794336, 0.030551925302, -0.028827151284, -0.183592677116, -0.044914804399, -0.266385436058, 0.192293971777, -0.002694291063, -0.296956807375, -0.061620336026, -0.163921192288, 0.102376550436, 0.155157446861, -0.024387074634, -0.267213970423, -0.257187217474, 0.311536341906, -0.116234950721, 0.225877016783, -0.070594310760, 0.082555517554, -0.048209968954, 0.045186694711, 0.350552618504, -0.012207509018, -0.146033570170, -0.186824470758, -0.153115957975, 0.152044594288, 0.032624639571, 0.207444339991, -0.052152544260, -0.181798428297, -0.140989899635, -0.296825557947, 0.157774552703, -0.000830598932, -0.269895493984, -0.227217078209, -0.003318316769, 0.013978756033, 0.159334227443, 0.062820971012, -0.233940780163, 0.215134114027, 0.248396009207, -0.288663536310, 0.250986844301, -0.163136988878, -0.263857871294, -0.130175307393, 0.165610581636, -0.192558839917, -0.219191819429, 0.023926926777, -0.166473537683, 0.271100789309, -0.278952091932, -0.197180613875, -0.368530273438, 0.240831926465, 0.106002546847, -0.044784355909, -0.152890205383, -0.177970007062, 0.240476667881, 0.128601387143, -0.032415930182, -0.103920817375, 0.086150206625, -0.274742007256, -0.151481047273, -0.167055368423, -0.248485505581, 0.109575651586, -0.162529706955, 0.230849057436, -0.079145438969, -0.011703374796, 0.211511075497, 0.119734928012, -0.079603835940, -0.332313269377, 0.032247547060, -0.012120667845, -0.362646162510, -0.137939035892, 0.150869429111, 0.210852041841, 0.119124419987, 0.234067142010, -0.044997043908, 0.021575605497, -0.175984650850, -0.343068420887, -0.225205719471, -0.155486732721, -0.172722712159, -0.067401103675, -0.278219848871, 0.112901538610, 0.233279675245, 0.236374720931, 0.244900166988, 0.274418205023, -0.064050070941, -0.190515026450, 0.067824035883, -0.157201156020, -0.168657094240, 0.022386441007, -0.163128599524, 0.036755729467, 0.136954069138, 0.019107209519, -0.331635564566, -0.026404134929, 0.061567984521, 0.061398770660, -0.115359261632, -0.275036066771, -0.152811706066, -0.074625514448, -0.217804074287, -0.121398515999, 0.256813645363, 0.068942978978, -0.150695994496, -0.211128503084, 0.188574567437, -0.360933154821, -0.222834318876, 0.267977237701, 0.149768203497, -0.350394636393, -0.357828915119, -0.277044624090, -0.025714412332, 0.109299816191, 0.025583855808, -0.314507573843, -0.108975008130, 0.028974866495, -0.198088318110, 0.160630270839, -0.075293757021, -0.259277343750, -0.249163061380, 0.226878166199, 0.299971997738, -0.175861015916, 0.017034573480, -0.039896417409, 0.042056702077, 0.152374371886, -0.009771457873, -0.342800319195, -0.101639628410, 0.117194980383, -0.255077362061, 0.226063251495, 0.194345831871, -0.049160912633, -0.183724343777, 0.067707933486, -0.045591268688, 0.181437164545, 0.220919907093, -0.375059545040, -0.093646302819, 0.112584285438, 0.157490432262, -0.148578420281, -0.077959142625, 0.311475157738, -0.361154288054, 0.073752440512, -0.011407220736, -0.349642068148, 0.144253209233, -0.004464268684, 0.245798960328, -0.165745005012, -0.321158319712, -0.160049259663, -0.178620994091, -0.244308292866, -0.084604308009, 0.203368589282, 0.289690196514, -0.018505565822, 0.260394454002, 0.000337988196, -0.179760605097, 0.003792365314, -0.150734946132, 0.199853584170, 0.064363755286, -0.104567810893, -0.254022210836, 0.159618481994, 0.229181602597, -0.023608073592, 0.037437938154, -0.000157138347, 0.169553428888, -0.097415901721, -0.098412707448, -0.031324110925, -0.207799628377, -0.124172091484, 0.035410530865, 0.066098168492, -0.150404527783, -0.282023400068, -0.288219571114, 0.165787026286, 0.235664814711, -0.153448000550, -0.245849326253, 0.078770317137, -0.276756942272, 0.116182968020, 0.283113926649, -0.261170923710, -0.168590009212, -0.407440453768, 0.162056982517, -0.166565790772, 0.025232007727, -0.186004951596, 0.160855710506, 0.210922256112, -0.226862773299, 0.076268889010, -0.319795846939, 0.205050691962, 0.137376964092, 0.165163949132, -0.105034716427, -0.217951491475, -0.291276454926, -0.175804361701, 0.073313929141, -0.196216717362, -0.157686382532, -0.249372571707, -0.125801086426, -0.186810821295, -0.173892840743, -0.270474523306, 0.184177100658, 0.268230944872, -0.140015184879, 0.205908656120, -0.204647570848, 0.239352226257, 0.221009418368, 0.093239627779, 0.158652424812, -0.095584459603, 0.165544316173, -0.002468364546, -0.352052301168, -0.084287457168, -0.006289057899, 0.063150301576, -0.170709446073, 0.161365360022, -0.333020806313, -0.204615935683, 0.030905889347, 0.204769492149, -0.183419749141, 0.127580538392, 0.121558472514, 0.234977483749, 0.214635968208, -0.131959348917, -0.331795871258, -0.065733976662, 0.085864633322, 0.006946905982, 0.088918641210, 0.022682929412, -0.000869035022, 0.229488953948, 0.086863830686, 0.097655527294, -0.285977900028, -0.287755906582, -0.370591938496, 0.383387386799, -0.294436186552, -0.055748067796, -0.394963234663, -0.195783078671, 0.000755572459, 0.136454373598, -0.087302826345, 0.069270886481, 0.163180887699, 0.076977014542, 0.020523773506, 0.097405582666, 0.006537368521, 0.029427420348, -0.282494753599, 0.228390917182, 0.233547747135, -0.305596798658, 0.162043794990, 0.011607275344, 0.113826155663, -0.098404228687, -0.150766149163, 0.154346674681, -0.334413796663, -0.119058541954, 0.143397673965, 0.185208886862, -0.131660014391, -0.017511233687, 0.077866204083, 0.007963258773, 0.247726365924, -0.099277429283, 0.027487894520, 0.043860789388, -0.164540559053, -0.333265841007, -0.233560323715, -0.263900548220, 0.076998822391, 0.081198081374, -0.233389273286, 0.060631241649, 0.123736232519, 0.002071761992, -0.270743876696, 0.127908140421, -0.007172602229, -0.082190617919, -0.071081317961, -0.048988349736, 0.251201987267, -0.240965500474, -0.207804515958, 0.062345087528, 0.037245746702, -0.141822785139, 0.243198126554, -0.355336606503, 0.110465757549, -0.401544302702, 0.137455731630, -0.124284781516, -0.162930145860, 0.072034522891, -0.207930624485, -0.012695144862, -0.239940658212, 0.194995835423, -0.196436733007, 0.074165649712, 0.049043230712, 0.057562600821, -0.228023678064, 0.324214309454, -0.217967867851, 0.134682476521, -0.148161962628, -0.324226737022, 0.288212627172, 0.243486091495, 0.259924024343, -0.222500756383, -0.266496092081, 0.095479860902, 0.205138936639, -0.232806637883, -0.209738358855, -0.220745816827, 0.124704904854, -0.247577100992, 0.186943992972, -0.031060704961, -0.107571028173, -0.147245094180, -0.380679398775, 0.281640470028, -0.114630438387, 0.150456905365};
